tree
version=v4
num_class=1
num_tree_per_iteration=1
label_index=0
max_feature_idx=399
objective=regression
feature_names=Column_0 Column_1 Column_2 Column_3 Column_4 Column_5 Column_6 Column_7 Column_8 Column_9 Column_10 Column_11 Column_12 Column_13 Column_14 Column_15 Column_16 Column_17 Column_18 Column_19 Column_20 Column_21 Column_22 Column_23 Column_24 Column_25 Column_26 Column_27 Column_28 Column_29 Column_30 Column_31 Column_32 Column_33 Column_34 Column_35 Column_36 Column_37 Column_38 Column_39 Column_40 Column_41 Column_42 Column_43 Column_44 Column_45 Column_46 Column_47 Column_48 Column_49 Column_50 Column_51 Column_52 Column_53 Column_54 Column_55 Column_56 Column_57 Column_58 Column_59 Column_60 Column_61 Column_62 Column_63 Column_64 Column_65 Column_66 Column_67 Column_68 Column_69 Column_70 Column_71 Column_72 Column_73 Column_74 Column_75 Column_76 Column_77 Column_78 Column_79 Column_80 Column_81 Column_82 Column_83 Column_84 Column_85 Column_86 Column_87 Column_88 Column_89 Column_90 Column_91 Column_92 Column_93 Column_94 Column_95 Column_96 Column_97 Column_98 Column_99 Column_100 Column_101 Column_102 Column_103 Column_104 Column_105 Column_106 Column_107 Column_108 Column_109 Column_110 Column_111 Column_112 Column_113 Column_114 Column_115 Column_116 Column_117 Column_118 Column_119 Column_120 Column_121 Column_122 Column_123 Column_124 Column_125 Column_126 Column_127 Column_128 Column_129 Column_130 Column_131 Column_132 Column_133 Column_134 Column_135 Column_136 Column_137 Column_138 Column_139 Column_140 Column_141 Column_142 Column_143 Column_144 Column_145 Column_146 Column_147 Column_148 Column_149 Column_150 Column_151 Column_152 Column_153 Column_154 Column_155 Column_156 Column_157 Column_158 Column_159 Column_160 Column_161 Column_162 Column_163 Column_164 Column_165 Column_166 Column_167 Column_168 Column_169 Column_170 Column_171 Column_172 Column_173 Column_174 Column_175 Column_176 Column_177 Column_178 Column_179 Column_180 Column_181 Column_182 Column_183 Column_184 Column_185 Column_186 Column_187 Column_188 Column_189 Column_190 Column_191 Column_192 Column_193 Column_194 Column_195 Column_196 Column_197 Column_198 Column_199 Column_200 Column_201 Column_202 Column_203 Column_204 Column_205 Column_206 Column_207 Column_208 Column_209 Column_210 Column_211 Column_212 Column_213 Column_214 Column_215 Column_216 Column_217 Column_218 Column_219 Column_220 Column_221 Column_222 Column_223 Column_224 Column_225 Column_226 Column_227 Column_228 Column_229 Column_230 Column_231 Column_232 Column_233 Column_234 Column_235 Column_236 Column_237 Column_238 Column_239 Column_240 Column_241 Column_242 Column_243 Column_244 Column_245 Column_246 Column_247 Column_248 Column_249 Column_250 Column_251 Column_252 Column_253 Column_254 Column_255 Column_256 Column_257 Column_258 Column_259 Column_260 Column_261 Column_262 Column_263 Column_264 Column_265 Column_266 Column_267 Column_268 Column_269 Column_270 Column_271 Column_272 Column_273 Column_274 Column_275 Column_276 Column_277 Column_278 Column_279 Column_280 Column_281 Column_282 Column_283 Column_284 Column_285 Column_286 Column_287 Column_288 Column_289 Column_290 Column_291 Column_292 Column_293 Column_294 Column_295 Column_296 Column_297 Column_298 Column_299 Column_300 Column_301 Column_302 Column_303 Column_304 Column_305 Column_306 Column_307 Column_308 Column_309 Column_310 Column_311 Column_312 Column_313 Column_314 Column_315 Column_316 Column_317 Column_318 Column_319 Column_320 Column_321 Column_322 Column_323 Column_324 Column_325 Column_326 Column_327 Column_328 Column_329 Column_330 Column_331 Column_332 Column_333 Column_334 Column_335 Column_336 Column_337 Column_338 Column_339 Column_340 Column_341 Column_342 Column_343 Column_344 Column_345 Column_346 Column_347 Column_348 Column_349 Column_350 Column_351 Column_352 Column_353 Column_354 Column_355 Column_356 Column_357 Column_358 Column_359 Column_360 Column_361 Column_362 Column_363 Column_364 Column_365 Column_366 Column_367 Column_368 Column_369 Column_370 Column_371 Column_372 Column_373 Column_374 Column_375 Column_376 Column_377 Column_378 Column_379 Column_380 Column_381 Column_382 Column_383 Column_384 Column_385 Column_386 Column_387 Column_388 Column_389 Column_390 Column_391 Column_392 Column_393 Column_394 Column_395 Column_396 Column_397 Column_398 Column_399
feature_infos=[-0.50033402442932129:0.24137580394744873] [-0.0014304359210655093:0.00053566263522952795] [-1.4029788970947266:0.71758723258972168] [-0.80180191993713379:0.59379422664642334] [-0.99761974811553955:0.82686382532119751] [-0.6674150824546814:0.44260716438293457] [-0.71250331401824951:0.41872245073318481] [-1.5759310722351074:1.5369099378585815] [-0.32962074875831604:0.3306785523891449] [-0.64878344535827637:0.84059607982635498] [-0.65602266788482666:0.25146880745887756] [-0.2810232937335968:0.20514670014381409] [-1.3916876316070557:1.1380969285964966] [-0.20374663174152374:0.20742237567901611] [-1.5474786758422852:2.0118067264556885] [-0.3758125901222229:0.55553388595581055] [-0.024414597079157829:0.025115691125392914] [-1.0343450307846069:1.661515474319458] [-0.6401100754737854:0.34738031029701233] [-0.37310138344764709:0.23770323395729065] [-0.71754449605941772:0.34263229370117188] [-0.0022873657289892435:0.0009734964114613831] [-0.82031631469726562:1.7326713800430298] [-0.19732443988323212:0.30295011401176453] [-0.59893816709518433:0.28392285108566284] [-1.3704088926315308:1.2027661800384521] [-1.5458203554153442:1.6113755702972412] [-0.09886777400970459:0.19860020279884338] [-1.1190165281295776:0.58900207281112671] [-1.8797316551208496:1.873117208480835] [-1.5711159706115723:1.7543220520019531] [-0.99199444055557251:1.0592184066772461] [-1.4778578281402588:0.98911184072494507] [-0.29058846831321716:0.18393748998641968] [-1.6695655584335327:1.654297947883606] [-1.2028799057006836:1.2298243045806885] [-0.39903023838996887:0.42200711369514465] [-0.56687188148498535:0.32482299208641052] [-1.3191177845001221:0.68622153997421265] [-1.193200945854187:1.1665959358215332] [-0.64080017805099487:0.30017361044883728] [-2.1998181343078613:1.731553316116333] [-1.1601676940917969:0.63746345043182373] [-1.1744898557662964:1.4663455486297607] [-0.29986509680747986:0.61364525556564331] [-0.91142129898071289:2.4763059616088867] [-0.14342391490936279:0.16108185052871704] [-0.012115731835365295:0.0089721735566854477] [-0.7683907151222229:1.2491333484649658] [-0.32871297001838684:0.65354722738265991] [-0.5096849799156189:0.64533406496047974] [-1.4109920263290405:0.71028667688369751] [-0.13362453877925873:0.16218271851539612] [-0.31954345107078552:1.0285764932632446] [-0.4934055507183075:0.143144890666008] [-1.6801800727844238:1.6215057373046875] [-0.49358537793159485:0.25758981704711914] [-0.10305183380842209:0.092071190476417542] [-0.80373519659042358:0.4557499885559082] [-0.0069602248258888721:0.0042045572772622108] [-0.46197769045829773:0.1748654693365097] [-0.0020837909542024136:0.0020180228166282177] [-2.2916204929351807:1.7401907444000244] [-0.60102784633636475:0.72024399042129517] [-0.27407738566398621:0.35300186276435852] [-0.22521777451038361:0.21376298367977142] [-0.18674895167350769:0.12455915659666061] [-0.81721258163452148:0.35298812389373779] [-0.87220990657806396:0.55882066488265991] [-0.78854137659072876:0.74447846412658691] [-0.158839151263237:0.37188223004341125] [-0.72446745634078979:0.54112917184829712] [-0.0071848495863378048:0.014527381397783756] [-1.4368464946746826:1.3258756399154663] [-0.2405148446559906:0.56139743328094482] [-0.18043495714664459:0.38436684012413025] [-0.10865838825702667:0.12727555632591248] [-0.60929363965988159:0.36177223920822144] [-0.76532584428787231:0.63877314329147339] [-0.0022060920018702745:0.0052709388546645641] [-0.30116215348243713:0.074042238295078278] [-0.19580039381980896:0.43411839008331299] [-0.28350892663002014:0.44067895412445068] [-0.011101630516350269:0.013387284241616726] [-0.068353019654750824:0.097062043845653534] [-1.1540817022323608:1.5917301177978516] [-0.25339549779891968:0.47244217991828918] [-0.55017882585525513:0.22187675535678864] [-1.4082646369934082:1.1104276180267334] [-0.51252609491348267:0.17370213568210602] [-0.097358681261539459:0.087910838425159454] [-1.0590094327926636:0.4215550422668457] [-0.0086988406255841255:0.0092494627460837364] [-0.36354073882102966:0.39111217856407166] [-1.0528234243392944:0.89617681503295898] [-0.53124237060546875:0.98472636938095093] [-0.5047338604927063:0.85732758045196533] [-0.36052441596984863:0.17623597383499146] [-0.55878651142120361:1.0166932344436646] [-0.0033670279663056135:0.0052807326428592205] [-0.95198148488998413:1.577134370803833] [-0.17027932405471802:0.44649937748908997] [-1.2521090507507324:0.81146436929702759] [-0.4072684645652771:0.19430622458457947] [-0.24381420016288757:0.9899522066116333] [-1.0539642572402954:1.9150174856185913] [-0.16480815410614014:0.3302176296710968] [-0.96117854118347168:0.97180497646331787] [-1.2588567733764648:1.524450421333313] [-0.2057209312915802:0.57926535606384277] [-0.11960471421480179:0.0823068767786026] [-0.20414327085018158:0.22551752626895905] [-1.4714491367340088:1.4091099500656128] [-0.63524729013442993:0.46005135774612427] [-1.0594403743743896:1.2407712936401367] [-1.6482484340667725:0.8403393030166626] [-0.47085371613502502:0.87797790765762329] [-0.83119446039199829:0.84673655033111572] [-0.97752910852432251:0.39794248342514038] [-0.34010711312294006:0.20701576769351959] [-0.33785673975944519:0.32687106728553772] [-0.0035604711156338453:0.0095644537359476089] [-1.1121309995651245:1.4787516593933105] [-0.097164027392864227:0.23876757919788361] [-0.45968112349510193:0.32306653261184692] [-0.9981849193572998:1.4062981605529785] [-0.27004453539848328:0.38190257549285889] [-1.0699465274810791:0.30855607986450195] [-1.4986264705657959:1.1273767948150635] [-0.23198315501213074:0.58054482936859131] [-0.4292265772819519:0.96877485513687134] [-0.12510603666305542:0.26584064960479736] [-0.68973064422607422:0.37967348098754883] [-0.96781229972839355:1.2453082799911499] [-0.41287079453468323:0.76689553260803223] [-0.43512329459190369:0.41865727305412292] [-0.53922849893569946:0.18185576796531677] [-1.3910330533981323:1.2009403705596924] [-0.01505908090621233:0.0074027562513947487] [-0.51957082748413086:1.0188544988632202] [-1.5802158117294312:2.3385627269744873] [-0.55390667915344238:0.77389997243881226] [-0.33737024664878845:0.82793062925338745] [-1.4486156702041626:1.4455827474594116] [-1.0039540529251099:0.77489960193634033] [-0.54238098859786987:0.66820311546325684] [-0.44449195265769958:0.21343556046485901] [-0.83453339338302612:1.1112868785858154] [-0.14593915641307831:0.077302441000938416] [-0.45561704039573669:0.29764434695243835] [-0.68152028322219849:1.2482017278671265] [-2.5478408336639404:1.0676156282424927] [-0.268074631690979:0.65112364292144775] [-0.080085337162017822:0.20243635773658752] [-0.72921323776245117:0.22526459395885468] [-0.17103418707847595:0.15213239192962646] [-0.24223129451274872:0.30634981393814087] [-0.69275194406509399:0.80527883768081665] [-2.0739445686340332:2.3232765197753906] [-1.2070804834365845:0.56610369682312012] [-0.20975485444068909:0.17433421313762665] [-0.27104339003562927:0.14432051777839661] [-0.66576993465423584:0.74177944660186768] [-0.11697442084550858:0.089546613395214081] [-0.4663563072681427:1.3178620338439941] [-0.0048642382025718689:0.0040498138405382633] [-0.0067740329541265965:0.013046841137111187] [-2.0325601100921631:2.9857606887817383] [-0.74767857789993286:1.5442444086074829] [-1.0120341777801514:1.0753638744354248] [-0.060946986079216003:0.097138501703739166] [-0.0064458460547029972:0.016337303444743156] [-0.0046537499874830246:0.0042580808512866497] [-0.79110145568847656:0.86758506298065186] [-0.099683359265327454:0.12344563752412796] [-0.6462472677230835:0.86708474159240723] [-0.085758686065673828:0.24555328488349915] [-0.43595808744430542:0.40180495381355286] [-0.15773412585258484:0.28074643015861511] [-0.55719029903411865:1.0114378929138184] [-0.50502693653106689:0.97417223453521729] [-1.2331678867340088:0.98270970582962036] [-0.59737288951873779:0.2707902193069458] [-0.15557947754859924:0.62960994243621826] [-0.32362788915634155:0.28269341588020325] [-0.98787295818328857:0.9409448504447937] [-0.081549994647502899:0.24771571159362793] [-0.75531101226806641:0.27494242787361145] [-2.26454758644104:2.887784481048584] [-0.13439589738845825:0.13543856143951416] [-1.1197885274887085:2.0122520923614502] [-0.41771510243415833:0.22985786199569702] [-15.296895027160645:8.6023283004760742] [-32.574298858642578:6.9843192100524902] [-4.997218132019043:5.2353396415710449] [-15.52595043182373:11.502798080444336] [-9.5381202697753906:5.9282631874084473] [-7.429469108581543:12.684486389160156] [-14.697796821594238:4.2509756088256836] [-6.6045808792114258:23.772243499755859] [-13.501084327697754:7.8836092948913574] [-9.3148384094238281:3.9371185302734375] [-4.3275818824768066:9.3154354095458984] [-4.9732217788696289:12.270261764526367] [-7.986663818359375:8.4604682922363281] [-8.1312723159790039:4.8958539962768555] [-6.4454126358032227:7.6257061958312988] [-6.0552153587341309:9.9523487091064453] [-9.4538249969482422:7.2670941352844238] [-5.0742826461791992:10.522428512573242] [-26.466678619384766:5.0396919250488281] [-16.158601760864258:6.0276923179626465] [-5.9399065971374512:28.214681625366211] [-9.9858837127685547:6.2002959251403809] [-11.400447845458984:9.2092418670654297] [-7.4972400665283203:5.9675297737121582] [-15.668035507202148:5.4961376190185547] [-7.8888535499572754:10.000677108764648] [-15.553949356079102:5.0844860076904297] [-4.9788246154785156:46.388656616210938] [-11.332855224609375:7.7229580879211426] [-5.3016948699951172:11.857261657714844] [-49.319023132324219:3.1791732311248779] [-4.4584875106811523:19.704471588134766] [-65.759117126464844:8.7200450897216797] [-4.9816622734069824:13.994953155517578] [-4.473785400390625:8.1899662017822266] [-6.4800567626953125:22.431655883789062] [-15.265363693237305:12.52888011932373] [-25.085416793823242:4.7646055221557617] [-8.9319391250610352:6.1634526252746582] [-6.403130054473877:8.0496349334716797] [-7.902824878692627:11.579679489135742] [-11.088104248046875:5.6043987274169922] [-10.096334457397461:6.9391803741455078] [-10.764856338500977:4.8478026390075684] [-5.2061352729797363:6.1387777328491211] [-8.7247123718261719:14.513776779174805] [-4.0881853103637695:7.8432378768920898] [-7.0740556716918945:26.493194580078125] [-12.961297988891602:6.2502808570861816] [-6.2243428230285645:5.9026036262512207] [-7.2868180274963379:12.758601188659668] [-7.5324263572692871:6.6055269241333008] [-11.203882217407227:8.5745296478271484] [-10.082990646362305:5.6860485076904297] [-7.6512341499328613:11.713295936584473] [-9.3269758224487305:5.5666580200195312] [-13.810455322265625:8.5371360778808594] [-12.652334213256836:14.799771308898926] [-8.9037332534790039:6.0405893325805664] [-7.8735795021057129:7.4104666709899902] [-9.7099246978759766:9.4661350250244141] [-9.7409095764160156:4.757901668548584] [-3.434145450592041:20.427036285400391] [-10.77650260925293:8.1212530136108398] [-12.61676025390625:4.9197397232055664] [-15.84541130065918:9.2051143646240234] [-39.1492919921875:2.4849755764007568] [-4.9449868202209473:12.020373344421387] [-13.244409561157227:7.1550698280334473] [-4.6344780921936035:20.993904113769531] [-4.7036452293395996:8.5661115646362305] [-4.6178736686706543:14.972378730773926] [-5.8162269592285156:9.5349559783935547] [-7.5168557167053223:8.8068523406982422] [-12.789263725280762:7.020050048828125] [-5.7502527236938477:14.521151542663574] [-8.4076728820800781:10.923816680908203] [-8.3405828475952148:12.453100204467773] [-5.5007462501525879:9.3667764663696289] [-7.8035225868225098:6.3612446784973145] [-5.8205657005310059:17.207614898681641] [-5.5754585266113281:6.0751433372497559] [-8.0420970916748047:12.160263061523438] [-8.9615974426269531:7.9542717933654785] [-8.5500888824462891:8.1318769454956055] [-6.2425546646118164:6.621035099029541] [-14.299779891967773:6.8555536270141602] [-6.2846946716308594:12.601672172546387] [-6.3352065086364746:12.887286186218262] [-7.0165853500366211:4.1408815383911133] [-16.211206436157227:5.372894287109375] [-7.7974367141723633:6.8593897819519043] [-7.1598753929138184:9.5682830810546875] [-2.6786777973175049:8.7690601348876953] [-5.2223043441772461:11.377214431762695] [-15.458727836608887:4.4441781044006348] [-4.8671092987060547:14.404508590698242] [-11.022819519042969:14.013998031616211] [-10.824398040771484:8.1386556625366211] [-8.6029272079467773:14.036972045898438] [-5.664947509765625:15.994059562683105] [-12.75710391998291:2.8137197494506836] [-8.1540937423706055:11.997035980224609] [-7.5309185981750488:6.0142359733581543] [-9.9031715393066406:8.0059719085693359] [-20.599300384521484:8.7073640823364258] [-5.6301279067993164:9.0970315933227539] [-31.227910995483398:5.2082381248474121] [-8.0485515594482422:8.4140005111694336] [-6.5933175086975098:16.013479232788086] [-13.41264820098877:7.4392571449279785] [-7.3476471900939941:9.2139892578125] [-6.853325366973877:13.236798286437988] [-7.3089275360107422:28.705896377563477] [-5.9434013366699219:10.670018196105957] [-8.4535322189331055:4.1734113693237305] [-5.9308500289916992:7.2271971702575684] [-8.0131359100341797:7.3373022079467773] [-16.187658309936523:5.0061526298522949] [-8.959080696105957:11.270476341247559] [-8.3405284881591797:13.120376586914062] [-9.0908946990966797:6.9029979705810547] [-9.7705774307250977:15.863713264465332] [-18.637277603149414:7.3654580116271973] [-8.0303401947021484:7.3169708251953125] [-11.152687072753906:5.3028683662414551] [-9.2684803009033203:6.2553825378417969] [-7.3026762008666992:8.7450332641601562] [-4.5656542778015137:12.194652557373047] [-6.2196502685546875:6.3134965896606445] [-14.186604499816895:6.1118025779724121] [-4.8643589019775391:5.7337913513183594] [-7.9400372505187988:5.369870662689209] [-10.068262100219727:7.5616397857666016] [-6.8003544807434082:15.935965538024902] [-7.2710795402526855:2.9918115139007568] [-6.0901594161987305:10.916524887084961] [-20.065771102905273:10.479762077331543] [-18.244575500488281:5.5995826721191406] [-6.1365108489990234:9.4110326766967773] [-9.7757816314697266:6.64697265625] [-6.6744661331176758:9.3753137588500977] [-5.0840134620666504:15.749734878540039] [-4.807164192199707:15.383813858032227] [-57.667045593261719:5.5431485176086426] [-6.326451301574707:5.7723946571350098] [-6.5200653076171875:7.5214262008666992] [-9.8568973541259766:6.9538030624389648] [-11.004090309143066:17.579679489135742] [-5.6248869895935059:8.3194131851196289] [-7.4078774452209473:10.881197929382324] [-15.897119522094727:4.4126148223876953] [-5.1078095436096191:8.3260459899902344] [-8.8086528778076172:7.6519527435302734] [-5.2464752197265625:10.662755966186523] [-8.833460807800293:7.0906505584716797] [-6.3372859954833984:5.6731157302856445] [-10.678892135620117:5.4713635444641113] [-12.094876289367676:7.5424818992614746] [-7.0402612686157227:8.2952442169189453] [-5.0810408592224121:47.730514526367188] [-6.1763820648193359:8.38885498046875] [-6.0407543182373047:23.864864349365234] [-31.768854141235352:3.9588639736175537] [-64.826362609863281:6.6857929229736328] [-18.056129455566406:5.794771671295166] [-6.6791696548461914:11.924053192138672] [-4.656893253326416:11.325595855712891] [-16.692815780639648:4.7319169044494629] [-7.1221833229064941:5.2559618949890137] [-15.600410461425781:8.7585000991821289] [-6.1362576484680176:10.221014022827148] [-6.669797420501709:8.6897687911987305] [-3.8634281158447266:7.8463630676269531] [-12.97706127166748:10.073592185974121] [-3.7928516864776611:33.1724853515625] [-12.495174407958984:23.056896209716797] [-9.3823633193969727:6.4388971328735352] [-3.8437192440032959:5.8296999931335449] [-2.0080323219299316:57.938335418701172] [-6.5500946044921875:7.1768326759338379] [-4.9433269500732422:41.609657287597656] [-1.9997702836990356:20.267793655395508] [-27.670070648193359:4.9466190338134766] [-6.706479549407959:9.7032384872436523] [-8.3094244003295898:5.568453311920166] [-11.396894454956055:12.918537139892578] [-5.8656845092773438:16.604534149169922] [-12.465887069702148:4.1749458312988281] [-11.797931671142578:5.7878026962280273] [-5.5718398094177246:9.5099678039550781] [-26.464244842529297:4.2350602149963379] [-1.404803991317749:6.6031174659729004] [-1.727409839630127:6.0601158142089844] [-1.3214609622955322:9.0590639114379883] [-1.3350194692611694:4.6132607460021973] [-2.0025291442871094:4.8778266906738281] [-1.8596886396408081:4.8932380676269531] [-0.71775519847869873:5.649162769317627] [-1.3228062391281128:2.3971786499023438] [-3.7590816020965576:4.9606332778930664] [-2.1408414840698242:3.8798468112945557] [-1.9222637414932251:6.8693838119506836] [-0.33559334278106689:14.458232879638672] none [-5.2455234527587891:2.736173152923584] [-3.4245080947875977:3.8208508491516113] [-2.7520947456359863:4.6152410507202148]
tree_sizes=2690 2904 2906 2902 2891 2898 2902 2901 2899 2906 2896 2911 2905 2895 2902 2901 2904 2902 2903 2911 2898 2909 2918 2909 2921 2906 2915 2898 2919 2908 2913 2919 2916 2904 2911 2923 2929 2898 2907 2920 2916 2903 2907 2901 2908 2918 2912 2902 2914 2922 2893 2923 2916 2919 2916 2913 2915 2923 2911 2924 2915 2907 2929 2923 2898 2907 2912 2921 2910 2938 2925 2928 2911 2914 2920 2921 2917 2913 2919 2912 2915 2916 2922 2922 2923 2938 2932 2928 2930 2910 2933 2918 2911 2930 2935 2923 2940 2932 2936 2930 2937 2923 2923 2937 2943 2940 2939 2938 2949 2926 2931 2920 2933 2951 2921 2954 2940 2963 2942 2943 2915 2959 2964 2946 2940 2928 2931 2952 2942 2950 2952 2948 2936 2956 2930 2953 2946 2934 2941 2950 2945 2934 2962 2959 2945 2969 2969 2967 2955 2963 2954 2964 2961 2968 2972 2967 2976 2974 2948 2950 2974 2967 2969 2964 2961 2975 2942 2970 2950 2944 2956 2953 2960 2961 2962 2955 2965 2970 2960 2959 2969 2978 2962 2967 2957 2957 2962 2958 2973 2975 2971 2960 2982 2978 2971 2962 2973 2961 2965 2963 2960 2970 2961 2976 2963 2969 2993 2946 2954 2973 2978 2977 2976 2976 2967 2970 2966 2978 2971 2964 2962 2973 2963 2973 2978 2965 2974 2972 2980 2955 2969 2984 2954 2966 2963 2979 2971 2974 2980 2970 2979 2967 2980 2975 2979 2963 2984 2973 2966 2968 2962 2960 2974 2989 2987 2989 2989 2962 2977 2981 2970 2985 2962 2964 2970 2973 2957 2960 2972 2982 2991 2967 2969 2964 2971 2954 2977 2975 2975 2983 2976 2969 2994 2974 2970 2984 2984 2970 2979 2962 2990 2965 2987 2969 2975 2968 2990 2979 2967 2977 2969 2956 2970 2981 2974 2960 2995 2978 2996 2996 2982 2982 2976 2988 2975 2960 2973 2964 2982 2999 2976 2963 3010 2982 2977 2992 2966 2990 2968 2963 2968 2997 2985 2978 2967 2958 2972 2978 2998 2992 2963 2980 2981 2979 2983 2976 2986 2973 2976 2967 2989 2981 2984 2997 2982 2962 2989 2976 2987 2971 2996 2984 2978 2987 3010 3002 2969 2981 2997 2984 2988 2976 2990 2984 2975 2996 2991 2986 2991 2993 2985 2997 2995 2986 3013 2997 2991 2999 2985 3013 2986 2994 2998 2990 2998 2993 2999 3004 2993 3008 2995 2991 3006 2992 3006 3011 3012 3010 2987 3021 2986 2996 2990 2992 2992 3011 2988 3021 3014 2998 3019 2997 2999 3005 3001 2994 3003 2991 3005 3001 3017 3025 2997 2993 3024 3001 3007 3012 3018 3000 3000 3010 3014 2997 3012 2992 3011 3001 3012 3012 2993 3021 2998 2978 3011 3021 3010 3030 3000 3018 3015 3011 2996 3015 3015 3007 3019 3025 3017 3029 3005 3016 3019 3016 2998 3032 3017 3004 3011 3008 2997 3037 3015 3013 3022 3029 2998 3028 3011 3009 3020 3019 3030 3010 2993 3006 3025 2999 3023 3024 3022 3011 2999 3022 3017 3013 3007 3015 3004 3020 3012 3012 3016 3027 3023 3030 3009 3004 3042 3021 3004 2993 3011 3016 3011 3034 3017 3006 3016 3020 3030 3019 3025 3008 3016 3011 3033 3030 3021 3013 3036 3015 3001 3023 3015 3020 3012 3032 3039 3005 2999 3010 3034 3027 3017 3011 3013 3022 3022 3025 3018 3020 2996 3029 3021 3014 3031 3033 3019 3025 3015 3005 3013 3031 3019 3028 3028 3019 3015 3020 3022 3019 3026 3015 3010 3016 3044 3022 3014 3025 3030 3028 3025 3026 3019 3017 3020 3025 3019 3031 3031 3021 3030 3020 3015 3022 3022 3029 3037 3009 3022 3018 3036 3010 3004 3004 3033 3011 3029 3022 3022 3017 3019 3030 3046 3013 3023 3031 3026 3005 3025 3022 3024 3025 3019 3033 3034 3028 3018 3047 3030 3031 3016 3010 3033 3025 3016 3006 3034 3023 3011 3026 3018 3046 3038 3032 3026 3020 3025 3031 3031 3014 3015 3027 3028 3030 3021 3008 3017 3024 3008 3016 3042 3026 3025 3021 3023 3024 3024 3039 3035 3029 3029 3031 3025 3042 3034 3027 3040 3032 3027 3020 3019 3031 3028 3038 3009 3038 3037 3024 3023 3045 3035 3011 3041 3016 3009 3024 3020 3035 3033 3040 3016 3040 3028 3025 3043 3037 3022 3040 3019 3037 3030 3027 3035 3015 3028 3034 3012 3024 3033 3024 3016 3016 3015 3034 3043 3042 3027 3032 3042 3032 3018 3016 3022 3025 3026 3042 3030 3040 3030 3050 3022 3025 3003 3023 3014 3031 3037 3032 3022 3027 3024 3038 3021 3024 3039 3036 3010 3032 3037 3023 3017 3016 3024 3039 3017 3021 3017 3025 3031 3011 3026 3034 3024 3040 3031 3017 3029 3015 3029 3042 3024 3034 3033 3031 3029 3012 3014 3043 3022 3028 3040 3038 3032 3030 3023 3040 3039 3031 3046 3037 3041 3031 3030 3018 3028 3034 3024 3010 3031 3037 3025 3030 3042 3039 3019 3022 3012 3023 3040 3039 3023 3033 3051 3020 3017 3024 3028 3050 3036 3039 3050 3041 3030 3034 3041 3053 3019 3039 3018 3048 3042 3055 3046 3052 3039 3037 3038 3019 3029 3031 3043 3025 3043 3050 3031 3025 3029 3042 3040 3040 3050 3031 3067 3030 3025 3029 3036 3044 3026 3053 3037 3046 3052 3050

Tree=0
num_leaves=31
num_cat=0
split_feature=391 392 44 387 37 101 199 128 288 391 368 392 333 226 369 81 139 237 271 392 252 221 333 50 85 354 256 154 84 203
split_gain=135.672 41.2112 38.8126 22.4604 18.3175 15.0493 12.3435 9.5613 8.06413 7.31236 6.64919 6.27716 6.17542 5.80498 5.71408 5.25089 4.39542 4.3197 4.22763 3.40649 3.24375 3.22271 3.04375 2.86597 2.74518 2.69642 2.52383 2.22726 2.22636 2.13426
threshold=0.24726837873458865 0.049990907311439521 -0.04472012631595134 -0.96325200796127308 0.14107017219066623 -0.089990638196468339 -0.02195782400667667 -0.29929155111312861 0.72184681892395031 -0.81262022256851185 -0.72433280944824208 0.8249674141407014 -1.3266021013259885 2.0693008899688725 -0.23454198986291883 -0.024781082756817337 0.14761898666620257 -4.1842710971832267 -0.49261015653610224 0.92291635274887096 0.81679445505142223 -1.944568336009979 0.22300932556390765 0.099780786782503142 0.032979482784867294 1.8636106848716738 0.62823411822319042 0.033353548496961601 1.0000000180025095e-35 -0.075347609817981706
decision_type=2 2 2 2 2 2 2 2 2 2 2 2 2 2 2 2 2 2 2 2 2 2 2 2 2 2 2 2 2 2
left_child=1 6 5 10 8 -2 9 -6 11 15 16 21 -8 23 -5 -1 -4 -7 20 -19 -11 27 25 -10 -14 -20 -16 -3 -13 -30
right_child=2 4 3 14 7 17 12 -9 13 18 -12 28 24 -15 26 -17 -18 19 22 -21 -22 -23 -24 -25 -26 -27 -28 -29 29 -31
leaf_value=3.2049428043690975 3.207107921611553 3.2179620260020436 3.2301604039197453 3.226398632604579 3.1975939675747527 3.2262506353607781 3.2136856000209204 3.2090157980207326 3.2094994670195205 3.2248316575090223 3.2225250084832187 3.2143216503253456 3.2202883311872883 3.2153424837555691 3.2221515422130791 3.2138802461467968 3.2365234235622773 3.2202863205630048 3.2160148113235256 3.2139761172239583 3.2175439685904013 3.2190204615007998 3.2191643285313902 3.2041212367054821 3.2253774509188808 3.2100261297926354 3.2161769533484597 3.2119250502595076 3.2125502115949414 3.2053385166314916
leaf_weight=32 38 36 136 91 59 39 35 66 167 40 31 41 94 54 65 128 91 189 83 40 59 90 61 60 82 46 48 71 33 41
leaf_count=32 38 36 136 91 59 39 35 66 167 40 31 41 94 54 65 128 91 189 83 40 59 90 61 60 82 46 48 71 33 41
internal_value=3.21738 3.21363 3.22411 3.22776 3.21032 3.21857 3.21724 3.2034 3.21182 3.21537 3.23167 3.21407 3.22121 3.20937 3.22272 3.21196 3.23286 3.22026 3.21727 3.21917 3.22058 3.21625 3.21553 3.20798 3.22273 3.2138 3.21964 3.21393 3.21039 3.20835
internal_weight=2146 1378 768 462 718 306 660 125 593 449 258 312 211 281 204 160 227 268 289 229 99 197 190 227 176 129 113 107 115 74
internal_count=2146 1378 768 462 718 306 660 125 593 449 258 312 211 281 204 160 227 268 289 229 99 197 190 227 176 129 113 107 115 74
is_linear=0
shrinkage=1


Tree=1
num_leaves=31
num_cat=0
split_feature=387 146 101 387 353 55 392 155 252 291 361 247 349 131 227 247 348 281 255 199 155 293 139 314 199 200 309 308 329 52
split_gain=126.301 34.2952 27.8622 38.2862 14.5856 10.9826 10.1543 9.92228 9.12403 7.60567 7.22563 6.70995 6.5715 6.4985 5.38143 4.78607 4.77656 4.50817 4.19096 3.48098 3.40921 3.02695 2.97936 2.67262 2.58842 2.47429 2.40678 2.31709 2.26006 2.23481
threshold=1.0000000180025095e-35 0.075843710452318205 -0.089990638196468339 -0.96325200796127308 1.0924739837646487 -0.48383782804012293 0.066574409604072585 -0.075095213949680314 0.65176501870155346 -0.19223967939615247 -0.83605346083641041 0.45082591474056249 -0.5056040585041045 0.086160548031330123 -1.5090089440345762 0.085686404258012785 -0.096007194370031343 -1.0095998048782346 -1.3105540275573728 0.017939545214176181 -0.041411690413951867 -2.0892528295516963 -0.015160986687988041 0.11700968444347383 -1.5618878602981565 0.35642959177494055 -1.2964487075805662 0.6880057454109193 1.2629296183586123 -0.0021303390385583039
decision_type=2 2 2 2 2 2 2 2 2 2 2 2 2 2 2 2 2 2 2 2 2 2 2 2 2 2 2 2 2 2
left_child=2 5 -1 4 11 -2 17 10 20 12 -3 -4 26 22 29 16 -16 27 25 -19 -5 -20 -6 -22 -9 -14 -8 -7 -11 -10
right_child=1 7 3 8 13 6 9 24 14 28 -12 -13 18 -15 15 -17 -18 19 21 -21 23 -23 -24 -25 -26 -27 -28 -29 -30 -31
leaf_value=-0.010087834128075176 -0.013540476421929069 -0.02296477933482426 -0.00059990213305320379 0.011174614931805991 0.0085076633742765372 0.0015724985625048906 -0.0057550714175194145 -0.010045573928234353 0.0060906293725266182 0.0019683658024532823 -0.0093046053038800466 0.0099124810877053646 -0.010674066214781742 0.022126313439437321 -0.0017410412812378349 0.0010391700599575416 -0.012273497488349676 -0.0025054641265163653 -0.0050715920371069033 0.0027998845545718306 0.0054024922764593997 0.00040429457772131027 0.01393285573164112 0.00099558165506459777 -0.0049731436201504295 -0.0040124591700029825 -0.012637645246796921 0.0077405047009399697 -0.0031517637483144214 -2.331205505005857e-05
leaf_weight=43 34 39 51 30 74 85 39 129 49 81 32 44 44 33 39 62 30 207 69 63 194 93 149 78 68 51 59 33 57 45
leaf_count=43 34 39 51 30 74 85 39 129 49 81 32 44 44 33 39 62 30 207 69 63 194 93 149 78 68 51 59 33 57 45
internal_value=-0.000235066 -0.00455541 0.00531215 0.00608757 0.0111871 -0.00270028 -0.00225221 -0.0108222 0.00266167 -0.00415106 -0.0172317 0.00437298 -0.00569243 0.0136623 -0.000388111 -0.00298968 -0.00653711 0.000169424 -0.00395885 -0.00125606 0.00492146 -0.00196143 0.0122242 0.00415524 -0.00836226 -0.0072543 -0.0100685 0.00339771 -0.000161284 0.00322423
internal_weight=2104 1183 921 878 351 915 881 268 527 493 71 95 355 256 225 131 69 388 257 270 302 162 223 272 197 95 98 118 138 94
internal_count=2104 1183 921 878 351 915 881 268 527 493 71 95 355 256 225 131 69 388 257 270 302 162 223 272 197 95 98 118 138 94
is_linear=0
shrinkage=0.02


Tree=2
num_leaves=31
num_cat=0
split_feature=387 145 340 160 387 387 32 335 128 160 354 302 159 4 199 391 338 263 186 274 56 231 249 171 211 2 234 280 199 282
split_gain=132.799 33.061 28.8193 18.5551 16.9146 16.3715 14.1435 10.8158 7.94674 7.46244 5.49616 5.46422 6.45031 5.00074 4.50521 4.38221 4.07422 4.02841 3.49509 3.48386 3.43052 3.3275 2.92584 2.86002 2.83925 2.80991 2.7968 2.74115 2.60871 2.55066
threshold=1.0000000180025095e-35 0.18163404613733294 -5.344120740890502 0.062493918463587768 -0.96325200796127308 -0.96325200796127308 -0.075675752013921724 1.2706753015518191 -0.27054330706596369 0.030126245692372326 2.0882544517517094 -3.7155753374099727 -0.18233282119035718 0.30364444851875311 -1.686125576496124 -0.85030815005302418 0.48163293302059179 -1.1061616539955137 -0.012803790159523485 -0.78849795460700978 0.10867204517126085 0.87980583310127269 1.1043345332145693 -0.00049551264964975406 -0.041144808754324906 0.080856051295995726 2.4786627292633061 -0.75414714217185963 -0.77910926938056935 0.20536670088768008
decision_type=2 2 2 2 2 2 2 2 2 2 2 2 2 2 2 2 2 2 2 2 2 2 2 2 2 2 2 2 2 2
left_child=2 6 5 4 7 13 14 27 10 17 -3 -6 -13 24 23 -11 22 -8 21 -10 -17 -14 -16 -2 -1 -7 29 -4 -20 -19
right_child=1 8 3 -5 11 25 9 -9 19 15 -12 12 18 -15 16 20 -18 26 28 -21 -22 -23 -24 -25 -26 -27 -28 -29 -30 -31
leaf_value=0.019438930699048011 -0.010429480061734553 -0.0095844935817090242 0.0073171789861387684 -0.008986871860762859 0.0085210551984789898 7.6427631305925767e-05 0.0042895645221297666 -0.000631170532688862 -0.013788110853144617 -0.0083325194392645206 -0.02082684012416464 -0.0066671690962663514 0.0013704959349206058 0.0068418614340550977 -0.0034747583640493311 -0.0004131599235483724 -0.0066486758617049259 -0.0057673581669639264 2.3601032665063596e-05 -0.0057659917070885152 -0.0073525295455596955 -0.0055304355034604671 0.003915350779684054 -0.005325311582156835 0.012611531146626543 0.0068918855212888944 0.0015109782567536781 0.013190805372035151 0.0052385467355002147 -0.00054392145545189749
leaf_weight=72 104 35 61 45 39 31 87 39 31 65 50 39 91 31 51 115 86 54 56 82 36 38 34 89 67 109 143 99 120 114
leaf_count=72 104 35 61 45 39 31 87 39 31 65 50 39 91 31 51 115 86 54 56 82 36 38 34 89 67 109 143 99 120 114
internal_value=1.45575e-06 -0.00447081 0.00561203 0.00312832 0.00409263 0.0105833 -0.00294861 0.00879291 -0.0118849 -0.00108964 -0.0165244 0.00161745 0.000790047 0.0147352 -0.00606126 -0.00406429 -0.00363175 0.00053699 0.00178082 -0.00816827 -0.00214206 -0.000715735 -0.000496662 -0.0081545 0.0163736 0.00540508 -0.000533467 0.0110695 0.00359815 -0.00227098
internal_weight=2113 1176 937 627 582 310 978 199 198 614 85 383 344 170 364 216 171 398 305 113 151 129 85 193 139 140 311 160 176 168
internal_count=2113 1176 937 627 582 310 978 199 198 614 85 383 344 170 364 216 171 398 305 113 151 129 85 193 139 140 311 160 176 168
is_linear=0
shrinkage=0.02


Tree=3
num_leaves=31
num_cat=0
split_feature=387 291 340 387 178 122 161 391 58 277 309 300 120 255 1 385 214 399 214 262 268 291 125 74 391 126 206 90 387 77
split_gain=111.249 29.6812 26.0519 17.1072 13.1066 12.3894 12.0361 8.72575 8.09258 6.40417 5.99229 5.45912 5.40029 5.3826 5.58659 5.22477 4.97056 4.60343 4.5376 3.44753 3.14883 3.12337 2.89739 2.81506 2.80558 3.29367 2.78277 2.76024 2.67344 2.45074
threshold=1.0000000180025095e-35 -1.8310834765434263 -4.203460454940795 -0.96325200796127308 -0.074253644794225679 0.060603940859436996 0.063180465251207366 0.50274193286895763 0.15630895644426349 1.4215413928031924 1.1365389227867129 1.1115851998329165 0.023558486253023151 -0.25948226451873774 -0.00021619380277115849 0.55829089879989635 1.1584059000015261 -1.023030638694763 1.3144606351852419 1.1191301345825198 -1.671392500400543 0.41302683949470526 0.16476842015981677 -0.042522817850112908 -0.29304027557373041 0.067531943321228041 -0.19932882487773892 0.0017489779274910691 0.52381797879934322 0.02691425941884518
decision_type=2 2 2 2 2 2 2 2 2 2 2 2 2 2 2 2 2 2 2 2 2 2 2 2 2 2 2 2 2 2
left_child=2 4 3 5 17 16 7 9 10 19 11 -3 -10 24 -15 26 -1 -2 22 -4 -7 28 -5 -14 25 29 -9 -24 -13 -6
right_child=1 8 6 18 13 20 -8 15 12 -11 -12 21 23 14 -16 -17 -18 -19 -20 -21 -22 -23 27 -25 -26 -27 -28 -29 -30 -31
leaf_value=0.015925521026335418 -0.018825377344476934 0.0023969798233679472 -0.0078737641980008381 0.0016081713017870171 -0.013637906899957947 0.0080275531415827574 -0.010277563764741926 -0.00038823814231756274 -0.0015873354705500194 0.0060826428579166536 -0.007745794752022115 -0.00089614333630379413 -0.0053470512758940457 0.0014690874978190377 -0.0060125790220419209 0.011750705702230335 0.0077916539048260838 -0.0096949504457919285 -0.0023106393983794581 -0.0008776326342535383 -0.0009358778805471957 0.0022462145177765736 0.0089963448342556748 -0.014459181545244065 -0.0039861031042026556 -0.0031600799750198015 0.0053866648521654096 0.0033299170587150779 -0.0053706087071158769 -0.0079205102471253241
leaf_weight=153 47 240 39 59 64 30 31 49 56 38 39 126 30 61 110 38 45 57 34 92 30 61 94 30 56 31 101 59 92 81
leaf_count=153 47 240 39 59 64 30 31 49 56 38 39 126 30 61 110 38 45 57 34 92 30 61 94 30 56 31 101 59 92 81
internal_value=-0.000126517 -0.0041502 0.00519817 0.00818831 -0.00779623 0.0117754 0.001292 0.0023483 -0.00139261 -0.000947462 -0.000384894 0.000195848 -0.0061514 -0.00610824 -0.00335755 0.00528976 0.0141733 -0.0140985 0.00436165 -0.00304753 0.00366022 -0.00170118 0.00544333 -0.0102226 -0.00808966 -0.00933588 0.00351991 0.00688241 -0.00281611 -0.0105953
internal_weight=2073 1181 892 504 507 258 388 357 674 169 558 519 116 403 171 188 198 104 246 131 60 279 212 60 232 176 150 153 218 145
internal_count=2073 1181 892 504 507 258 388 357 674 169 558 519 116 403 171 188 198 104 246 131 60 279 212 60 232 176 150 153 218 145
is_linear=0
shrinkage=0.02


Tree=4
num_leaves=31
num_cat=0
split_feature=387 146 237 3 387 197 118 155 337 392 346 344 387 95 260 387 298 199 325 367 191 217 351 273 232 35 68 250 236 356
split_gain=116.007 30.4467 25.9232 18.0216 14.726 10.2779 9.76718 9.16396 8.26172 6.5086 6.02951 5.16456 5.09257 4.97337 4.9517 4.86702 4.67362 4.54107 3.96445 3.70991 3.50402 3.4593 3.08833 2.97233 2.95631 2.83575 2.81448 2.71068 2.2579 2.2512
threshold=1.0000000180025095e-35 0.066025584936141982 -4.6135396957397452 0.34848619997501379 -0.96325200796127308 0.25364804267883306 0.1605370566248894 -0.076446939259767518 -0.85210496187210072 -0.080372989177703844 1.7424076795578005 2.1025166511535649 -0.96325200796127308 0.062635052949190154 -0.91939875483512867 0.52381797879934322 0.18102689832448962 -0.75802704691886891 -1.8503662943840025 1.8331589698791506 -0.0012120683095417915 1.7090507149696352 -2.0315161943435665 -0.46741455793380732 1.1743056178092959 0.19247496873140338 -0.032402282580733292 1.2421718835830691 -0.13302572816610334 -0.43310457468032831
decision_type=2 2 2 2 2 2 2 2 2 2 2 2 2 2 2 2 2 2 2 2 2 2 2 2 2 2 2 2 2 2
left_child=2 6 12 4 5 24 8 11 16 17 22 -3 13 -1 -7 20 -2 27 -11 29 21 -12 26 -19 -4 -9 -10 -6 -26 -8
right_child=1 7 3 -5 9 14 19 25 10 18 15 -13 -14 -15 -16 -17 -18 23 -20 -21 -22 -23 -24 -25 28 -27 -28 -29 -30 -31
leaf_value=0.0068884668360615891 -0.0080306542023856151 -0.0093952369328056066 0.017417047164506382 -0.011179954849940259 0.0027463723865470721 -0.0031511409535552514 -0.0088656162134738582 -0.0043314064859033942 -0.0047808104091220435 -0.00774965580665704 -0.00056668791279196741 -0.021563841341172948 0.0066740461098226279 0.015528454058000754 0.0066616296222699548 -0.0017773816242942031 -0.0014590973423465208 0.00149034587549977 0.00037122695091077026 -0.013168341940378442 0.0056930428203366221 0.0065521134201969424 -0.0064102355071244191 0.0067156944528245664 0.013102067045946703 -0.0088744171893517122 0.0017106892272942898 -0.003545732112394439 0.0063138147491069198 -0.0018103263123581807
leaf_weight=41 91 33 34 30 68 31 31 89 43 31 123 32 74 114 54 129 83 62 88 32 107 33 66 156 45 176 64 43 46 43
leaf_count=41 91 33 34 30 68 31 31 89 43 31 123 32 74 114 54 129 83 62 88 32 107 33 66 156 45 176 64 43 46 43
internal_value=0.00014726 -0.00401051 0.00547196 0.00351304 0.00421479 0.00856103 -0.00198886 -0.009144 -0.00116438 0.00214849 1.42252e-05 -0.0158508 0.0112759 0.0133599 0.00309269 0.00138628 -0.00494815 0.0035926 -0.00183742 -0.00760883 0.00293973 0.00100309 -0.00307501 0.00525664 0.0121722 -0.00739253 -0.000937899 0.000289275 0.00988022 -0.00492145
internal_weight=2092 1175 917 688 658 210 845 330 739 448 565 65 229 155 85 392 174 329 119 106 263 156 173 218 125 265 107 111 91 74
internal_count=2092 1175 917 688 658 210 845 330 739 448 565 65 229 155 85 392 174 329 119 106 263 156 173 218 125 265 107 111 91 74
is_linear=0
shrinkage=0.02


Tree=5
num_leaves=31
num_cat=0
split_feature=387 178 353 291 296 387 69 134 391 139 361 8 158 247 211 344 252 303 343 217 238 348 81 387 357 111 201 362 139 383
split_gain=108.383 27.2169 22.5869 12.397 9.77594 9.75467 9.63802 9.60996 9.19467 7.33977 6.49718 7.01599 6.20715 5.89832 5.66983 5.51782 5.14573 5.0847 4.50243 4.0973 4.06129 3.71164 3.35292 3.34442 3.24514 3.0395 2.93121 2.9145 2.70379 2.50386
threshold=1.0000000180025095e-35 -0.047311881557106965 1.6418953537940981 -0.16834685206413266 -0.034247159957885735 -0.96325200796127308 -0.29125146567821497 -0.16212943196296689 0.28302575647830969 0.012557196896523239 -1.1895192861557005 0.027405691333115104 -0.18480357527732846 0.59574389457702648 -0.12816392630338666 1.8366608023643496 0.53788474202156078 0.69392743706703197 -0.31378491222858423 0.40303896367549902 0.83231693506240856 0.72755974531173717 -0.059789007529616349 1.267353028059006 0.9466441571712495 -0.0079648587852716429 1.0093090534210207 -0.13503808528184888 0.11688969656825067 -2.0519441366195674
decision_type=2 2 2 2 2 2 2 2 2 2 2 2 2 2 2 2 2 2 2 2 2 2 2 2 2 2 2 2 2 2
left_child=2 7 3 6 17 9 -1 10 14 -4 11 -2 -5 18 -8 22 -7 21 -10 -6 -11 -3 -9 -12 -20 -19 -21 -14 -27 -16
right_child=1 4 5 12 19 16 8 15 13 20 23 -13 27 -15 29 -17 -18 25 24 26 -22 -23 -24 -25 -26 28 -28 -29 -30 -31
leaf_value=-0.0091969235140315596 -0.009552235075405667 -0.00070138746996156189 0.0059382669300445026 0.0026604296038031435 -0.0076451746104201218 0.0069650351731823049 -0.0077723620818169028 -0.0060687911947024985 0.0063505025602438869 0.017680565341257712 -0.0044082693156087772 -0.023331135857022473 0.0054927703280534066 0.0086617741618357919 0.0041147385319558593 -0.0088424803496574955 -0.0010421139708804814 -0.0002661158981294755 -0.0056672625495372596 -0.0044035826556428218 0.010476322457851732 -0.0077163356465890136 0.00041835547598580326 -0.013069349188696256 0.0018697821682629487 0.0025774717670783666 0.00049035786088400836 0.013574261211410716 0.0099585056801637026 -0.0032305438975420071
leaf_weight=36 33 273 72 74 109 128 52 62 49 69 46 34 33 69 39 124 42 66 35 158 83 32 63 31 58 55 70 52 31 32
leaf_count=36 33 273 72 74 109 128 52 62 49 69 46 34 33 69 39 124 42 66 35 158 83 32 63 31 58 55 70 52 31 32
internal_value=-4.96398e-05 -0.00404387 0.00508468 0.00237003 -0.00190411 0.00869909 0.000352244 -0.00833543 0.00143011 0.0114391 -0.0124461 -0.0170181 0.00700279 0.00395005 -0.00288673 -0.00587794 0.00499768 4.82294e-06 0.00157204 -0.00447753 0.0139338 -0.00148286 -0.00284417 -0.00813779 -0.00102633 0.00297046 -0.00290986 0.0106351 0.00540394 0.000806381
internal_weight=2110 1187 923 529 794 394 370 393 334 224 144 67 159 211 123 249 170 457 142 337 152 305 125 77 93 152 228 85 86 71
internal_count=2110 1187 923 529 794 394 370 393 334 224 144 67 159 211 123 249 170 457 142 337 152 305 125 77 93 152 228 85 86 71
is_linear=0
shrinkage=0.02


Tree=6
num_leaves=31
num_cat=0
split_feature=387 291 353 76 387 368 81 227 180 36 286 124 111 166 314 9 252 296 387 286 241 333 238 313 368 193 334 226 298 189
split_gain=101.944 28.7786 23.999 13.5424 12.0092 11.5925 8.95941 7.17839 6.91724 6.89378 5.50271 5.472 5.27434 4.88406 4.13019 3.95865 3.57587 3.55402 3.5465 3.14111 3.43899 3.12246 3.09128 2.96117 2.94687 2.41017 2.37182 2.27363 2.20422 2.19676
threshold=1.0000000180025095e-35 -1.9436556100845335 1.6418953537940981 -0.043519396334886544 -0.96325200796127308 -2.3979017734527583 -0.063655380159616456 -0.39698325097560877 -0.024517880752682682 -0.087911713868379579 1.1207231283187868 -0.093480184674262987 0.050928160548210151 -0.0006628116825595497 -0.88036012649536122 -0.14036583155393598 0.53788474202156078 -0.1390988230705261 0.52381797879934322 0.09533675387501718 -0.04098533280193805 -1.5484418869018552 0.84378868341445934 0.58497563004493724 -1.7671571373939512 -3.676915049552917 0.91348820924758922 0.041065135970711715 -0.68834456801414479 -0.0088184545747935755
decision_type=2 2 2 2 2 2 2 2 2 2 2 2 2 2 2 2 2 2 2 2 2 2 2 2 2 2 2 2 2 2
left_child=2 3 5 10 8 7 12 15 -4 -7 -2 -11 -3 26 -13 -1 29 18 21 -16 -21 -8 -10 -23 -15 -19 -5 -17 -26 -6
right_child=1 6 4 13 16 9 17 -9 22 11 -12 14 -14 24 19 27 -18 25 -20 20 -22 23 -24 -25 28 -27 -28 -29 -30 -31
leaf_value=-0.0015648666429607309 -0.0076699865236878398 -0.0033519956513296768 0.0050235536328420557 -0.0064790122368249973 0.0091703079491853717 -0.0084833505523927294 -0.002148712811822241 0.015057387369487323 0.016026941445500899 -0.006632986265149984 -0.01807023662297676 0.0065976815289039105 -0.012871856299941154 5.560994905940557e-05 0.0035307217636097645 0.0090753555348502442 -0.000972718612813368 -0.0011729697102721591 -0.0020253605431501281 -0.0062008233941518347 0.00074290911645289066 0.005808342433705622 0.010353532209992409 0.0011805820979123272 -0.0094425944917095016 -0.0067879713738802821 -0.011874077122112543 0.0027990783371755648 -0.0039118367292198305 0.00333269166782321
leaf_weight=32 38 81 56 104 48 31 53 31 94 31 58 59 32 57 95 55 39 135 112 37 105 96 99 130 37 38 56 43 139 61
leaf_count=32 38 81 56 104 48 31 53 31 94 31 58 59 32 57 95 55 39 135 112 37 105 96 99 130 37 38 56 43 139 61
internal_value=0.000105484 -0.00381432 0.00509254 -0.00750109 0.00878259 0.00224703 -0.0011371 0.00666836 0.0114568 0.000232663 -0.014194 0.0011055 -0.00622486 -0.00580258 0.00195503 0.00447006 0.00419062 -9.93491e-05 0.000956703 0.00075372 -0.00112737 0.0021597 0.0132528 0.00318006 -0.00390021 -0.0024698 -0.00849057 0.00643254 -0.00516759 0.0060223
internal_weight=2082 1166 916 489 397 519 677 161 249 358 96 327 113 393 296 130 148 564 391 237 142 279 193 226 233 173 160 98 176 109
internal_count=2082 1166 916 489 397 519 677 161 249 358 96 327 113 393 296 130 148 564 391 237 142 279 193 226 233 173 160 98 176 109
is_linear=0
shrinkage=0.02


Tree=7
num_leaves=31
num_cat=0
split_feature=391 314 40 391 70 75 77 391 245 164 65 214 217 309 95 259 12 94 199 271 205 276 309 296 312 206 393 210 373 88
split_gain=96.6719 29.6346 28.3199 18.2239 17.8041 9.59416 7.90552 6.19368 7.45802 5.84453 5.36266 4.61809 4.5837 4.66155 4.49207 4.48698 3.63899 3.48571 3.01601 2.98663 2.86439 2.57222 2.51994 2.51791 2.42405 2.36476 2.3283 3.08215 2.26358 2.06936
threshold=0.24726837873458865 0.5706043839454652 0.056291423738002784 0.97322851419448864 -0.048746643587946885 -0.090487718582153306 0.0061782749835401782 -0.86485353112220753 0.62567350268363964 0.16987036913633349 0.022609240375459198 -0.56622380018234242 1.526532053947449 -0.60461363196372975 -0.037281963974237435 -1.0339902043342588 0.17059718072414401 0.0065768912900239238 -0.56729701161384571 0.71862742304801952 -0.32083289325237269 0.41729472577571874 0.29283377528190618 -0.59405392408370961 -2.8189948797225948 -0.021630004979670044 -0.56041079759597767 0.67708662152290355 4.3623192310333261 0.10672028362751008
decision_type=2 2 2 2 2 2 2 2 2 2 2 2 2 2 2 2 2 2 2 2 2 2 2 2 2 2 2 2 2 2
left_child=1 7 3 11 6 -4 10 8 16 15 -3 -2 13 29 -9 -5 -1 28 20 -8 -16 -19 -15 -14 -20 -7 -17 -28 -13 -6
right_child=2 4 5 9 12 25 19 14 -10 -11 -12 17 23 22 18 26 -18 21 24 -21 -22 -23 -24 -25 -26 -27 27 -29 -30 -31
leaf_value=-0.0043776771875600968 0.009033014592943622 -0.0078608044620071139 -0.010990459191979786 0.012960649082927328 -0.0037336690770122254 -0.0028518078221089166 -0.0060054344108148947 -0.0044445561526646454 -0.010984419793304469 0.016411367054726626 -0.019220930347219108 0.0032578351341599472 0.0046077973064449097 -0.011759479667737403 -0.0052542577311396601 0.010368978015932381 0.0020167621329608486 -0.003193992515478064 0.001642588796617395 -0.010636013217955171 0.0016642681455337688 0.0030692224435646225 -0.0041374212793178029 -0.0014724414021059472 0.0058946218255109019 0.002599160836902089 0.00074932519828380887 0.0085928885033354167 0.0095910864887815538 0.0015299143004589356
leaf_weight=61 59 33 31 93 135 44 211 41 34 72 44 84 34 42 30 49 80 49 107 83 93 52 34 110 110 102 41 38 31 37
leaf_count=61 59 33 31 93 135 44 211 41 34 72 44 84 34 42 30 49 80 49 107 83 93 52 34 110 110 102 41 38 31 37
internal_value=-2.42392e-05 -0.00327594 0.00572616 0.00789648 -0.00582974 -0.00124891 -0.00896115 0.00023698 -0.00285796 0.0113575 -0.0146746 0.00415357 -0.00283564 -0.00447284 0.00166604 0.00957855 -0.000772162 0.00275011 0.00242459 -0.00737574 -8.02462e-05 2.76155e-05 -0.00854313 6.62511e-06 0.00383215 0.000940065 0.00695965 0.00464119 0.00509983 -0.00259682
internal_weight=2064 1319 745 568 763 177 371 556 175 293 77 275 392 248 381 221 141 216 340 294 123 101 76 144 217 146 128 79 115 172
internal_count=2064 1319 745 568 763 177 371 556 175 293 77 275 392 248 381 221 141 216 340 294 123 101 76 144 217 146 128 79 115 172
is_linear=0
shrinkage=0.02


Tree=8
num_leaves=31
num_cat=0
split_feature=387 24 314 69 391 387 76 286 143 45 262 333 391 325 247 62 328 398 263 130 391 276 379 185 354 312 384 239 133 333
split_gain=89.5398 25.5688 22.2613 14.5032 14.5176 10.4469 10.4119 9.80884 8.0334 7.28945 7.1467 6.99948 4.68495 4.42013 4.47751 4.29113 4.24171 4.20304 4.1861 3.9383 3.02228 2.9692 2.96031 2.94293 2.93597 2.73627 2.3042 2.15845 2.14172 1.97581
threshold=1.0000000180025095e-35 0.048185655847191818 -0.98949703574180592 -0.31592167913913721 0.50274193286895763 -0.96325200796127308 -0.040778784081339829 1.1207231283187868 0.27883675694465643 -0.06375959143042563 2.2447996139526372 -1.5956932902336118 -0.29304027557373041 -0.57254225015640248 -0.56208798289299 -1.4829823374748228 2.9456447362899785 1.5888676643371584 -1.1061616539955137 0.091546215116977706 1.5852771997451784 -1.2375972867012022 -1.8598082065582273 0.2082670405507088 -0.74529296159744252 -4.0645058155059806 0.036016827449202544 -1.0359962582588194 -0.14758605509996411 -0.13805166631937024
decision_type=2 2 2 2 2 2 2 2 2 2 2 2 2 2 2 2 2 2 2 2 2 2 2 2 2 2 2 2 2 2
left_child=2 8 5 -4 13 9 7 -3 18 17 20 -8 22 14 -5 -10 -17 -1 -2 -12 26 -16 -13 25 -7 -20 -6 -9 -28 -18
right_child=1 6 3 4 10 24 11 27 15 -11 19 12 -14 -15 21 16 29 -19 23 -21 -22 -23 -24 -25 -26 -27 28 -29 -30 -31
leaf_value=0.011541526221915295 0.0056189883281550709 -0.0058364561295935089 -0.010401312268393881 -0.0083477841438725584 0.004167097001853917 -0.00028760925592745049 -0.012667324241589418 -0.011491560732776469 0.0019569094758480786 0.018803008747100832 0.0064867717207239932 0.00022072763240430505 -0.00087970711977877585 0.0039848525812184168 -0.0052784691002661704 -0.0027259622963145373 -0.012852089948513929 0.0031142561939648456 -0.0054990615268858765 0.015078025474434808 0.0077379519232259747 0.0013089765177067855 -0.0064446112098091321 0.0027225842354819179 0.0063679058712907133 -0.00015848025480362095 0.0029151648995192616 -0.020373425678564955 -0.0042404315552928232 -0.0052737075406493559
leaf_weight=93 61 68 32 38 106 32 42 31 38 48 55 30 120 54 37 98 32 34 46 40 56 90 228 108 148 192 32 37 31 31
leaf_count=93 61 68 32 38 106 32 42 31 38 48 55 30 120 54 37 98 32 34 46 40 56 90 228 108 148 192 32 37 31 31
internal_value=0.000113189 -0.00358141 0.00474712 0.00228833 0.00307737 0.00866699 -0.00667065 -0.0114662 -0.000734445 0.0121396 0.00577966 -0.00507081 -0.00416453 -0.000887756 -0.00251105 -0.00400658 -0.00542086 0.00936867 0.000877214 0.0103404 0.00377986 -0.000662283 -0.00567384 1.37475e-05 0.00519454 -0.00122792 0.00239315 -0.0167684 -0.000627979 -0.00940005
internal_weight=2088 1162 926 571 539 355 556 136 606 175 320 420 378 219 165 199 161 127 407 95 225 127 258 346 180 238 169 68 63 63
internal_count=2088 1162 926 571 539 355 556 136 606 175 320 420 378 219 165 199 161 127 407 95 225 127 258 346 180 238 169 68 63 63
is_linear=0
shrinkage=0.02


Tree=9
num_leaves=31
num_cat=0
split_feature=391 178 96 185 391 184 391 255 199 37 10 164 391 276 241 203 286 216 160 6 281 299 262 237 136 88 358 345 292 227
split_gain=91.4283 31.7634 24.3431 17.5879 11.9461 11.578 8.50825 7.61188 7.86989 6.77474 6.47803 5.36506 5.30841 4.24309 3.92687 3.92678 5.22314 3.69764 3.42191 3.32326 2.9438 2.88726 3.09369 2.6611 2.53809 2.43455 2.32715 2.15266 2.08705 2.00356
threshold=0.46554207801818853 -0.047311881557106965 -0.054905306547880166 0.2082670405507088 -0.89731779694557179 0.11118312180042268 0.97322851419448864 -0.24183089286088941 -0.62830910086631764 0.15820317715406421 0.068962197750806822 0.23870044946670535 -0.50118356943130482 -0.70206540822982777 -0.26460272073745722 -0.54273924231529225 1.3683853149414065 -0.32761946320533747 0.036298049613833434 0.076606322079896941 -1.3790164589881895 -0.54032358527183522 1.8517569899559023 -4.1193227767944327 0.047184759750962264 -0.10811806097626685 -1.0616119503974912 0.48081906139850622 1.072213411331177 -1.1714575290679929
decision_type=2 2 2 2 2 2 2 2 2 2 2 2 2 2 2 2 2 2 2 2 2 2 2 2 2 2 2 2 2 2
left_child=1 4 5 7 9 19 21 8 17 27 24 23 20 -9 -10 -12 25 -3 -15 -2 -5 22 -4 -8 -6 -17 -16 -1 -19 -14
right_child=2 3 6 12 10 -7 11 13 14 -11 15 -13 29 18 26 16 -18 28 -20 -21 -22 -23 -24 -25 -26 -27 -28 -29 -30 -31
leaf_value=-0.0057238329892211103 0.0057544926452503453 -0.0084443311358061365 0.0035727483425289394 -0.0042704318039977806 0.0015070949326938306 -0.0091931689045194418 0.012430128652037534 -0.0026669451971746872 -0.0041903713988583717 -0.017047084269382187 -0.0030061226250660241 0.019418978095054627 0.0037348257173217981 0.0027766555012320756 -0.0030738379645885694 -0.0017290215537484202 -0.015223475027829409 -0.0022330777896734486 -0.0042865400575101374 0.0010548037088277643 0.0032016288308847336 0.0021202522749943589 0.011349379832927997 0.00659131295115433 -0.0045685328327947196 -0.0092833443941842571 0.002859368854764812 -0.012155543755035143 -0.0076910168228623201 0.0091948672363886957
leaf_weight=66 121 125 38 30 69 31 120 132 82 57 64 38 49 197 34 33 38 110 30 120 60 52 50 53 43 36 99 35 37 72
leaf_count=66 121 125 38 30 69 31 120 132 82 57 64 38 49 197 34 33 38 110 30 120 60 52 50 53 43 36 99 35 37 72
internal_value=3.15134e-05 -0.00264636 0.00645831 -0.000760698 -0.00714212 0.00194567 0.00992444 -0.00204991 -0.00367349 -0.0115297 -0.00462879 0.0124683 0.00437908 0.000160705 -0.000801166 -0.00705564 -0.00937818 -0.00592148 0.00181391 0.00344234 0.000672252 0.00596881 0.00814531 0.0107371 -0.000864739 -0.00582089 0.00131954 -0.0081454 -0.00369164 0.00708046
internal_weight=2121 1498 623 1057 441 272 351 846 487 158 283 211 211 359 215 171 107 272 227 241 90 140 88 173 112 69 133 101 147 121
internal_count=2121 1498 623 1057 441 272 351 846 487 158 283 211 211 359 215 171 107 272 227 241 90 140 88 173 112 69 133 101 147 121
is_linear=0
shrinkage=0.02


Tree=10
num_leaves=31
num_cat=0
split_feature=391 392 129 32 185 237 101 179 178 255 37 226 140 300 391 196 261 298 303 386 242 391 273 51 289 203 234 8 384 267
split_gain=88.0862 36.6737 26.3682 17.2077 12.5788 11.0549 9.74647 7.95426 6.76927 6.36513 5.89188 6.13638 4.83945 4.71767 4.71743 4.71494 4.39517 4.02065 3.97769 3.75678 3.74583 2.96266 2.89741 2.77386 2.77548 2.56618 2.41968 2.3457 2.2862 2.05979
threshold=0.46554207801818853 0.022646418772637848 -0.054480038583278649 -0.075675752013921724 0.21444537490606311 -4.0345935821533194 -0.089990638196468339 0.1254367530345917 -0.046891363337635987 -1.5634775161743162 0.15820317715406421 1.9559830427169802 -1.0877832174301145 1.0278062820434573 -0.42550078034400934 -1.5530043244361875 2.8499927520751958 -0.12716867402195928 0.93665066361427318 -0.69862940907478321 -1.1802734732627866 1.3732435107231142 0.57407242059707653 -0.1231667436659336 0.078817725181579604 -0.39605195820331568 1.6938977837562563 0.02453638240695 0.096479993313550963 -0.34665903449058527
decision_type=2 2 2 2 2 2 2 2 2 2 2 2 2 2 2 2 2 2 2 2 2 2 2 2 2 2 2 2 2 2
left_child=1 4 6 10 8 7 -2 22 13 15 11 17 -10 -1 29 -5 25 28 -12 -8 -11 -9 -4 -7 -25 -14 27 -22 -3 -6
right_child=2 3 5 9 14 23 19 21 12 20 18 -13 16 -15 -16 -17 -18 -19 -20 -21 26 -23 -24 24 -26 -27 -28 -29 -30 -31
leaf_value=-0.00010711085051298142 -0.0095160715754788669 -0.0083371000048842875 0.0059344420818468703 -0.012290961227069299 -0.0016299785293538021 0.0086539383651050815 0.0061781881777569648 0.012516861582218215 0.0063496105667824546 -0.0047012352129264228 -0.01818770238331386 -0.0016432980109067235 0.0036766853825290604 -0.0085666108261229414 0.0087181036032993216 -0.0032918150539083752 -0.0031534150380909138 -0.0068400803597162031 -0.0077580863819457588 -0.0011594890552805736 -0.0058130334148352794 0.02215183890917722 0.011334334098543853 0.0054507836013998803 -0.00056044704280793672 -0.00034917198600824809 0.0015711534321245207 0.0012996026060797953 -0.016354250617325306 0.004526894461639501
leaf_weight=44 37 35 76 40 35 71 48 41 46 91 40 59 99 64 85 57 144 141 30 62 42 32 107 109 42 169 146 31 38 52
leaf_count=44 37 35 76 40 35 71 48 41 46 91 40 59 99 64 85 57 144 141 30 62 42 32 107 109 42 169 146 31 38 52
internal_value=0.000195061 -0.00245158 0.0064839 -0.00556006 0.000713938 0.00875382 -0.000915602 0.011588 -0.000729408 -0.00275797 -0.00884973 -0.00742187 0.000339173 -0.00518476 0.00541735 -0.00717614 -0.000359328 -0.00898507 -0.0140575 0.00209555 -0.00133837 0.0172185 0.00918016 0.00541123 0.00379332 0.00115421 8.88874e-05 -0.00283849 -0.0128352 0.00206902
internal_weight=2113 1488 625 750 738 478 147 256 566 407 343 273 458 108 172 97 412 214 70 110 310 73 183 222 151 268 219 73 73 87
internal_count=2113 1488 625 750 738 478 147 256 566 407 343 273 458 108 172 97 412 214 70 110 310 73 183 222 151 268 219 73 73 87
is_linear=0
shrinkage=0.02


Tree=11
num_leaves=31
num_cat=0
split_feature=392 387 291 167 296 185 271 226 247 392 298 142 47 199 217 392 45 301 330 334 325 41 344 303 178 263 102 360 163 269
split_gain=78.1974 36.9648 26.4609 16.1867 13.7437 10.4572 9.5599 6.96677 6.80057 5.44255 5.23621 4.66997 4.31482 4.27138 4.00071 3.95906 3.58288 3.40054 3.19614 3.16535 3.10164 3.06762 2.92821 2.51458 2.7438 2.49954 2.34705 2.16868 2.91786 2.05505
threshold=0.049990907311439521 -0.96325200796127308 -2.297526359558105 -0.31408232450485224 -0.1390988230705261 0.21202735602855685 0.30019703507423406 -0.62109568715095509 -0.060099638998508446 -1.2044596672058103 1.7405345439910891 0.059544282034039504 -0.0017007572459988294 -2.3969129323959346 -1.0369241237640379 0.89459869265556347 -0.30163435637950892 -0.0092184827663004381 -3.3186627626419063 1.9712599515914919 -0.6413956582546233 0.36578553915023809 2.6759426593780522 0.16094449907541278 -0.036112317815423005 -0.61561143398284901 0.14798887073993686 -2.4572267532348628 0.011437266599386932 -1.4890631437301634
decision_type=2 2 2 2 2 2 2 2 2 2 2 2 2 2 2 2 2 2 2 2 2 2 2 2 2 2 2 2 2 2
left_child=1 3 6 -1 9 13 12 -6 17 -3 16 -5 -2 -4 -11 19 -7 -8 -9 21 23 -15 -14 24 -16 -10 -13 28 -17 -25
right_child=2 4 5 11 7 10 8 18 25 14 -12 26 22 15 20 27 -18 -19 -20 -21 -22 -23 -24 29 -26 -27 -28 -29 -30 -31
leaf_value=-0.00049508632738785494 0.00080137795316321506 0.0086963662360945056 -0.0098647957555949694 0.008295457975783696 -0.009319946108592882 -0.0051960354430068811 -0.011800190815702081 0.0045548821672012933 -0.0046661185172314828 -0.0044974152202485133 0.0080467772468303649 0.012022184587622943 -0.0050544245333172559 -0.0017976014979289288 -0.0049575556793383189 -0.0044480812318845467 0.00290696966108577 -0.022856374527468828 -0.0016316830531250032 -0.0070655274874944652 0.0055248271737992757 0.0038995488209927339 -0.012013365281255621 0.0073184575235774353 0.0013616273316438309 -0.011491111951214928 0.019321115434388907 -0.0015688175535136153 -0.011682222434197014 0.0021278949678103383
leaf_weight=56 33 60 38 118 43 33 30 36 37 30 46 93 84 192 33 65 56 31 277 34 123 45 36 41 126 68 32 39 36 115
leaf_count=56 33 60 38 118 43 33 30 36 37 30 46 93 84 192 33 65 56 31 277 34 123 45 36 41 126 68 32 39 36 115
internal_value=-0.000246429 0.0031346 -0.00467298 0.00918859 0.00107081 -0.00212916 -0.00928774 -0.00195964 -0.0126085 0.00311376 0.00272254 0.011406 -0.00556865 -0.00359351 0.00236408 -0.00296872 -0.000145681 -0.0179661 -0.000895727 -0.00153778 0.00285235 -0.000692284 -0.00730482 0.00178054 4.80652e-06 -0.00921828 0.0141656 -0.00567794 -0.00720336 0.00356745
internal_weight=2086 1183 903 299 884 584 319 356 166 528 135 243 153 449 468 411 89 61 313 271 438 237 120 315 159 105 125 140 101 156
internal_count=2086 1183 903 299 884 584 319 356 166 528 135 243 153 449 468 411 89 61 313 271 438 237 120 315 159 105 125 140 101 156
is_linear=0
shrinkage=0.02


Tree=12
num_leaves=31
num_cat=0
split_feature=392 387 291 55 199 81 387 286 37 123 264 329 238 259 362 271 288 329 344 227 247 307 392 238 221 145 249 275 349 168
split_gain=83.0931 31.4142 28.2011 14.0725 10.2364 9.76354 13.2935 9.18873 10.4923 6.36206 5.10167 5.04862 4.12358 4.03102 3.9366 3.9252 3.5919 3.19495 3.14848 4.44737 3.00045 2.95949 2.90118 2.74867 2.66699 2.56535 2.40512 2.26301 2.20961 2.14064
threshold=-0.13314434885978696 -0.96325200796127308 -2.0255401134490962 0.3269005566835404 -0.75802704691886891 -0.10067942738533019 -0.96325200796127308 1.3991758823394778 0.14464212954044345 -0.00099137437064200618 1.1989109516143801 4.4911987781524667 -0.0083989212289452535 -0.72637292742729176 0.047073153778910644 0.30019703507423406 1.3340267539024355 1.2074490189552309 3.5604525804519658 -0.057005798444151871 0.078355729579925551 -1.5079818964004514 0.9036293923854829 0.52858209609985363 -2.3104025125503536 0.065056957304477706 1.6923393011093142 -1.1167328953742979 -0.44134743511676783 -0.1629281863570213
decision_type=2 2 2 2 2 2 2 2 2 2 2 2 2 2 2 2 2 2 2 2 2 2 2 2 2 2 2 2 2 2
left_child=1 3 7 14 15 -4 10 9 23 13 -7 18 22 -2 21 29 17 -14 19 -6 -17 -1 28 -9 -19 -18 -16 -11 -8 -3
right_child=2 4 5 -5 11 6 12 8 -10 27 -12 -13 16 -15 26 20 25 24 -20 -21 -22 -23 -24 -25 -26 -27 -28 -29 -30 -31
leaf_value=0.0036409024686685633 -0.0050326263821346964 -0.0024312803124077616 -0.0098542081345804038 -0.0010109546283880871 0.0036177207050864038 0.0020055711283489611 -0.0061086571035352914 -0.0064032523519557526 -0.018113065020386447 0.0037701165676116946 0.013457605283933156 -0.0033622798432285592 0.002757634789093898 -0.01267796287876229 0.010950593506762137 -0.007328659475838043 -0.0069786477217880583 -0.0054707224116377203 -0.0012917664945125578 0.0087319039234093256 -0.0012737681800074193 0.010642115569865431 -0.0078603504989296202 -0.012753248939290642 7.4169445429583423e-05 0.00034359917975962162 0.018904868836809949 -0.0029667919157248626 3.0253221824144326e-05 0.002429861018252104
leaf_weight=33 92 48 48 43 243 31 35 125 57 30 31 34 132 41 46 47 50 44 33 96 102 129 58 38 141 30 39 51 64 131
leaf_count=33 92 48 48 43 243 31 35 125 57 30 31 34 132 41 46 47 50 44 33 96 102 129 58 38 141 30 39 51 64 131
internal_value=-0.000134505 0.00395968 -0.00395302 0.00950953 0.00174707 -0.00135359 -0.000661453 -0.00790557 -0.0107748 -0.00488341 0.0079732 0.00386229 -0.00165299 -0.00754237 0.0113344 -0.000878693 -0.000559946 0.000402746 0.00453705 0.0051087 -0.00325547 0.00927774 -0.00437512 -0.00802026 -0.00128902 -0.0042914 0.0149509 -0.000440919 -0.00221806 0.00111385
internal_weight=2122 1024 1098 290 734 664 616 434 220 214 62 406 554 133 247 328 397 317 372 339 149 162 157 163 185 80 85 81 99 179
internal_count=2122 1024 1098 290 734 664 616 434 220 214 62 406 554 133 247 328 397 317 372 339 149 162 157 163 185 80 85 81 99 179
is_linear=0
shrinkage=0.02


Tree=13
num_leaves=31
num_cat=0
split_feature=391 291 40 185 393 179 246 399 167 255 237 326 44 337 247 341 35 391 227 391 298 219 298 335 128 164 60 13 281 300
split_gain=84.7325 32.5097 22.8246 13.5839 9.90248 7.82027 6.79408 6.79117 6.55984 6.3042 6.10088 4.94393 4.78193 4.23486 3.82138 3.7754 3.74777 3.56912 3.7639 3.33493 3.29051 3.24053 3.14072 2.79953 2.74172 2.71063 2.50413 2.43308 2.42568 2.33084
threshold=0.46554207801818853 -1.9436556100845335 0.074535354971885695 0.2082670405507088 1.0000000180025095e-35 0.19225014001131061 0.31628820300102239 -0.71827968955039967 -0.41649098694324488 -0.88860252499580372 -4.2454411983489981 4.691253900527955 -0.11280125379562377 -0.19958530366420743 -0.33910095691680903 -0.74244886636733998 0.20549709349870685 -0.45116271078586573 -0.3023253977298736 -0.67864093184471119 1.772520959377289 1.2709302306175234 0.27540209889411932 -1.0857740640640257 -0.13589700311422345 0.12587225437164309 -0.0079705505631864054 0.011657645460218193 -1.3441018462181089 2.0366543531417851
decision_type=2 2 2 2 2 2 2 2 2 2 2 2 2 2 2 2 2 2 2 2 2 2 2 2 2 2 2 2 2 2
left_child=1 4 5 9 11 10 13 14 -4 19 -2 20 -11 -6 -8 -14 21 28 -19 -3 25 -12 -15 -21 -23 -1 -10 -25 -5 -17
right_child=2 3 8 17 6 -7 7 -9 26 12 16 -13 15 22 -16 29 -18 18 -20 23 -22 24 -24 27 -26 -27 -28 -29 -30 -31
leaf_value=-0.0051224091926925499 0.0097893905046567403 -0.0073419086468455045 -0.008783655855393804 -0.0030751458539494446 -0.0098979641643126264 0.014923609277558704 -0.02119501386369978 -0.0042978014238178727 -0.0015968900103614015 -0.0069835804632919678 0.0022374670908645975 0.0011296056443150493 -0.0027213832518001176 -0.0081995938387182023 -0.0112148880182455 0.0030420153652756621 -0.0013497592903235379 0.0038793918436600102 0.011379055617059149 -0.0065561703458318823 -0.00192123309915003 0.012608176252494257 -0.00080709873629150109 0.00043755369593522381 0.0058338672406971458 -0.011486077071902783 0.0047567665335187257 -0.0046252365688061606 0.0034649829159562407 -0.0015125055649671062
leaf_weight=120 199 74 32 33 72 61 33 30 51 32 66 67 86 34 46 206 32 88 39 49 93 34 65 117 98 36 45 54 63 56
leaf_count=120 199 74 32 33 72 61 33 30 51 32 66 67 86 34 46 206 32 88 39 49 93 34 65 117 98 36 45 54 63 56
internal_value=6.07656e-05 -0.00251725 0.0062769 -0.000108925 -0.00612936 0.00823454 -0.00886305 -0.0127718 -0.00122855 -0.00152545 0.00721857 -0.0036666 0.000178247 -0.00625266 -0.0158042 0.000872949 0.00492904 0.00414791 0.00632315 -0.00371383 -0.00495586 0.00594714 -0.00345803 -0.00243833 0.0077409 -0.00671775 0.00141768 -0.00119621 0.00119994 0.00206445
internal_weight=2111 1493 618 897 596 490 280 109 128 674 429 316 380 171 79 348 230 223 127 294 249 198 99 220 132 156 96 171 96 262
internal_count=2111 1493 618 897 596 490 280 109 128 674 429 316 380 171 79 348 230 223 127 294 249 198 99 220 132 156 96 171 96 262
is_linear=0
shrinkage=0.02


Tree=14
num_leaves=31
num_cat=0
split_feature=185 79 360 296 273 314 266 241 179 37 384 271 105 355 130 255 206 111 238 323 316 271 275 221 329 200 160 193 79 313
split_gain=67.6616 27.3932 14.401 12.0081 10.3141 9.6559 6.97373 6.6174 6.9061 6.10219 4.92548 5.14568 4.37853 3.8752 3.79298 3.6582 3.43063 3.37325 3.37001 3.0588 3.01136 2.82299 2.75239 2.73094 2.61758 2.28265 2.27545 2.37966 2.20773 2.11188
threshold=0.21202735602855685 -0.00025086138339247549 0.75655665993690502 0.14139978587627414 0.21754415333271029 0.81060403585433971 -2.2787542343139644 0.10417113453149797 0.17797508090734485 0.15820317715406421 1.6097559332847597 0.11720052361488344 -0.18514462560415265 -0.90470200777053822 0.096423890441656127 -0.25236512720584864 1.2073642015457156 0.03467396833002568 1.3182122111320498 -0.60257628560066212 -0.18479353189468381 1.0730818510055544 0.43235871195793157 -1.6020949482917783 1.4283193349838259 0.28056061267852789 0.0064343404956161985 -3.9301484823226924 -0.00045936640526633704 0.9841098189353944
decision_type=2 2 2 2 2 2 2 2 2 2 2 2 2 2 2 2 2 2 2 2 2 2 2 2 2 2 2 2 2 2
left_child=1 5 4 6 19 22 -3 16 17 18 11 12 -5 -11 -6 24 25 26 21 -2 -16 28 29 -21 -13 -8 -9 -28 -7 -1
right_child=2 3 -4 10 14 9 7 8 -10 13 -12 15 -14 -15 20 -17 -18 -19 -20 23 -22 -23 -24 -25 -26 -27 27 -29 -30 -31
leaf_value=-0.002833267512926182 -0.00076341374389206362 -0.0074595786574663536 -0.0063657218318964757 -0.0035227916051620901 0.0071047532046213746 -0.0073005033927948625 -0.0057196403088721828 0.00039328936788746545 0.012487121510785073 -0.015169319310149207 -0.0091823682485317644 -0.010578032179989599 0.0027297940335822579 -0.0059921778256402294 0.01428547959195243 -0.0012979289277040579 0.0047619406430906546 0.0063613653266802427 0.00024543632287532091 0.0025082806699198777 0.0074315032296414889 -0.011841469466686251 -0.005973106274484761 0.0074106261840650956 -0.004094746883958578 -0.00059607552398212142 0.0012761439870183284 0.0078390185325974381 -0.0027505341493108842 0.003061756289098412
leaf_weight=41 46 31 33 71 140 131 45 185 30 59 42 42 114 32 88 92 35 78 30 95 47 38 34 91 68 136 50 39 68 54
leaf_count=41 46 31 33 71 140 131 45 185 30 59 42 42 114 32 88 92 35 78 30 95 47 38 34 91 68 136 50 39 68 54
internal_value=6.61841e-05 -0.0020644 0.00614716 -0.000254582 0.00698342 -0.00597909 0.00150356 0.00199152 0.00356719 -0.00766214 -0.00282738 -0.00209403 0.000318141 -0.0121405 0.00959824 -0.00428466 -0.000802246 0.00274072 -0.00605691 0.00382841 0.0120426 -0.00685005 -0.00126263 0.00496006 -0.00671487 -0.00191848 0.00167139 0.00426109 -0.00578858 0.000511627
internal_weight=2085 1545 540 1058 507 487 629 598 382 358 429 387 185 91 275 202 216 352 267 232 135 237 129 186 110 181 274 89 199 95
internal_count=2085 1545 540 1058 507 487 629 598 382 358 429 387 185 91 275 202 216 352 267 232 135 237 129 186 110 181 274 89 199 95
is_linear=0
shrinkage=0.02


Tree=15
num_leaves=31
num_cat=0
split_feature=387 291 188 387 126 391 76 236 11 31 360 255 391 285 335 344 338 289 9 232 135 135 291 8 98 122 387 261 1 136
split_gain=74.0354 20.644 19.7858 14.6418 12.8567 8.80539 7.43333 6.60981 5.21348 4.54948 4.24249 3.88623 4.02213 3.63518 3.5749 3.49617 3.60527 3.20287 3.08116 3.06899 3.3924 2.97623 2.91483 2.89836 2.85634 2.84207 2.83871 2.51265 2.44397 3.19274
threshold=1.0000000180025095e-35 -1.9436556100845335 0.35285127162933355 -0.96325200796127308 0.10906448587775232 0.32225377857685095 -0.040778784081339829 0.83707511425018322 0.0097780064679682272 0.22534012049436572 -4.1822686195373526 -0.43158918619155878 -1.0825572609901426 1.3672806024551394 -0.079616833478212343 3.2182861566543584 0.096040368080139174 -0.19760528206825254 0.069542422890663161 3.5084818601608281 -0.0077230415772646657 0.034460550174117095 0.83508038520812999 0.023787519894540313 0.15386328101158145 -0.19654148072004315 0.52381797879934322 1.9177000522613528 -0.00021619380277115849 0.0073636970482766637
decision_type=2 2 2 2 2 2 2 2 2 2 2 2 2 2 2 2 2 2 2 2 2 2 2 2 2 2 2 2 2 2
left_child=2 6 4 14 5 10 15 11 -9 17 23 12 -3 -8 25 16 -2 19 -16 20 -7 -10 -5 -1 27 -4 -13 -14 29 -15
right_child=1 7 3 22 -6 9 13 8 21 -11 -12 26 24 28 18 -17 -18 -19 -20 -21 -22 -23 -24 -25 -26 -27 -28 -29 -30 -31
leaf_value=-0.0036034308319600923 -0.0035820082263089714 -0.0078599090517631597 0.016572372738657325 0.0021484490600414577 -0.010452217508639608 0.0038533812309756422 -0.010642034702522809 -0.00050060293112288827 -0.013417427633830812 -0.00036636040644379147 -0.008374681177012849 0.0035796643859257217 -0.00087884486928372328 -0.0039399368935372943 0.0024315907863072224 -0.016478681113038744 -0.0123043892549914 0.00065187059869260898 0.010672175366076815 0.0040113569421531712 0.012470938920974733 -0.0047281472422182561 0.0066609462624886533 0.0032118681646310368 0.0030012913250759472 0.010039227989632526 -0.0014417837879084278 -0.0068263896983681302 -0.0055332633426167441 0.0033989575279481481
leaf_weight=46 38 33 56 163 33 31 41 53 30 69 31 143 211 84 34 33 41 44 41 90 53 38 89 50 64 82 64 31 237 31
leaf_count=46 38 33 56 163 33 31 41 53 30 69 31 143 211 84 34 33 41 44 41 90 53 38 89 50 64 82 64 31 237 31
internal_value=-5.65351e-05 -0.00337943 0.00421173 0.00709116 0.00119809 0.00217253 -0.00642179 -0.00106368 -0.00525217 0.00410409 -0.00218847 -0.000119677 -0.00143541 -0.00508032 0.0109346 -0.0109572 -0.00830085 0.00550952 0.00709663 0.00671652 0.00945422 -0.00883548 0.00378205 -6.06891e-05 -0.000696038 0.0128892 0.0020282 -0.00169043 -0.00437604 -0.00193734
internal_weight=2084 1172 912 465 447 414 505 667 121 287 127 546 339 393 213 112 79 218 75 174 84 68 252 96 306 138 207 242 352 115
internal_count=2084 1172 912 465 447 414 505 667 121 287 127 546 339 393 213 112 79 218 75 174 84 68 252 96 306 138 207 242 352 115
is_linear=0
shrinkage=0.02


Tree=16
num_leaves=31
num_cat=0
split_feature=387 37 161 387 146 197 361 300 32 335 392 296 392 221 100 269 364 324 341 339 337 252 275 65 337 259 80 122 292 312
split_gain=68.9077 24.148 19.2774 21.5597 9.4765 8.90934 7.15928 6.61948 6.64034 6.43806 6.35027 4.40375 4.30677 3.85307 4.11526 3.35939 3.06826 3.01266 2.8267 2.78415 2.72938 2.58639 2.49479 2.48227 2.38955 2.32961 2.27224 2.49929 1.79224 1.64896
threshold=1.0000000180025095e-35 0.15137333422899249 0.083136409521102919 -0.96325200796127308 0.065608929842710509 0.63798943161964428 -1.1895192861557005 1.1115851998329165 -0.072080302983522401 0.58676314353942882 -0.063960049301385866 1.003467530012131 0.087476350367069258 -1.6660063862800596 0.10613792389631273 -0.86252444982528675 -0.87556657195091236 -0.75000974535942067 -0.81713464856147755 1.1953665018081667 0.84294205904006969 0.45629818737506872 -0.67088547348976124 -0.076241631060838685 0.98355063796043407 -1.2094981670379636 0.027591284364461902 -0.08393532037734984 1.2753767967224123 -0.44580429792404169
decision_type=2 2 2 2 2 2 2 2 2 2 2 2 2 2 2 2 2 2 2 2 2 2 2 2 2 2 2 2 2 2
left_child=2 4 3 5 7 13 -3 8 23 -7 11 21 17 -1 25 16 -12 -9 -14 -20 22 24 -6 -2 28 -15 27 -10 -5 -24
right_child=1 6 -4 10 20 9 -8 12 26 -11 15 -13 18 14 -16 -17 -18 -19 19 -21 -22 -23 29 -25 -26 -27 -28 -29 -30 -31
leaf_value=0.0049662863768430224 0.0014870703401597771 -0.017291032673308143 -0.010337557767052204 0.0053326919231386416 -0.002921439118619109 0.0068134865354673533 -0.0070102562760990675 0.0015549741500819273 0.0059345264098701177 -0.0046567472943570467 -0.00046401936054120174 -0.0024270471814088522 -0.0085803008249454322 0.012359861623733601 0.014513072538740781 0.001386513079152159 -0.0091230924690470973 -0.0035112797778962951 -0.0046271182145758332 0.0012266987349305834 -0.00090113447003421332 0.0020355891564167016 -0.0063420597214740027 -0.0046732121239367284 0.009397579848766326 0.0063616086475281833 -0.0019244645789074592 0.0015291973064805186 0.00014930616236395308 -0.011208724937952903
leaf_weight=52 35 52 34 124 56 49 64 108 87 30 32 46 55 45 96 67 32 80 156 40 40 151 101 93 48 81 37 127 34 47
leaf_count=52 35 52 34 124 56 49 64 108 87 30 32 46 55 45 96 67 32 80 156 40 40 151 101 93 48 81 37 127 34 47
internal_value=-4.411e-05 -0.00324594 0.00404933 0.00462282 -0.00228742 0.00844467 -0.0118338 -0.00124886 0.000686225 0.00245027 0.00207431 0.00331388 -0.00291501 0.0101427 0.0113 -0.00173152 -0.00493882 -0.000615146 -0.00461913 -0.00343214 -0.00573069 0.004063 -0.00665972 -0.0029918 0.00551526 0.00866349 0.00257069 0.00335852 0.00423309 -0.0080164
internal_weight=2099 1178 921 887 1062 353 116 818 379 79 534 403 439 274 222 131 64 188 251 196 244 357 204 128 206 126 251 214 158 148
internal_count=2099 1178 921 887 1062 353 116 818 379 79 534 403 439 274 222 131 64 188 251 196 244 357 204 128 206 126 251 214 158 148
is_linear=0
shrinkage=0.02


Tree=17
num_leaves=31
num_cat=0
split_feature=387 145 340 80 291 387 252 103 128 197 112 154 255 303 53 211 181 35 338 351 211 8 360 70 298 238 226 298 94 168
split_gain=65.8212 21.3854 17.9522 10.7381 10.6382 8.27688 8.08616 7.08731 5.85351 4.52577 5.09449 4.35773 4.09837 3.97703 3.45655 3.35342 3.29208 3.28112 2.91712 2.9018 2.85873 2.79709 2.70465 2.51131 2.46875 2.25932 2.10215 3.24598 2.1007 2.08741
threshold=1.0000000180025095e-35 0.18807355314493182 -5.344120740890502 0.042281340807676322 -1.9436556100845335 -0.96325200796127308 1.0604052543640139 -0.046193208545446389 -0.2800744622945785 -1.1131227016448972 -0.16313884407281873 0.034361625090241439 -0.43158918619155878 0.77681815624237072 0.11061152815818788 0.36003161966800695 0.30190999805927282 0.036152953281998641 -0.77353236079215992 -2.1066373586654659 -0.041144808754324906 0.037206459790468223 -4.2234468460082999 0.013995756395161154 0.032139949500560767 0.055587951093912132 0.16634306311607364 1.3290363550186159 -0.063024979084730134 -0.10967076569795607
decision_type=2 2 2 2 2 2 2 2 2 2 2 2 2 2 2 2 2 2 2 2 2 2 2 2 2 2 2 2 2 2
left_child=2 4 5 6 11 20 9 -8 15 17 22 19 13 25 26 -3 -15 -4 28 -2 -1 -10 -11 -21 -13 -6 27 -12 -9 -14
right_child=1 8 3 -5 12 -7 7 18 21 10 14 24 29 16 -16 -17 -18 -19 -20 23 -22 -23 -24 -25 -26 -27 -28 -29 -30 -31
leaf_value=0.014329208275303245 0.00033067212720592343 -0.018777732334353706 0.0048604128097600122 -0.0078263588372345389 -0.0057483399461489169 0.0043758097324061431 -0.00924635187489912 0.00054990028589963912 -0.0034200971228862875 0.0021222811640025335 0.0020016988406244378 -0.010875595047765849 -0.0005877110637907254 -0.0015011287296989135 0.0094551379405254238 -0.009450177808757872 0.005080808248301899 0.013461830607231925 -0.0015078977650686976 -0.0063689517978102322 0.0084169220790434422 -0.010319265202619134 -0.0049020537704621489 0.00011425900565726417 -0.0053467605339392321 -0.001762917856394779 0.00010872743338007819 0.0082969070393592113 0.0072315725056748634 0.0031973324022773241
leaf_weight=70 81 31 45 39 80 136 30 38 65 50 76 47 97 68 49 46 52 32 82 84 87 38 36 33 126 196 53 58 36 142
leaf_count=70 81 31 45 39 80 136 30 38 65 50 76 47 97 68 49 46 52 32 82 84 87 38 36 33 126 196 53 58 36 142
internal_value=-3.45342e-06 -0.00311252 0.00401567 0.00208583 -0.00196675 0.00808363 0.00277106 -0.000668888 -0.00942413 0.00436998 0.0032908 -0.00464765 -0.000390745 -0.00163602 0.0047989 -0.0135857 0.00138758 0.00868534 0.00107679 -0.00258143 0.0112001 -0.0061135 -0.000862721 -0.00456917 -0.00695594 -0.00295116 0.00349168 0.00480843 0.00390521 0.00166901
internal_weight=2103 1186 917 624 1006 293 585 186 180 399 322 371 635 396 236 77 120 77 156 198 157 103 86 117 173 276 187 134 74 239
internal_count=2103 1186 917 624 1006 293 585 186 180 399 322 371 635 396 236 77 120 77 156 198 157 103 86 117 173 276 187 134 74 239
is_linear=0
shrinkage=0.02


Tree=18
num_leaves=31
num_cat=0
split_feature=185 119 103 291 286 351 241 203 46 164 393 217 337 315 208 256 33 208 105 383 226 118 226 255 200 393 264 213 217 255
split_gain=60.8505 27.7721 10.4949 9.41251 8.24059 6.81486 9.36961 6.4808 6.20694 5.79951 5.58063 5.11882 4.26545 4.16933 4.11742 3.77832 3.70444 3.50397 6.12897 3.41318 3.37566 3.1119 3.10553 3.00778 2.79377 2.70454 2.51866 3.36835 2.45618 2.41952
threshold=0.2082670405507088 0.052176116034388549 0.098396282643079772 -0.16834685206413266 1.3683853149414065 -2.6820206642150874 0.10417113453149797 0.3880192786455155 -0.050194339826703065 0.01068673422560096 -0.40989358723163599 -0.2105787321925163 0.93639546632766735 3.6554396152496342 2.6009865999221806 -0.19150104373693463 -0.055091122165322297 1.8442932367324831 0.01581358723342419 -3.281285166740417 1.0332707166671755 0.016110811382532123 0.41515845060348516 -0.82194882631301869 0.57158523797988903 -0.10885918885469435 0.36175076663494116 0.10385662689805032 1.7090507149696352 -1.5224140286445615
decision_type=2 2 2 2 2 2 2 2 2 2 2 2 2 2 2 2 2 2 2 2 2 2 2 2 2 2 2 2 2 2
left_child=1 3 8 5 11 6 9 23 -2 -1 22 -3 26 -14 28 24 -8 18 -13 20 -17 -11 -7 -6 -12 -18 -10 -28 29 -5
right_child=2 4 -4 14 7 10 16 -9 12 21 15 17 13 -15 -16 19 25 -19 -20 -21 -22 -23 -24 -25 -26 -27 27 -29 -30 -31
leaf_value=-0.0080950812250375741 0.014370340801574089 0.0025511543537889208 -0.0047366842063697604 -0.002623988668276598 -0.010477702794803515 0.0028147565171654739 0.0091316265630302946 -0.016980105733617825 -0.00053179797423737391 0.0036834051936518314 -0.0049835688672786541 -0.0047019048479207985 0.0049760974726100983 0.013434518741515394 0.0093589123408310115 -0.012110004304597775 0.0038382558311479023 -0.00030428411705153333 -0.012923672225698828 -0.0033616731391385808 -0.0048376334796625155 -0.004481758640119524 -0.0024117536640780881 -0.0022778817364836439 0.0021968582869422706 -0.00067893982123659591 0.0078724695745110516 0.0036928802872820861 0.0053995672312744884 0.0020941210571159799
leaf_weight=63 35 33 35 60 43 68 30 45 33 41 41 150 49 50 30 58 115 40 48 84 52 31 128 32 42 96 123 222 55 144
leaf_count=63 35 33 35 60 43 68 30 45 33 41 41 150 49 50 30 58 115 40 48 84 52 31 128 32 42 96 123 222 55 144
internal_value=-6.33245e-05 -0.00211173 0.00564931 -0.000527797 -0.0066956 -0.00158872 0.000420794 -0.0110411 0.00637496 -0.00376417 -0.00318119 -0.00470463 0.00573075 0.00942946 0.0025784 -0.00499845 0.00277676 -0.00572355 -0.00680437 -0.00651498 -0.00881993 0.000141735 -0.000588359 -0.00712915 -0.0013839 0.00179596 0.0047175 0.00521978 0.00172732 0.000694439
internal_weight=2076 1529 547 1138 391 849 376 120 512 135 473 271 477 99 289 277 241 238 198 194 110 72 196 75 83 211 378 345 259 204
internal_count=2076 1529 547 1138 391 849 376 120 512 135 473 271 477 99 289 277 241 238 198 194 110 72 196 75 83 211 378 345 259 204
is_linear=0
shrinkage=0.02


Tree=19
num_leaves=31
num_cat=0
split_feature=387 291 161 387 236 154 392 392 353 111 399 392 300 112 325 336 140 392 288 372 298 203 32 207 324 350 199 183 225 91
split_gain=64.4143 18.3335 16.0432 18.515 7.70783 7.25765 6.73857 6.54127 6.64527 4.9545 4.86692 4.72228 4.16664 4.11805 4.0522 3.94119 3.44742 3.25748 3.17668 2.76343 2.76061 2.63411 2.56105 2.54961 2.44808 2.22438 2.03409 1.86716 1.85946 1.61808
threshold=1.0000000180025095e-35 -1.9436556100845335 0.083136409521102919 -0.96325200796127308 0.83707511425018322 0.044881068170070655 -0.063960049301385866 -1.5349485278129575 1.9874135851860049 0.050928160548210151 -1.0383380055427549 0.89459869265556347 1.3349426388740542 -0.20159457623958585 -1.8503662943840025 0.93441113829612743 0.27036345005035406 0.087476350367069258 2.8734716176986699 0.53981426358222973 1.8591757416725161 -0.19897879660129544 -0.054532486945390694 0.86571165919303905 -1.9388900399208067 -1.9461359381675718 -0.74366712570190419 0.031266489997506149 1.9828659892082217 -0.016914873383939263
decision_type=2 2 2 2 2 2 2 2 2 2 2 2 2 2 2 2 2 2 2 2 2 2 2 2 2 2 2 2 2 2
left_child=2 5 3 7 11 17 13 -1 16 29 21 18 -13 -5 -8 28 20 22 23 27 -9 -7 -2 24 -3 -10 -26 -19 -15 -6
right_child=1 4 -4 6 9 10 14 8 25 -11 -12 12 -14 15 -16 -17 -18 19 -20 -21 -22 -23 -24 -25 26 -27 -28 -29 -30 -31
leaf_value=0.01462879846803844 -0.0031715099509297445 0.0062294663979657119 -0.0096116757491493936 -0.00018187369639967001 0.000376849361519153 -0.0086196758555514476 -0.0078013456086902053 -0.0028951752809591069 0.0044336378267582728 -0.012246685913996771 -0.0067296435175799264 -0.00035742688514856679 -0.0083114086132910509 0.0046242341207425024 0.00018767959262500062 0.0017875926482370337 0.0066677486071259609 -0.00564534678623042 -0.0035347399562252343 -0.010239833553389806 0.0047325397712890717 -0.017776655824854971 0.0030516688937419342 -0.00068802304785802132 -0.00072151314758230002 0.01072912128827044 0.0034093294436128678 0.00026438442437211053 0.0089970093655964024 -0.0049816681582841183
leaf_weight=50 86 61 32 100 35 33 32 41 32 30 170 64 43 108 100 129 70 71 52 39 32 30 36 124 82 129 110 30 69 60
leaf_count=50 86 61 32 100 35 33 32 41 32 30 170 64 43 108 100 129 70 71 52 39 32 30 36 124 82 129 110 30 69 60
internal_value=-1.88846e-05 -0.00316316 0.0039132 0.00441882 -0.000977813 -0.0060657 0.00206847 0.00795912 0.00677369 -0.00540798 -0.00862996 7.16055e-05 -0.00364774 0.00334087 -0.00183659 0.00448581 0.00356201 -0.00373717 0.0010119 -0.00579918 0.000485518 -0.0133929 -0.00131556 0.00165436 0.0027988 0.0095476 0.00165586 -0.00391893 0.00641035 -0.00304041
internal_weight=2080 1156 924 892 661 495 538 354 304 125 233 536 107 406 132 306 143 262 429 140 73 63 122 377 253 161 192 101 177 95
internal_count=2080 1156 924 892 661 495 538 354 304 125 233 536 107 406 132 306 143 262 429 140 73 63 122 377 253 161 192 101 177 95
is_linear=0
shrinkage=0.02


Tree=20
num_leaves=31
num_cat=0
split_feature=114 75 201 351 352 315 129 393 315 330 59 271 286 125 12 66 110 339 214 100 234 270 60 171 316 373 359 316 322 251
split_gain=51.0501 20.5141 14.6112 8.94936 6.78425 6.60086 6.58144 6.3593 6.34178 5.606 5.4686 5.186 4.82866 4.75474 4.47098 4.43893 4.39674 3.78023 3.76302 3.46283 3.3708 3.14679 2.98747 2.79463 2.72071 2.65694 2.58205 2.55342 3.16078 2.48166
threshold=-0.079181157052516923 -0.059638455510139458 -1.1100082993507383 -2.7321900129318233 1.6014314293861391 4.0520753860473642 -0.11029513180255889 -0.25937639176845545 4.0278997421264657 -0.70498535037040699 0.00049234449397772561 2.4915156364440922 1.3683853149414065 0.31704485416412359 -0.2653698176145553 0.011232161894440653 0.014108380768448116 0.1870173513889313 3.272791981697083 0.042687745764851577 1.8958452939987185 -0.032425085082650178 -0.007635818561539053 0.00021964880579616877 0.18218875676393512 0.62475052475929271 1.1666010618209841 -0.58236926794052113 -1.360018193721771 0.049777289852499969
decision_type=2 2 2 2 2 2 2 2 2 2 2 2 2 2 2 2 2 2 2 2 2 2 2 2 2 2 2 2 2 2
left_child=2 4 9 5 -2 10 -4 24 11 -1 21 13 14 27 -6 -12 -10 -11 20 -14 23 -3 -22 29 -5 -15 -23 28 -8 -9
right_child=1 3 6 7 12 -7 8 18 16 17 15 -13 19 25 -16 -17 -18 -19 -20 -21 22 26 -24 -25 -26 -27 -28 -29 -30 -31
leaf_value=0.012529983868371347 -0.0031093859246798922 0.0032300414846223946 -0.0067094202882477215 0.0032766266145452393 -0.0017950435357577191 0.0094529049319680789 0.0016374335623145775 -0.0035798384323961247 0.0036623271481999965 0.00095092559131709016 0.00099398492432628115 -0.0067290524619095246 -0.0092737542172627793 0.001443218651987698 -0.01097917923513724 0.0093697188614169143 0.01121285000290626 0.0072560089991051471 -0.011635340469724991 -0.018641966573702984 -0.004870925049000452 -0.0018706122788641117 0.0016511764323169534 -0.0016770966537296773 -0.0019485598894375886 0.0063789082774003691 -0.0076341743648729544 0.0011119352913636544 -0.0061259820604195395 -0.010327992318996362
leaf_weight=62 75 32 33 48 39 30 34 36 169 53 124 31 40 85 47 30 37 139 32 37 56 113 53 38 196 91 42 195 50 68
leaf_count=62 75 32 33 48 39 30 34 36 169 53 124 31 40 85 47 30 37 139 32 37 56 113 53 38 196 91 42 195 50 68
internal_value=-0.000120122 -0.00300222 0.00322348 -0.00161 -0.00819806 0.00076773 0.00176742 -0.00328046 0.00218984 0.00733327 -4.7025e-05 0.000934811 -0.0104734 0.00148413 -0.00694973 0.00272483 0.00511326 0.00554329 -0.0053101 -0.0141333 -0.00441809 -0.00233441 -0.00172702 -0.00643109 -0.000902372 0.00403819 -0.00350971 -0.000144314 -0.00301864 -0.00810371
internal_weight=2115 1136 979 898 238 371 725 527 692 254 341 486 163 455 86 154 206 192 283 77 251 187 109 142 244 176 155 279 84 104
internal_count=2115 1136 979 898 238 371 725 527 692 254 341 486 163 455 86 154 206 192 283 77 251 187 109 142 244 176 155 279 84 104
is_linear=0
shrinkage=0.02


Tree=21
num_leaves=31
num_cat=0
split_feature=391 24 180 387 199 391 338 165 130 193 95 372 337 214 193 236 258 124 201 217 198 136 32 227 199 238 22 186 398 369
split_gain=64.5375 22.4656 16.7107 15.4853 9.64355 8.57781 7.70603 6.97269 5.18578 4.63678 4.76708 4.53509 4.01881 3.9104 3.98851 3.56546 3.50676 3.22883 3.22148 2.9646 2.72198 2.72069 2.69642 3.22373 2.68591 2.5898 2.22159 2.18853 2.36595 2.09805
threshold=0.24726837873458865 0.050446553155779846 -0.18322618305683133 -0.96325200796127308 -0.58217057585716236 -0.76825290918350209 -0.61553752422332753 0.0015310039161704483 0.16008779406547549 -3.6600493192672725 0.017423267476260666 0.22147320955991748 -0.39996939897537226 0.533449947834015 -3.9728000164031978 0.12046268582344057 -2.5554515123367305 -0.040909541770815842 0.68795007467269909 0.77288204431533825 -0.047471102327108376 0.034512579441070564 -0.075675752013921724 -0.74159920215606678 0.72934794425964367 0.95254451036453258 -0.099736802279949174 -0.035365369170904153 0.61349821090698253 -0.87680843472480763
decision_type=2 2 2 2 2 2 2 2 2 2 2 2 2 2 2 2 2 2 2 2 2 2 2 2 2 2 2 2 2 2
left_child=1 4 6 8 9 7 -2 -3 17 10 -1 -5 -11 22 -15 -9 -13 -4 27 -20 -16 -17 -6 -24 -10 -12 -25 28 -7 -29
right_child=2 5 3 11 13 18 -8 15 24 12 25 16 -14 14 20 21 -18 -19 19 -21 -22 -23 23 26 -26 -27 -28 29 -30 -31
leaf_value=0.0033675677224528043 0.0013695151965532983 -0.0047795943287383125 0.0022551415650093037 -0.0021621923797553585 -0.0015360245176749986 -0.0092732111660794158 -0.0097491282489723888 -0.007043701781637289 0.0099573781080543999 -0.011773672925459373 -0.0036967575806287375 0.00642899486815416 -0.0019486860448823258 0.0022722375871160549 -0.0085520261289043862 -0.017291005346179011 0.0017829047270584853 0.0083480857381741137 -0.0044631214215848092 0.0028324844149340478 -0.00034316376837737416 -0.0085710029536858207 0.0014035635863801519 0.0026664949540638047 0.018177587183308787 0.0011295295559000551 0.0083302306861449509 0.001076219708817761 -0.0028184634251963527 -0.0044592159070160195
leaf_weight=62 68 126 44 60 39 59 37 53 58 35 214 117 32 72 31 48 148 205 35 54 32 30 101 47 30 55 76 39 40 85
leaf_count=62 68 126 44 60 39 59 37 53 58 35 214 117 32 72 31 48 148 205 35 54 32 30 101 47 30 55 76 39 40 85
internal_value=7.89089e-05 -0.00252861 0.00471391 0.00588757 -0.000356148 -0.00555586 -0.00265748 -0.00825488 0.00888176 -0.00255118 -0.00155733 0.00274749 -0.00727364 0.00184067 -0.000917802 -0.0114754 0.00386699 0.00729797 -0.00329422 -7.16084e-05 -0.0045213 -0.0142353 0.00325285 0.00409285 0.0131014 -0.00270892 0.00624333 -0.0045683 -0.00677269 -0.00272878
internal_weight=2132 1365 767 662 796 569 105 257 337 398 331 325 67 398 135 131 265 249 312 89 63 78 263 224 88 269 123 223 99 124
internal_count=2132 1365 767 662 796 569 105 257 337 398 331 325 67 398 135 131 265 249 312 89 63 78 263 224 88 269 123 223 99 124
is_linear=0
shrinkage=0.02


Tree=22
num_leaves=31
num_cat=0
split_feature=387 76 314 101 325 387 264 98 286 271 206 5 342 64 63 366 298 79 11 107 359 236 283 271 215 355 262 351 334 89
split_gain=59.1263 14.8519 14.7573 9.45922 9.81528 7.93112 7.27305 6.27577 6.07379 4.95461 4.56416 4.45412 4.13894 3.54968 3.26559 3.07841 3.06588 2.96825 3.17871 2.96543 2.843 2.45523 2.11684 2.10393 2.02238 2.00801 1.83583 1.79601 1.71432 1.70961
threshold=1.0000000180025095e-35 -0.040778784081339829 -0.95123082399368275 -0.089990638196468339 -0.49345095455646509 -0.96325200796127308 0.18023948371410373 0.073437083512544646 1.3991758823394778 -0.33343906700611109 -0.70861890912055958 -0.098264187574386583 -0.075769294053316102 -0.024906386621296402 -0.016117808409035202 -0.33708199858665461 0.57154506444931041 -0.00025086138339247549 0.022270067594945434 0.040516538545489318 0.24362488836050036 0.83707511425018322 0.19000507146120074 1.5624776482582095 -0.95892328023910511 -4.9084496498107901 2.5139999389648442 -2.1509591341018672 0.7374761998653413 0.093064907938241972
decision_type=2 2 2 2 2 2 2 2 2 2 2 2 2 2 2 2 2 2 2 2 2 2 2 2 2 2 2 2 2 2
left_child=2 8 5 -4 10 6 -1 9 20 21 12 -8 -5 19 -15 -6 22 -12 -19 -9 -2 29 -11 25 -16 -7 28 -18 -17 -3
right_child=1 7 3 4 15 23 11 13 -10 16 17 -13 -14 14 24 26 27 18 -20 -21 -22 -23 -24 -25 -26 -27 -28 -29 -30 -31
leaf_value=0.0010248340575984031 -0.008410779926567696 0.00033921537546521173 -0.0087440792564302677 0.00031483957105992003 0.010886557241280874 0.0074719636711691106 0.017444798350334169 0.0061606401667512701 -0.014254951136017388 -0.007695022386017031 -0.0031305330543016847 0.0093374253890330071 -0.0093746509449556467 -0.0049389509401683296 -0.0040747458826038332 0.0055001782562773107 -0.0010438400259533641 0.0014078491459792806 0.007463051327612511 -3.6919298855697408e-05 -0.00091376302556859124 -0.0049973452508706474 -0.0021278304523347238 -0.00079897886374965307 0.0014223298780797495 0.0027870698761858648 0.0088921417610254138 -0.0050377685653178817 0.00030322953939754911 -0.0039594203710504291
leaf_weight=31 50 207 30 39 43 68 41 56 53 143 42 112 30 68 32 57 100 187 41 66 34 56 36 30 124 85 30 82 45 43
leaf_count=31 50 207 30 39 43 68 41 56 53 143 42 112 30 68 32 57 100 187 41 66 34 56 36 30 124 85 30 82 45 43
internal_value=0.000124088 -0.00288883 0.00392544 0.00182338 0.00247166 0.00701452 0.0099377 -0.00204301 -0.00902359 -0.003174 0.000475574 0.0117071 -0.00404339 0.000142966 -0.0013498 0.0062893 -0.00475559 0.00165166 0.00255215 0.00286134 -0.00546809 -0.00128936 -0.00661125 0.0039997 0.000257419 0.00493879 0.00465157 -0.0028785 0.00325733 -0.000425706
internal_weight=2061 1150 911 544 514 367 184 1013 137 667 339 153 69 346 224 175 361 270 228 122 84 306 179 183 156 153 132 182 102 250
internal_count=2061 1150 911 544 514 367 184 1013 137 667 339 153 69 346 224 175 361 270 228 122 84 306 179 183 156 153 132 182 102 250
is_linear=0
shrinkage=0.02


Tree=23
num_leaves=31
num_cat=0
split_feature=391 392 40 387 155 288 391 59 164 75 266 306 297 326 255 392 312 152 8 206 255 52 27 341 326 0 124 341 351 216
split_gain=56.261 21.157 16.4066 8.85328 8.83359 6.20098 5.36289 4.76437 4.73033 4.67297 4.30855 3.99802 3.86695 3.22026 3.47543 3.11531 3.09784 2.83445 2.78964 2.75707 2.58182 2.56428 2.51726 2.34267 2.37384 2.29604 2.25599 2.24336 2.12753 1.90778
threshold=0.24726837873458865 -0.13314434885978696 0.056291423738002784 -0.96325200796127308 -0.076446939259767518 2.8734716176986699 -0.67864093184471119 -0.00074911621049977828 0.22984872013330462 -0.089073285460472093 -0.34710091352462763 0.25847865641117101 -1.5845440030097959 5.1722431182861337 0.81965547800064098 -0.77263364195823658 -2.8922882080078121 -0.026771362870931622 -0.050144063308835023 -0.47092352807521815 -0.19384453445672986 -0.0025609935401007529 -0.044249717146158211 -0.71695098280906666 0.97994241118431102 -0.0098473341204226 0.010116119869053366 -0.23748165369033811 -2.4039032459259029 0.35334081947803503
decision_type=2 2 2 2 2 2 2 2 2 2 2 2 2 2 2 2 2 2 2 2 2 2 2 2 2 2 2 2 2 2
left_child=1 5 3 8 22 11 7 18 10 -4 -2 16 -8 14 26 25 -1 -9 -6 -11 23 -22 -3 -14 -25 -5 -7 -18 -17 -12
right_child=2 4 9 15 6 13 12 17 -10 19 29 -13 20 -15 -16 28 27 -19 -20 -21 21 -23 -24 24 -26 -27 -28 -29 -30 -31
leaf_value=0.00096164024489476 0.0016480701618200664 -0.0067961315391585229 -0.0073066448157324514 0.010876697419267712 -0.005584620592381918 -0.009206636170546215 0.0019351225111045338 -0.0066516864799440988 0.013627970388739323 -0.0044382349675652225 0.003777096484388624 -0.00096535990023985515 -0.007542886656188106 0.0018404127464726053 0.00098614506510108025 0.0029472071103631486 0.0029153903245049363 -0.0027312402366582488 -0.014425258176667351 0.0021047129556956822 0.0045670064177829777 -0.0032156489437652957 -0.015636451786214655 -0.0051103467695875881 -0.00064679662476188127 0.0032489191944635397 -0.0028005439698696138 0.0081247097549557272 -0.002743249869090505 0.0093855079274946535
leaf_weight=92 47 30 32 31 31 43 74 131 59 30 33 98 57 56 41 153 66 177 33 131 30 34 31 95 95 35 48 72 30 160
leaf_count=92 47 30 32 31 31 43 74 131 59 30 33 98 57 56 41 153 66 177 33 131 30 34 31 95 95 35 48 72 30 160
internal_value=3.28716e-05 -0.00242073 0.00444463 0.00620525 -0.00441737 0.000749335 -0.00380602 -0.00551536 0.00852064 -0.000566783 0.00716284 0.00240404 -0.00213443 -0.00213251 -0.00382031 0.00337918 0.00383564 -0.00443086 -0.0104421 0.000846033 -0.00310892 0.000460316 -0.0116425 -0.00403001 -0.00290856 0.00704619 -0.00596049 0.00571054 0.00199477 0.00847513
internal_weight=2075 1334 741 548 818 516 757 372 299 193 240 328 385 188 132 249 230 308 64 161 311 64 61 247 190 66 91 138 183 193
internal_count=2075 1334 741 548 818 516 757 372 299 193 240 328 385 188 132 249 230 308 64 161 311 64 61 247 190 66 91 138 183 193
is_linear=0
shrinkage=0.02


Tree=24
num_leaves=31
num_cat=0
split_feature=387 37 101 387 296 335 361 271 394 197 45 200 189 327 332 335 255 255 185 216 364 385 247 280 110 202 304 236 279 334
split_gain=52.8936 19.0661 15.9014 17.0981 8.23734 7.43542 5.76107 5.2009 4.93857 4.91262 4.76016 4.55476 4.03101 4.4482 3.82692 3.53544 2.9188 2.68594 2.64333 2.5867 2.52487 2.43716 2.3109 3.09318 1.983 1.97295 1.91372 1.90495 1.84872 1.7651
threshold=1.0000000180025095e-35 0.15820317715406421 -0.089990638196468339 -0.96325200796127308 -1.1066545248031614 -0.079616833478212343 -1.1895192861557005 -0.090274196118116365 1.0000000180025095e-35 0.25364804267883306 -0.22918377071619031 0.69789451360702526 -0.0064882992301136247 -3.0052412748336788 -0.89604997634887684 1.1267186999320986 -1.556523263454437 -0.43158918619155878 0.21202735602855685 -0.82263600826263417 0.27218313515186315 0.18700651079416278 -0.2389099299907684 0.15596939623355868 0.0012083324254490437 0.17267058789730075 -0.63560479879379261 0.83707511425018322 -0.72726318240165699 0.35917928814888006
decision_type=2 2 2 2 2 2 2 2 2 2 2 2 2 2 2 2 2 2 2 2 2 2 2 2 2 2 2 2 2 2
left_child=2 4 -1 5 8 10 -3 17 16 28 -4 14 13 -5 29 -11 -2 27 22 -15 -19 -12 23 -14 -13 -21 -10 -6 -7 -9
right_child=1 6 3 12 7 9 -8 11 26 15 21 24 18 19 -16 -17 -18 20 -20 25 -22 -23 -24 -25 -26 -27 -28 -29 -30 -31
leaf_value=-0.0084568203362591927 -0.0061299619204256426 -0.016185447745956479 0.0070998353256803495 -0.0020959311418044259 -0.0016111895127456314 0.0041169908717274672 -0.0063060838114797025 0.00068699721945449706 0.0075247111512081969 0.0043678028020076457 0.0090390904261065386 0.0012757430443505072 0.00062635601131301943 0.0088359745920946198 -0.0084273754418568887 -0.0050343419238924984 1.5119879951401215e-05 0.0026700318703541948 0.0030056660998305051 0.0055579021675786116 -0.0025692825259688167 0.016612011030889474 0.00054517935115524065 -0.0080115615331700883 -0.0033804565462757087 -8.0785573255725028e-05 0.0021039337830051135 -0.0060628926026511862 0.010169789862065088 -0.0048729440942406653
leaf_weight=40 41 46 113 37 149 48 55 30 33 30 40 51 31 58 142 30 110 96 107 66 57 50 151 33 120 39 113 51 40 88
leaf_count=40 41 46 113 37 149 48 55 30 33 30 40 51 31 58 142 30 110 96 107 66 57 50 151 33 120 39 113 51 40 88
internal_value=-1.5092e-05 -0.00280608 0.00359645 0.00416678 -0.00201851 0.00756827 -0.0110325 -0.00309093 0.000814122 0.00407768 0.0100485 -0.00456103 0.00185942 0.00407447 -0.00622184 -0.00034402 -0.00171173 -0.00128042 0.00046696 0.00548354 0.000710164 0.0135159 -0.000812546 -0.00393538 -0.00199307 0.00350117 0.00341431 -0.00279516 0.00703312 -0.00347151
internal_weight=2095 1182 913 873 1081 351 101 784 297 148 203 431 522 200 260 60 151 353 322 163 153 90 215 64 171 105 146 200 88 118
internal_count=2095 1182 913 873 1081 351 101 784 297 148 203 431 522 200 260 60 151 353 322 163 153 90 215 64 171 105 146 200 88 118
is_linear=0
shrinkage=0.02


Tree=25
num_leaves=31
num_cat=0
split_feature=392 391 378 87 185 150 86 122 389 150 29 105 87 391 196 316 391 378 126 135 189 217 364 67 378 202 326 201 354 164
split_gain=53.6184 19.8275 15.3923 10.7848 6.96664 6.24912 6.15305 5.3116 4.85811 4.59201 4.40637 3.81183 3.80142 3.56613 3.32814 3.31434 3.22391 3.014 2.9521 2.77373 2.67403 3.48681 2.66705 2.88371 2.22954 2.16825 2.15163 1.97685 1.94831 1.93963
threshold=-0.13314434885978696 0.50274193286895763 2.9643324613571171 -0.063500452786684022 0.2082670405507088 -0.17997160553932187 -0.069976754486560808 0.052774198353290565 -1.618512690067291 -0.25345069169998163 1.1987045407295229 0.3417056947946549 -0.051955061033368104 -0.45116271078586573 -1.0481552481651304 0.47226700186729437 0.28302575647830969 6.3538184165954599 -0.047298455610871308 -0.037984378635883324 -0.0056772599928081027 0.67561346292495739 0.19946785271167758 0.00079862988786771904 7.7532227039337167 0.7387538254261018 3.854325652122498 -0.050949949771165841 -0.50151088833808888 0.094814427196979537
decision_type=2 2 2 2 2 2 2 2 2 2 2 2 2 2 2 2 2 2 2 2 2 2 2 2 2 2 2 2 2 2
left_child=1 4 6 15 10 17 12 24 -7 -8 11 25 -2 26 19 -3 20 -4 -14 -10 22 -22 23 -11 -5 -1 -6 -24 -9 -21
right_child=2 3 5 7 13 8 9 28 14 16 -12 -13 18 -15 -16 -17 -18 -19 -20 29 21 -23 27 -25 -26 -27 -28 -29 -30 -31
leaf_value=0.0012639574828376843 -0.0029076120663772929 0.016385390500503558 0.00082400021500477231 0.0057615119324166434 -0.0021575596471513181 -0.0092800319299567498 -0.010394575602786487 -0.0029055436136144579 0.0010130077430271897 0.0042886975991564833 0.0062788425150670504 -0.0061981100660372292 -0.0072745918410901849 0.0072287082175076338 0.00081924331115206352 0.0072650637105107305 0.0026190707359858086 0.0074228524740623395 -0.014751433876156808 -0.0051379834000759086 -0.010825961392786767 -0.003619807722506585 -0.00859571136844655 -0.0027256121765822173 0.011175056784981634 -0.0018980711260735389 0.0044613554819328029 -0.0027111575619815148 0.0031181885197433842 0.00031570017803460358
