tree
version=v4
num_class=1
num_tree_per_iteration=1
label_index=0
max_feature_idx=399
objective=regression
feature_names=Column_0 Column_1 Column_2 Column_3 Column_4 Column_5 Column_6 Column_7 Column_8 Column_9 Column_10 Column_11 Column_12 Column_13 Column_14 Column_15 Column_16 Column_17 Column_18 Column_19 Column_20 Column_21 Column_22 Column_23 Column_24 Column_25 Column_26 Column_27 Column_28 Column_29 Column_30 Column_31 Column_32 Column_33 Column_34 Column_35 Column_36 Column_37 Column_38 Column_39 Column_40 Column_41 Column_42 Column_43 Column_44 Column_45 Column_46 Column_47 Column_48 Column_49 Column_50 Column_51 Column_52 Column_53 Column_54 Column_55 Column_56 Column_57 Column_58 Column_59 Column_60 Column_61 Column_62 Column_63 Column_64 Column_65 Column_66 Column_67 Column_68 Column_69 Column_70 Column_71 Column_72 Column_73 Column_74 Column_75 Column_76 Column_77 Column_78 Column_79 Column_80 Column_81 Column_82 Column_83 Column_84 Column_85 Column_86 Column_87 Column_88 Column_89 Column_90 Column_91 Column_92 Column_93 Column_94 Column_95 Column_96 Column_97 Column_98 Column_99 Column_100 Column_101 Column_102 Column_103 Column_104 Column_105 Column_106 Column_107 Column_108 Column_109 Column_110 Column_111 Column_112 Column_113 Column_114 Column_115 Column_116 Column_117 Column_118 Column_119 Column_120 Column_121 Column_122 Column_123 Column_124 Column_125 Column_126 Column_127 Column_128 Column_129 Column_130 Column_131 Column_132 Column_133 Column_134 Column_135 Column_136 Column_137 Column_138 Column_139 Column_140 Column_141 Column_142 Column_143 Column_144 Column_145 Column_146 Column_147 Column_148 Column_149 Column_150 Column_151 Column_152 Column_153 Column_154 Column_155 Column_156 Column_157 Column_158 Column_159 Column_160 Column_161 Column_162 Column_163 Column_164 Column_165 Column_166 Column_167 Column_168 Column_169 Column_170 Column_171 Column_172 Column_173 Column_174 Column_175 Column_176 Column_177 Column_178 Column_179 Column_180 Column_181 Column_182 Column_183 Column_184 Column_185 Column_186 Column_187 Column_188 Column_189 Column_190 Column_191 Column_192 Column_193 Column_194 Column_195 Column_196 Column_197 Column_198 Column_199 Column_200 Column_201 Column_202 Column_203 Column_204 Column_205 Column_206 Column_207 Column_208 Column_209 Column_210 Column_211 Column_212 Column_213 Column_214 Column_215 Column_216 Column_217 Column_218 Column_219 Column_220 Column_221 Column_222 Column_223 Column_224 Column_225 Column_226 Column_227 Column_228 Column_229 Column_230 Column_231 Column_232 Column_233 Column_234 Column_235 Column_236 Column_237 Column_238 Column_239 Column_240 Column_241 Column_242 Column_243 Column_244 Column_245 Column_246 Column_247 Column_248 Column_249 Column_250 Column_251 Column_252 Column_253 Column_254 Column_255 Column_256 Column_257 Column_258 Column_259 Column_260 Column_261 Column_262 Column_263 Column_264 Column_265 Column_266 Column_267 Column_268 Column_269 Column_270 Column_271 Column_272 Column_273 Column_274 Column_275 Column_276 Column_277 Column_278 Column_279 Column_280 Column_281 Column_282 Column_283 Column_284 Column_285 Column_286 Column_287 Column_288 Column_289 Column_290 Column_291 Column_292 Column_293 Column_294 Column_295 Column_296 Column_297 Column_298 Column_299 Column_300 Column_301 Column_302 Column_303 Column_304 Column_305 Column_306 Column_307 Column_308 Column_309 Column_310 Column_311 Column_312 Column_313 Column_314 Column_315 Column_316 Column_317 Column_318 Column_319 Column_320 Column_321 Column_322 Column_323 Column_324 Column_325 Column_326 Column_327 Column_328 Column_329 Column_330 Column_331 Column_332 Column_333 Column_334 Column_335 Column_336 Column_337 Column_338 Column_339 Column_340 Column_341 Column_342 Column_343 Column_344 Column_345 Column_346 Column_347 Column_348 Column_349 Column_350 Column_351 Column_352 Column_353 Column_354 Column_355 Column_356 Column_357 Column_358 Column_359 Column_360 Column_361 Column_362 Column_363 Column_364 Column_365 Column_366 Column_367 Column_368 Column_369 Column_370 Column_371 Column_372 Column_373 Column_374 Column_375 Column_376 Column_377 Column_378 Column_379 Column_380 Column_381 Column_382 Column_383 Column_384 Column_385 Column_386 Column_387 Column_388 Column_389 Column_390 Column_391 Column_392 Column_393 Column_394 Column_395 Column_396 Column_397 Column_398 Column_399
feature_infos=[-0.50033402442932129:0.24137580394744873] [-0.001411616220138967:0.00053566263522952795] [-0.91990894079208374:0.71758723258972168] [-0.65738582611083984:0.59379422664642334] [-0.73673593997955322:0.82686382532119751] [-0.6674150824546814:0.44260716438293457] [-0.70168864727020264:0.38449501991271973] [-1.2855398654937744:1.5369099378585815] [-0.32962074875831604:0.3306785523891449] [-0.64878344535827637:0.84059607982635498] [-0.56806451082229614:0.25068196654319763] [-0.2810232937335968:0.20514670014381409] [-1.3916876316070557:0.91040509939193726] [-0.20374663174152374:0.20944629609584808] [-1.3527110815048218:1.8774594068527222] [-0.3758125901222229:0.57839810848236084] [-0.017211288213729858:0.024977479130029678] [-1.2117894887924194:1.636847972869873] [-0.58873176574707031:0.34162098169326782] [-0.37310138344764709:0.23770323395729065] [-0.73900693655014038:0.33154961466789246] [-0.0021387629676610231:0.0009734964114613831] [-1.0818426609039307:1.7326713800430298] [-0.20173455774784088:0.30295011401176453] [-0.52525341510772705:0.28392285108566284] [-1.3704088926315308:0.84801030158996582] [-1.5458203554153442:1.6113755702972412] [-0.09886777400970459:0.19480440020561218] [-0.89595645666122437:0.58900207281112671] [-1.8797316551208496:1.873117208480835] [-1.5711159706115723:1.7543220520019531] [-0.63515079021453857:1.0592184066772461] [-0.92979204654693604:0.98911184072494507] [-0.29058846831321716:0.21271646022796631] [-1.6695655584335327:1.654297947883606] [-1.2028799057006836:0.9811859130859375] [-0.39903023838996887:0.35331246256828308] [-0.51373815536499023:0.32482299208641052] [-1.3191177845001221:0.53800547122955322] [-1.193200945854187:1.1665959358215332] [-0.59161496162414551:0.30017361044883728] [-2.1998181343078613:1.6662023067474365] [-1.1601676940917969:0.63746345043182373] [-1.1744898557662964:1.4663455486297607] [-0.29986509680747986:0.52321708202362061] [-0.91142129898071289:2.4763059616088867] [-0.14342391490936279:0.16108185052871704] [-0.0080200331285595894:0.0089721735566854477] [-0.80060082674026489:1.2491333484649658] [-0.32871297001838684:0.60938483476638794] [-0.52135950326919556:0.40891140699386597] [-1.4109920263290405:0.71028667688369751] [-0.12766876816749573:0.16218271851539612] [-0.33691602945327759:1.0285764932632446] [-0.4934055507183075:0.16401110589504242] [-1.6801800727844238:1.1557914018630981] [-0.46991392970085144:0.25758981704711914] [-0.079174429178237915:0.092071190476417542] [-0.73054003715515137:0.4557499885559082] [-0.0057755145244300365:0.0042045572772622108] [-0.46197769045829773:0.1748654693365097] [-0.0016637046355754137:0.0020180228166282177] [-2.2916204929351807:1.9168336391448975] [-0.51961100101470947:0.62866759300231934] [-0.27407738566398621:0.35300186276435852] [-0.22521777451038361:0.21376298367977142] [-0.18763191998004913:0.12455915659666061] [-0.76994627714157104:0.35298812389373779] [-0.87220990657806396:0.55882066488265991] [-0.78854137659072876:0.74447846412658691] [-0.16334627568721771:0.33809027075767517] [-0.72446745634078979:0.54112917184829712] [-0.0055510387755930424:0.014816546812653542] [-1.4129699468612671:1.280428409576416] [-0.23291392624378204:0.56139743328094482] [-0.18043495714664459:0.35402458906173706] [-0.10865838825702667:0.096834205090999603] [-0.60929363965988159:0.55096638202667236] [-0.69163113832473755:0.63877314329147339] [-0.0027749240398406982:0.0042303274385631084] [-0.30116215348243713:0.074042238295078278] [-0.19535279273986816:0.40839728713035583] [-0.28350892663002014:0.44640845060348511] [-0.010526490397751331:0.013387284241616726] [-0.085606127977371216:0.097062043845653534] [-1.1540817022323608:1.5917301177978516] [-0.25339549779891968:0.47400188446044922] [-0.55017882585525513:0.22187675535678864] [-1.4082646369934082:1.1104276180267334] [-0.51252609491348267:0.16607329249382019] [-0.093857400119304657:0.087910838425159454] [-0.86524116992950439:0.42083841562271118] [-0.0086988406255841255:0.0075992890633642673] [-0.36354073882102966:0.41866391897201538] [-1.0528234243392944:0.89617681503295898] [-0.5296856164932251:0.98472636938095093] [-0.5047338604927063:0.85732758045196533] [-0.35321277379989624:0.17623597383499146] [-0.55878651142120361:0.86040186882019043] [-0.0039886822924017906:0.005394473671913147] [-0.64181828498840332:1.577134370803833] [-0.17027932405471802:0.42902782559394836] [-1.2521090507507324:0.81146436929702759] [-0.40094015002250671:0.19430622458457947] [-0.24381420016288757:0.9899522066116333] [-1.0539642572402954:1.9150174856185913] [-0.16480815410614014:0.3302176296710968] [-0.96117854118347168:0.8850942850112915] [-1.0200543403625488:1.524450421333313] [-0.17574517428874969:0.57926535606384277] [-0.11960471421480179:0.0823068767786026] [-0.17576654255390167:0.22551752626895905] [-1.427875280380249:1.4091099500656128] [-0.63524729013442993:0.38641580939292908] [-1.0780202150344849:1.2212806940078735] [-1.6482484340667725:0.83843553066253662] [-0.39997407793998718:0.87797790765762329] [-0.83119446039199829:0.84673655033111572] [-0.78246438503265381:0.38213738799095154] [-0.33495524525642395:0.20701576769351959] [-0.33785673975944519:0.32687106728553772] [-0.0046652676537632942:0.0095644537359476089] [-1.1121309995651245:1.5440267324447632] [-0.097164027392864227:0.23876757919788361] [-0.45968112349510193:0.32306653261184692] [-0.9604344367980957:1.4062981605529785] [-0.27004453539848328:0.38190257549285889] [-1.0699465274810791:0.37523895502090454] [-1.4986264705657959:1.1267967224121094] [-0.23198315501213074:0.56740093231201172] [-0.4292265772819519:0.96877485513687134] [-0.12510603666305542:0.24315844476222992] [-0.69213992357254028:0.37967348098754883] [-0.96781229972839355:0.93632209300994873] [-0.41287079453468323:0.69527363777160645] [-0.43512329459190369:0.36608979105949402] [-0.53922849893569946:0.25655484199523926] [-1.3910330533981323:1.2009403705596924] [-0.013281894847750664:0.0090470928698778152] [-0.51957082748413086:1.0188544988632202] [-1.5802158117294312:2.3385627269744873] [-0.37785604596138:0.77389997243881226] [-0.33737024664878845:0.82793062925338745] [-1.4486156702041626:1.1391491889953613] [-0.73777782917022705:0.77489960193634033] [-0.5067751407623291:0.66820311546325684] [-0.43967470526695251:0.21343556046485901] [-0.83453339338302612:1.1112868785858154] [-0.14593915641307831:0.077302441000938416] [-0.45561704039573669:0.20762179791927338] [-0.90689229965209961:0.95961815118789673] [-2.5478408336639404:1.0240453481674194] [-0.268074631690979:0.65112364292144775] [-0.080085337162017822:0.20243635773658752] [-0.6947367787361145:0.22526459395885468] [-0.17103418707847595:0.14136034250259399] [-0.24058189988136292:0.29701292514801025] [-0.69275194406509399:0.80527883768081665] [-1.6765085458755493:2.3232765197753906] [-1.0057775974273682:0.56610369682312012] [-0.20628812909126282:0.17433421313762665] [-0.2562902569770813:0.14432051777839661] [-0.66576993465423584:0.74177944660186768] [-0.11697442084550858:0.089546613395214081] [-0.4663563072681427:1.3178620338439941] [-0.0048642382025718689:0.0040498138405382633] [-0.0067740329541265965:0.011993583291769028] [-2.0325601100921631:2.9857606887817383] [-0.74767857789993286:1.5442444086074829] [-1.0120341777801514:0.98108422756195068] [-0.070733189582824707:0.086013719439506531] [-0.0064458460547029972:0.016337303444743156] [-0.0046996292658150196:0.0042580808512866497] [-0.63616228103637695:0.86758506298065186] [-0.099683359265327454:0.11442553251981735] [-0.6462472677230835:0.86423677206039429] [-0.084917686879634857:0.24555328488349915] [-0.43595808744430542:0.40180495381355286] [-0.15773412585258484:0.27118667960166931] [-0.55719029903411865:1.0114378929138184] [-0.50502693653106689:0.97417223453521729] [-1.2331678867340088:0.96167284250259399] [-0.53702211380004883:0.2707902193069458] [-0.16404341161251068:0.62960994243621826] [-0.30012208223342896:0.28269341588020325] [-0.85866224765777588:0.9409448504447937] [-0.081549994647502899:0.23075039684772491] [-0.75531101226806641:0.27494242787361145] [-2.26454758644104:2.3048708438873291] [-0.13170686364173889:0.13543856143951416] [-0.93505287170410156:2.0122520923614502] [-0.41771510243415833:0.22985786199569702] [-15.515321731567383:10.092750549316406] [-13.831997871398926:6.9843192100524902] [-6.1891326904296875:5.2353396415710449] [-9.8225069046020508:16.864179611206055] [-11.179492950439453:4.8854408264160156] [-7.3069515228271484:5.3694109916687012] [-12.708105087280273:4.5247220993041992] [-5.909123420715332:10.587883949279785] [-13.501084327697754:7.929257869720459] [-9.3148384094238281:4.4197592735290527] [-4.3275818824768066:8.8177814483642578] [-4.9732217788696289:12.574857711791992] [-6.2982325553894043:8.711176872253418] [-10.08254337310791:5.6663913726806641] [-5.9151167869567871:7.6257061958312988] [-6.0552153587341309:5.2026205062866211] [-8.1460857391357422:7.4535355567932129] [-5.0742826461791992:10.522428512573242] [-20.594194412231445:5.0396919250488281] [-20.690710067749023:6.0276923179626465] [-8.1962366104125977:10.188116073608398] [-11.320677757263184:4.8191633224487305] [-7.1454505920410156:10.628998756408691] [-7.4972400665283203:7.4004983901977539] [-19.173526763916016:5.4961376190185547] [-5.3702840805053711:10.000677108764648] [-13.705101013183594:5.059971809387207] [-4.9788246154785156:29.399631500244141] [-9.3272066116333008:4.6346278190612793] [-6.8427028656005859:11.160350799560547] [-36.289436340332031:3.6168656349182129] [-4.4584875106811523:13.392551422119141] [-47.906326293945312:8.7200450897216797] [-4.9816622734069824:16.473285675048828] [-4.5472235679626465:9.5350027084350586] [-6.4800567626953125:20.614627838134766] [-8.6754484176635742:10.242594718933105] [-17.716440200805664:4.7646055221557617] [-7.8033871650695801:5.9558572769165039] [-5.0413050651550293:6.3199224472045898] [-7.902824878692627:11.579679489135742] [-6.4568233489990234:5.6043987274169922] [-9.6084489822387695:6.5018467903137207] [-10.764856338500977:5.5129795074462891] [-4.1206960678100586:6.9710307121276855] [-9.6032819747924805:10.886466979980469] [-3.4176721572875977:6.5911741256713867] [-9.0328044891357422:11.840387344360352] [-9.7545194625854492:7.4321932792663574] [-6.2243428230285645:5.9026036262512207] [-9.1523857116699219:10.123329162597656] [-7.5324263572692871:7.0869693756103516] [-4.8592953681945801:6.1303243637084961] [-10.082990646362305:5.6860485076904297] [-7.6512341499328613:14.123392105102539] [-9.8221244812011719:5.5666580200195312] [-7.0001497268676758:8.5371360778808594] [-9.617060661315918:12.036239624023438] [-7.7554688453674316:6.7414007186889648] [-5.3211512565612793:6.7817964553833008] [-9.7099246978759766:8.9875049591064453] [-7.2973790168762207:4.757901668548584] [-3.5817849636077881:20.040775299072266] [-10.77650260925293:8.1212530136108398] [-10.224296569824219:5.1722164154052734] [-15.84541130065918:9.2051143646240234] [-25.678598403930664:2.4849755764007568] [-4.9449868202209473:10.399679183959961] [-13.244409561157227:6.0677118301391602] [-4.6344780921936035:18.946739196777344] [-4.7036452293395996:8.5661115646362305] [-4.6178736686706543:6.7961688041687012] [-4.7778644561767578:7.544008731842041] [-7.4616012573242188:9.5996417999267578] [-7.1405467987060547:8.4303684234619141] [-9.1444530487060547:8.3422250747680664] [-11.456241607666016:9.9352512359619141] [-8.3405828475952148:9.2396612167358398] [-4.4571719169616699:9.3667764663696289] [-7.8035225868225098:6.3612446784973145] [-6.7119207382202148:18.521440505981445] [-5.7551960945129395:6.0751433372497559] [-10.948863983154297:5.1130800247192383] [-6.9787425994873047:6.1278109550476074] [-8.5500888824462891:8.6555204391479492] [-9.1625032424926758:6.621035099029541] [-11.342724800109863:5.3368229866027832] [-8.7074899673461914:12.601672172546387] [-6.3352065086364746:12.887286186218262] [-7.0165853500366211:4.1408815383911133] [-16.006858825683594:5.3787994384765625] [-7.7974367141723633:10.441933631896973] [-7.1598753929138184:7.3981256484985352] [-4.0855298042297363:8.7690601348876953] [-8.5432472229003906:12.785155296325684] [-13.363217353820801:4.548403263092041] [-4.7717657089233398:12.542960166931152] [-9.0879449844360352:13.180130958557129] [-9.0514745712280273:6.6269588470458984] [-9.4096384048461914:10.88604736328125] [-4.0751333236694336:7.8039255142211914] [-12.200931549072266:2.2329995632171631] [-7.5285439491271973:13.685563087463379] [-5.4567852020263672:5.6287646293640137] [-7.1568117141723633:11.144075393676758] [-13.726614952087402:5.5281109809875488] [-5.0538902282714844:9.0590009689331055] [-18.287134170532227:5.2082381248474121] [-7.6109991073608398:5.8371233940124512] [-6.5933175086975098:17.759078979492188] [-15.815260887145996:7.4392571449279785] [-8.5928316116333008:9.2139892578125] [-5.9843149185180664:7.1680612564086914] [-7.3089275360107422:26.169887542724609] [-5.9434013366699219:10.760785102844238] [-7.8816933631896973:4.4844989776611328] [-9.6956491470336914:5.4135136604309082] [-8.0131359100341797:8.4360437393188477] [-16.187658309936523:5.0061526298522949] [-15.140521049499512:8.0801916122436523] [-8.3405284881591797:11.865907669067383] [-7.1708574295043945:4.5613498687744141] [-16.242454528808594:12.210966110229492] [-7.5757637023925781:10.488158226013184] [-8.0303401947021484:7.2889771461486816] [-12.247947692871094:5.3028683662414551] [-9.2684803009033203:10.442595481872559] [-4.4933056831359863:10.243279457092285] [-6.070650577545166:10.476729393005371] [-6.4254426956176758:9.4200935363769531] [-10.446262359619141:3.2380712032318115] [-4.6337313652038574:5.827277660369873] [-13.784440994262695:5.369870662689209] [-8.6417245864868164:7.5616397857666016] [-8.05987548828125:12.386527061462402] [-7.2710795402526855:2.9918115139007568] [-6.0901594161987305:10.336491584777832] [-13.403483390808105:17.458358764648438] [-13.571417808532715:5.5995826721191406] [-4.6176786422729492:9.4110326766967773] [-13.200108528137207:6.64697265625] [-6.6744661331176758:9.3753137588500977] [-5.0461578369140625:10.829957962036133] [-4.8512120246887207:13.87743091583252] [-44.030719757080078:4.4987030029296875] [-6.326451301574707:5.7723946571350098] [-5.9246973991394043:6.3701620101928711] [-9.8568973541259766:5.4994258880615234] [-17.501384735107422:20.794748306274414] [-5.2286109924316406:6.3280344009399414] [-7.4078774452209473:8.8780221939086914] [-13.978215217590332:4.7634601593017578] [-9.3129262924194336:7.9059891700744629] [-7.5745258331298828:5.7996082305908203] [-7.1797246932983398:10.248425483703613] [-9.8801908493041992:9.1578855514526367] [-6.3372859954833984:5.6731157302856445] [-10.678892135620117:4.5837993621826172] [-6.0354351997375488:7.3000988960266113] [-7.9444413185119629:9.8818931579589844] [-5.0810408592224121:23.338205337524414] [-5.3393893241882324:8.38885498046875] [-2.9432485103607178:12.85456371307373] [-19.450004577636719:5.8461923599243164] [-39.533370971679688:3.5308668613433838] [-16.016410827636719:6.2776813507080078] [-6.2149577140808105:12.500720024108887] [-3.5439722537994385:10.301626205444336] [-16.692815780639648:4.1213173866271973] [-7.79388427734375:4.6943674087524414] [-7.2691197395324707:12.132421493530273] [-6.1362576484680176:9.9220066070556641] [-9.9522695541381836:8.6897687911987305] [-5.9873051643371582:8.2736663818359375] [-5.8379755020141602:9.9577951431274414] [-4.4542813301086426:30.334083557128906] [-10.666833877563477:10.831033706665039] [-9.3327884674072266:7.8706278800964355] [-3.8437192440032959:5.8296999931335449] [-3.4546313285827637:38.849014282226562] [-6.5500946044921875:7.1768326759338379] [-4.3507299423217773:30.489873886108398] [-2.059884786605835:14.554819107055664] [-21.854988098144531:4.9466190338134766] [-6.5778913497924805:6.4531636238098145] [-7.3260040283203125:5.6515994071960449] [-10.023614883422852:11.531583786010742] [-5.8656845092773438:12.019965171813965] [-15.421759605407715:5.1898846626281738] [-11.797931671142578:5.2667484283447266] [-6.9614620208740234:5.6757116317749023] [-25.084318161010742:4.2350602149963379] [-1.404803991317749:5.2178974151611328] [-1.727409839630127:6.4857063293457031] [-1.3214609622955322:8.2286224365234375] [-1.3350194692611694:6.1003303527832031] [-2.0025291442871094:4.8778266906738281] [-1.8596886396408081:4.8932380676269531] [-0.71775519847869873:5.649162769317627] [-1.3228062391281128:2.3971786499023438] [-4.0184206962585449:5.9613180160522461] [-2.1408414840698242:5.5355358123779297] [-1.9222637414932251:7.6686244010925293] [-0.33559334278106689:14.458232879638672] none [-5.2455234527587891:3.65838623046875] [-3.136660099029541:3.8208508491516113] [-2.7520947456359863:4.6152410507202148]
tree_sizes=2682 2923 2921 2924 2906 2912 2923 2919 2919 2919 2909 2926 2917 2920 2918 2922 2925 2918 2924 2919 2928 2927 2913 2932 2917 2924 2942 2920 2923 2933 2928 2922 2932 2924 2938 2952 2926 2926 2928 2928 2946 2924 2937 2937 2946 2936 2934 2934 2940 2941 2955 2951 2944 2930 2932 2943 2941 2957 2954 2956 2933 2947 2952 2942 2939 2937 2954 2952 2968 2948 2946 2951 2943 2938 2954 2953 2925 2953 2964 2946 2947 2967 2953 2956 2967 2955 2943 2959 2964 2963 2960 2970 2959 2964 2970 2967 2961 2959 2970 2955 2964 2958 2969 2964 2960 2964 2943 2968 2974 2971 2962 2947 2962 2958 2967 2960 2973 2963 2942 2975 2973 2968 2977 2987 2967 2949 2979 2959 2971 2969 2974 2966 2969 2959 2977 2983 2968 2952 2977 2967 2976 2968 2976 2977 2968 2983 2984 2974 2979 2971 2976 2991 2975 2978 2954 2963 2980 2969 2974 2963 2994 2978 2980 2971 2970 2962 2952 2978 2984 2959 2976 2980 2986 2982 2986 2977 2978 2970 2975 2982 2985 2966 2974 2971 2980 2976 2990 2967 2984 2975 2972 2986 2988 2983 2968 2968 2988 2968 2977 2981 2978 2991 2959 2982 2984 2971 2995 2986 2978 2973 2985 2992 2982 2972 2985 2987 2979 2987 2983 2982 2977 2973 2972 2988 2974 2972 2975 2971 2978 2979 2976 2981 2961 2979 2983 2989 2998 2984 2976 2997 2999 2984 2963 2981 2967 2986 3005 2986 2972 2983 2995 3014 2975 2993 2991 2994 2984 2974 3007 2996 2992 2982 2982 2999 2996 2996 2992 2975 3005 3003 3016 2997 2995 2982 2998 3000 3009 2983 2982 3004 3003 2986 3002 2992 2998 2990 3000 2985 2982 2997 3025 3012 3007 2985 2999 3004 3002 2993 2994 3010 2997 2993 2989 2989 2995 2996 2995 3019 3013 3027 3001 3012 2998 3006 3000 3001 3022 2999 3010 3009 3001 3002 3015 3005 3002 2995 3008 2992 3003 3024 3019 3005 3002 3010 3028 3022 3006 3003 3019 3003 3014 2997 3018 3007 3009 3012 3015 3004 3017 3023 3003 3041 3003 3018 3002 3033 3011 3010 2998 3016 3009 3020 3030 3029 2994 3014 3010 3017 3018 3004 3025 3006 3020 2991 3008 3035 3011 3014 3004 3044 3012 3037 3011 3028 3022 3025 3016 3003 3010 3018 3008 3012 3007 3034 3017 3031 3025 3002 3020 2992 3017 3017 3016 3010 3018 3032 3020 3017 3020 3029 3038 3021 3034 3011 3003 3021 3015 3011 3036 3035 3031 3010 3022 3019 3029 3004 3032 3028 3021 3025 3030 3018 3023 3033 3025 3033 3032 3041 3038 3031 3027 3031 3005 3013 3018 3018 3012 3011 3028 3016 3015 3036 3021 3035 3026 3022 3013 3017 3011 3028 3040 3017 3019 3029 3025 3015 3026 3025 3027 3037 3050 3040 3044 3051 3030 3014 3024 3014 3010 3007 3035 3023 3037 3037 3032 3023 3020 3017 3029 3028 3027 3026 3037 3032 3022 3037 3035 3039 3028 3024 3044 3023 3025 3034 3034 3024 3014 3036 3036 3020 3031 3039 3015 3034 3041 3026 3029 3018 3028 3029 3021 3023 3038 3028 3030 3014 3019 3041 3021 3049 3009 3021 3035 3035 3020 3014 3017 3015 3024 3023 3035 3044 3020 3019 3021 3014 3030 3039 3028 3036 3023 3027 3031 3028 3033 3024 3021 3042 3020 3025 3038 3036 3028 3034 3022 3032 3023 3026 3027 3024 3009 3021 3034 3036 3054 3015 3010 3036 3004 3038 3025 3020 3025 3020 3025 3018 3028 3031 3016 3024 3030 3012 3018 3024 3033 3030 3023 3032 3007 3037 3029 3027 3010 3044 3026 3025 3018 3029 3051 3011 3020 3009 3018 3050 3024 3029 3035 3012 3023 3029 3044 3017 3019 3026 3028 3027 3015 3018 3029 3023 3023 3043 3033 3041 3015 3034 3025 3034 3028 3033 3018 3047 3016 3039 3029 3027 3028 3025 3024 3036 3022 3029 3034 3036 3020 3037 3040 3035 3034 3028 3036 3009 3027 3040 3037 3032 3042 3027 3022 3032 3025 3032 3036 3028 3027 3026 3029 3023 3041 3045 3042 3038 3017 3046 3025 3021 3024 3031 3056 3037 3034 3047 3035 3041 3030 3040 3020 3046 3044 3056 3022 3034 3047 3019 3040 3035 3043 3044 3038 3021 3044 3045 3034 3042 3062 3038 3051 3042

Tree=0
num_leaves=31
num_cat=0
split_feature=28 154 391 391 109 340 126 11 156 40 280 330 195 194 325 391 99 200 351 136 343 200 41 343 123 212 141 385 182 195
split_gain=37.6717 26.9067 21.1279 12.2027 6.21985 4.35836 3.68895 3.6153 3.37055 3.26542 3.69198 2.94082 2.55345 2.43663 1.8497 1.77022 1.87259 1.71389 1.68845 1.66528 1.62986 1.56811 1.51397 1.39077 1.27666 1.20612 1.13297 1.13265 1.129 1.24712
threshold=-0.02502814773470163 -0.13835296034812924 0.95846661925315868 -0.62961462140083302 0.031313080340623863 -6.2127797603607169 0.015833417885005478 0.091884672641754164 0.066799517720937743 0.073565244674682631 1.2376683354377749 1.0776225328445437 1.6920112967491152 0.17854277789592746 -2.8704268932342525 -0.31933836638927454 0.0010337567655369642 -0.58432596921920765 -3.2437962293624873 0.037415685132145889 1.5365249514579775 0.97634369134902965 1.0214166641235354 -2.6305115222930904 -0.015499434899538754 -0.61069646477699269 -0.042780948802828782 0.10643375292420389 0.025025943294167522 2.8800696134567265
decision_type=2 2 2 2 2 2 2 2 2 2 2 2 2 2 2 2 2 2 2 2 2 2 2 2 2 2 2 2 2 2
left_child=2 -2 4 7 6 -4 11 14 12 10 28 22 15 27 19 16 -6 -16 20 -3 -7 -8 23 -1 -25 -13 -12 -11 -5 -30
right_child=1 3 5 9 8 18 21 -9 -10 13 26 25 -14 -15 17 -17 -18 -19 -20 -21 -22 -23 -24 24 -26 -27 -28 -29 29 -31
leaf_value=1.0318892090836953 1.0142823618034249 1.0238669951391874 1.0453800620570557 1.0346458211616596 1.0334964932228388 1.042518536936988 1.0294133697168302 1.023814794582858 1.0426642989457715 1.0323749888897342 1.036040816985192 1.0296526936375439 1.0330863060434003 1.0273410664522207 1.0276044193410263 1.0408962831523234 1.0391378243853777 1.0318635378768586 1.0371330239177101 1.0307331431756677 1.0373311621471843 1.033786412148038 1.0387044994864798 1.0346875041352701 1.0373319406864689 1.0338190484588659 1.0319987130795272 1.0355157137809841 1.0401675545510163 1.0356112519858711
leaf_weight=38 33 32 86 37 45 97 71 43 49 181 37 39 52 31 48 57 46 180 65 30 36 61 65 164 130 89 97 60 73 37
leaf_count=38 33 32 86 37 45 97 71 43 49 181 37 39 52 31 48 57 46 180 65 30 36 61 65 164 130 89 97 60 73 37
internal_value=1.03453 1.03149 1.03688 1.03218 1.03538 1.04162 1.03436 1.02916 1.03806 1.034 1.03551 1.03511 1.03686 1.03245 1.03002 1.03818 1.03639 1.03091 1.03989 1.02697 1.04118 1.03139 1.03596 1.0354 1.03587 1.03249 1.03312 1.03316 1.03768 1.03868
internal_weight=2109 919 1190 886 906 284 657 333 249 553 281 525 200 272 290 148 91 228 198 62 133 132 397 332 294 128 134 241 147 110
internal_count=2109 919 1190 886 906 284 657 333 249 553 281 525 200 272 290 148 91 228 198 62 133 132 397 332 294 128 134 241 147 110
is_linear=0
shrinkage=1


Tree=1
num_leaves=31
num_cat=0
split_feature=91 154 391 391 40 333 8 166 391 318 354 391 283 341 165 332 281 289 194 361 232 238 241 241 275 239 186 289 163 164
split_gain=38.8248 23.8681 13.1131 10.7636 4.9081 4.29734 3.96367 3.90619 3.51457 3.19672 2.5367 2.30339 2.24971 2.23081 2.2193 2.05681 2.30287 1.78716 1.78117 1.72285 1.61139 1.59996 1.33672 1.23825 1.22288 1.42105 1.06344 1.06126 1.30141 1.00014
threshold=-0.055911522358655923 -0.12728432565927503 -0.48947629332542414 0.50900454819202434 0.066830001771450057 0.66436538100242626 0.0077505030203610667 -0.00058059068396687497 0.97322851419448864 -2.9711143970489498 0.99578583240509044 -0.5366850197315215 0.28349745273590093 -0.033940328285098069 0.0018579174648039045 -0.65288847684860218 0.39378705620765692 -0.86465460062026966 0.17854277789592746 -0.95631548762321461 1.8183853030204775 0.32505153119564062 0.30101004242897039 -0.38892525434494013 0.53440850973129284 -1.7605333924293516 -0.046861823648214333 -1.6537405252456663 -0.0020555180963128801 0.11312417313456537
decision_type=2 2 2 2 2 2 2 2 2 2 2 2 2 2 2 2 2 2 2 2 2 2 2 2 2 2 2 2 2 2
left_child=3 -2 7 5 8 11 17 10 14 -8 -3 19 -11 -7 27 -12 -17 -5 26 22 -19 -16 -1 -21 25 -9 -6 -4 -29 -27
right_child=1 2 4 6 18 13 9 24 -10 12 15 -13 -14 -15 21 16 -18 20 -20 23 -22 -23 -24 -25 -26 29 -28 28 -30 -31
leaf_value=-0.0013478119330746789 -0.019397853137925268 -0.0032855858537791803 0.00093263700493363623 0.0067036515384398653 -0.0037824995901252403 0.0023018657035886424 0.010962908588349821 -0.0013838567526333711 0.0050743004445287553 0.0073319174041149805 -0.0044943893511663188 0.0014866002332227133 0.00070603971485979852 0.0074584580621882982 -0.00017819599193685196 -0.011043771434575321 -0.0043749382957402206 0.0047993911057710647 -0.0065303287352435294 -0.0022067020092086465 0.00049058932007166648 0.0055607903273586111 -0.0071870005287928505 0.0022688601200934501 0.00079346849344844039 -0.003125105321895881 -0.00072977089931666056 -0.00010470732592227982 -0.0041257673822757265 -0.0077316685789264742
leaf_weight=33 30 108 107 56 59 107 78 108 80 66 74 192 30 49 32 73 34 62 30 49 77 47 30 46 41 59 187 80 52 30
leaf_count=33 30 108 107 56 59 107 78 108 80 66 74 192 30 49 32 73 34 62 30 49 77 47 30 46 41 59 187 80 52 30
internal_value=-5.6295e-05 -0.00234427 -0.00188675 0.00316057 -3.67411e-05 0.00125766 0.00574913 -0.0042437 0.00138198 0.0079443 -0.00580333 2.16094e-05 0.005318 0.00399547 0.000427188 -0.0072533 -0.00904386 0.00372959 -0.0020778 -0.00175496 0.00245332 0.00328914 -0.00426396 -3.74899e-05 -0.00231729 -0.00296618 -0.00148653 -0.000538257 -0.0017267 -0.00481368
internal_weight=2106 1231 1201 875 674 506 369 527 398 174 289 350 96 156 318 181 107 195 276 158 139 79 63 95 238 197 246 239 132 89
internal_count=2106 1231 1201 875 674 506 369 527 398 174 289 350 96 156 318 181 107 195 276 158 139 79 63 95 238 197 246 239 132 89
is_linear=0
shrinkage=0.02


Tree=2
num_leaves=31
num_cat=0
split_feature=91 161 387 372 387 199 150 12 109 385 157 289 238 141 269 195 314 283 86 133 25 43 110 254 328 232 6 72 335 314
split_gain=38.3669 20.2348 10.6699 9.7612 5.79767 5.38136 4.79637 3.53212 2.44285 2.35102 2.33809 2.72821 2.19205 1.9223 1.83174 1.79782 1.7512 1.70137 1.49905 1.45485 1.38224 1.27352 1.25644 1.22934 1.11041 1.0736 1.05133 0.963904 0.8862 0.876061
threshold=-0.055911522358655923 0.089434698224067702 -0.96325200796127308 -0.56445565819740284 1.0000000180025095e-35 -0.17833843082189557 -0.22129630297422406 -0.050049845129251473 0.042349919676780708 0.46119026839733129 0.088295098394155516 -1.7623030543327329 1.2154941558837893 -0.054844561964273446 -1.2153982520103452 1.6349941492080691 -2.6503562927246089 -0.70482689142227162 -0.036981791257858269 -0.13204917311668393 -0.069648750126361833 0.15269433706998828 -0.0011857243953272698 4.2971892356872567 2.4914983510971074 3.5046010017395024 -0.025752205401659008 0.0017758369795046749 -0.036866363137960427 1.5488390922546389
decision_type=2 2 2 2 2 2 2 2 2 2 2 2 2 2 2 2 2 2 2 2 2 2 2 2 2 2 2 2 2 2
left_child=2 3 7 6 10 20 -2 -1 26 -10 15 -12 18 21 -13 24 -9 22 23 29 -4 -6 -15 -8 -5 -17 -7 -22 -18 -19
right_child=1 -3 5 4 13 8 12 16 9 -11 11 14 -14 17 -16 25 28 19 -20 -21 27 -23 -24 -25 -26 -27 -28 -29 -30 -31
leaf_value=0.00081201910700012998 -0.012240661271875177 -0.017568210897255031 0.00085770038333371544 0.0029255775910089999 -0.0032202394438597065 0.0032030249996567979 -0.007380532233044506 0.010429355792823385 0.0019461754023244507 0.0085267070508333008 0.0030816052357355754 -0.0066398153019448123 -1.694849299059974e-05 -0.0014121747736094725 4.8461297992616892e-05 -0.0022731385278430853 0.0073358718057473507 -0.0015256510062941484 -0.0023818500241374269 -0.0011320960331285893 -0.0031918454558853017 0.0011388643313021887 -0.0060711850761435929 -0.0031426830160553045 0.0076432915381155911 0.0020050194182592192 0.00021653842522015036 0.00051978069156492974 0.0041105269640684125 -0.0058136377182717502
leaf_weight=39 32 32 171 66 34 149 98 59 36 59 37 34 43 34 30 31 109 33 66 245 79 103 82 44 30 80 69 42 64 50
leaf_count=39 32 32 171 66 34 149 98 59 36 59 37 34 43 34 30 31 109 33 66 245 79 103 82 44 30 80 69 42 64 50
internal_value=-3.59446e-05 -0.00235135 0.00314452 -0.00190665 -0.000871917 0.00165705 -0.00512817 0.00642879 0.00347021 0.00612458 0.00134072 -0.00113883 -0.0041318 -0.00204546 -0.00359822 0.00254987 0.00735798 -0.00268196 -0.0049742 -0.00192526 -0.000296894 2.62744e-05 -0.00475269 -0.00612928 0.00452576 0.000791133 0.00226832 -0.00191601 0.00620329 -0.00418479
internal_weight=2080 1204 876 1172 889 605 283 271 313 95 308 101 251 581 64 207 232 444 208 328 292 137 116 142 96 111 218 121 173 83
internal_count=2080 1204 876 1172 889 605 283 271 313 95 308 101 251 581 64 207 232 444 208 328 292 137 116 142 96 111 218 121 173 83
is_linear=0
shrinkage=0.02


Tree=3
num_leaves=31
num_cat=0
split_feature=24 125 391 391 333 134 46 392 111 339 234 151 367 242 131 220 200 133 384 341 200 270 167 341 386 314 341 368 82 102
split_gain=32.8705 18.0836 12.9758 12.2447 5.09675 4.40853 4.10648 3.73813 3.55875 2.67357 2.61498 2.43691 2.23288 2.10044 2.00765 1.91223 1.74292 1.68218 1.67794 1.66343 1.54661 1.45386 1.25099 1.14366 1.06162 1.0232 1.02248 0.943176 0.940715 0.918615
threshold=-0.022276544943451878 0.65946781635284435 0.50900454819202434 -0.60852342844009388 0.56778374314308178 -0.09291923418641089 -0.032831722870469086 -1.3827623724937437 0.060947548598051078 1.4291668534278872 1.7547306418418886 -0.77735206484794606 4.3091313838958749 0.3229950368404389 -0.070642109960317598 -0.024435439147055146 1.0361356735229494 -0.24593647569417951 0.23521208763122561 -0.59007990360259999 0.60170328617095958 0.40730978548526769 0.54657521843910228 0.93069154024124157 -0.69862940907478321 0.062500441446900382 -0.50403073430061329 -2.1859266757965083 -0.042435472831130021 1.0000000180025095e-35
decision_type=2 2 2 2 2 2 2 2 2 2 2 2 2 2 2 2 2 2 2 2 2 2 2 2 2 2 2 2 2 2
left_child=2 3 4 8 6 13 -1 -4 11 10 -9 -2 -10 14 -5 23 -13 -7 21 -6 -12 -19 24 -8 -16 -20 -17 -23 -18 -11
right_child=1 -3 7 5 19 17 15 9 12 29 20 16 -14 -15 22 26 28 18 25 -21 -22 27 -24 -25 -26 -27 -28 -29 -30 -31
leaf_value=-0.0063813439073661963 0.0019812615205900687 -0.016710759578272699 0.010456011087766715 -0.0054982410204645841 0.0018575157601652401 0.0037764094006724476 0.00081604059350987273 -0.0012500431636152298 -0.012251952667720617 0.0048020132901590495 0.00084350683528817061 -0.0044970824105370327 -0.0042163780931150545 -0.0063450199591093938 0.0032924674222102536 -0.0041210887869376515 -0.003510949579490857 0.0033945237904733335 0.0019749874155968426 0.0062145695775651776 0.0060358764960420962 0.0021592534974783284 -0.0030533906378384145 0.0044734332166198225 -0.00051140765592988047 -0.0021150673377527815 5.4753430187702181e-05 -0.00065186682061007444 0.00043103234232826667 0.0091056723920080601
leaf_weight=37 31 30 68 36 68 80 148 36 30 40 31 295 30 36 37 40 42 102 30 76 95 77 54 43 117 105 53 119 53 66
leaf_count=37 31 30 68 36 68 80 148 36 30 40 31 295 30 36 37 40 42 102 30 76 95 77 54 43 117 105 53 119 53 66
internal_value=0.000101176 -0.00185678 0.00328534 -0.00148136 0.00111248 4.75516e-05 -0.000294849 0.00626806 -0.00399175 0.00513587 0.00345009 -0.00331212 -0.00849978 -0.00196271 -0.00126981 0.00053719 -0.00374084 0.00114813 0.000647409 0.0042107 0.00479153 0.00148245 -0.000492577 0.00167726 0.000433005 -0.0011906 -0.00179026 0.000463157 -0.0013482 0.00760065
internal_weight=2105 1304 801 1274 465 793 321 336 481 268 162 421 60 280 244 284 390 513 433 144 126 298 208 191 154 135 93 196 95 106
internal_count=2105 1304 801 1274 465 793 321 336 481 268 162 421 60 280 244 284 390 513 433 144 126 298 208 191 154 135 93 196 95 106
is_linear=0
shrinkage=0.02


Tree=4
num_leaves=31
num_cat=0
split_feature=24 161 391 391 291 321 387 318 139 289 238 72 156 161 164 391 270 285 291 16 102 266 351 299 289 321 297 359 282 64
split_gain=32.6181 16.188 12.8006 11.4517 5.0581 4.35001 3.57888 3.47006 3.32 2.8504 2.37883 2.18877 1.98351 1.96867 1.97186 1.78533 1.75461 1.97738 1.54488 2.16047 1.36055 1.34753 1.29927 1.24826 1.23611 1.04126 0.964604 0.957563 0.909299 0.867544
threshold=-0.024596907198429104 0.083541646599769606 -0.60852342844009388 0.92247045040130626 -2.44378650188446 2.770771980285645 1.0000000180025095e-35 -3.0273633003234859 0.18039134144783023 0.59805998206138622 1.0063642859458926 0.0013133748434484007 0.037319621071219451 0.057018337771296508 0.049096783623099334 -0.31933836638927454 0.54276129603385936 2.1233056783676152 -0.73421823978424061 0.0076745375990867623 -0.21014235168695447 0.062253758311271674 -3.421273827552795 -1.5780117511749265 -1.5870764255523679 0.27576644718647009 2.4812508821487431 -0.17904715985059735 0.50304919481277477 -0.032570831477642052
decision_type=2 2 2 2 2 2 2 2 2 2 2 2 2 2 2 2 2 2 2 2 2 2 2 2 2 2 2 2 2 2
left_child=3 2 5 4 -1 10 11 -5 18 22 20 16 15 14 -8 21 17 -4 28 -20 -2 -10 27 -18 -13 -12 -22 -9 -6 -25
right_child=1 -3 6 7 8 -7 13 9 12 -11 25 24 -14 -15 -16 -17 23 -19 19 -21 26 -23 -24 29 -26 -27 -28 -29 -30 -31
leaf_value=-0.0044204031410124888 -0.00061710093924332232 -0.014624024091813809 0.0079121280059610537 0.010323741170047205 -0.0043433259526158077 -0.01044425922841765 0.00025668538527856018 0.0098495008489664863 -0.0022973532512834348 0.00079551613268752895 0.0024217715193106631 0.0014541632136920604 0.0063099737405434425 -0.0046201718589133122 -0.0029531141970720555 0.0051022812848289809 0.0044043589383363727 0.0023787722075560495 0.0029049644678997904 -0.0015969943429624278 -0.0041162972813750618 0.0025162741207768991 0.0029033258602474679 0.0028336906793992966 -0.0031470387064936483 -0.0022387737340547821 -0.0075939675169065593 0.005132369286403423 0.00040895212034229187 -0.00096392003464099683
leaf_weight=49 40 37 36 77 32 38 262 49 35 46 32 39 85 57 106 61 30 90 132 61 299 61 31 30 53 42 38 39 30 95
leaf_count=49 40 37 36 77 32 38 262 49 35 46 32 39 85 57 106 61 30 90 132 61 299 61 31 30 53 42 38 39 30 95
internal_value=-8.36066e-06 -0.00192501 -0.0015378 0.00320871 0.00159227 -0.00407865 2.54966e-05 0.00681279 0.00220041 0.00507034 -0.00349856 0.00145109 0.00386858 -0.00122661 -0.000678842 0.00248407 0.00232376 0.00405866 0.000599486 0.00148028 -0.004139 0.000750237 0.00668233 0.000879728 -0.00120709 -0.000212708 -0.00455093 0.00791946 -0.00210292 -2.22216e-05
internal_weight=2112 1324 1287 788 546 489 798 242 497 165 451 373 242 425 368 157 281 126 255 193 377 96 119 155 92 74 337 88 62 125
internal_count=2112 1324 1287 788 546 489 798 242 497 165 451 373 242 425 368 157 281 126 255 193 377 96 119 155 92 74 337 88 62 125
is_linear=0
shrinkage=0.02


Tree=5
num_leaves=31
num_cat=0
split_feature=24 398 387 387 166 214 53 274 351 72 12 265 200 168 362 250 207 246 185 141 168 77 238 289 177 166 192 155 298 273
split_gain=31.5344 19.3659 11.7558 9.49166 4.40543 4.23281 3.80423 3.53338 2.78866 2.6466 2.52172 2.50581 2.20642 2.12979 2.10763 1.6658 1.97493 1.60185 1.57358 1.57288 1.47008 1.4374 1.26364 1.21627 1.10138 1.10056 1.07752 1.07214 1.04064 1.01928
threshold=-0.022276544943451878 2.331120610237122 -0.96325200796127308 1.0000000180025095e-35 -0.00065768411150202144 1.7107039690017702 0.4324375987052918 0.11879733949899675 -4.8558099269866934 0.0015977440634742381 0.17093086987733844 -0.23219347745180127 0.52722492814064037 -0.17359106242656705 -0.02200063411146402 2.0788443088531499 -0.26676729321479792 -2.0683716535568233 -0.16270640492439267 -0.048186967149376862 0.18220174312591556 0.050449755042791374 0.27712570130825048 -0.039846533909440034 -0.035942973569035523 -0.0011158998822793362 3.1831665039062504 -0.044547853991389268 2.1066784858703618 0.92096593976020824
decision_type=2 2 2 2 2 2 2 2 2 2 2 2 2 2 2 2 2 2 2 2 2 2 2 2 2 2 2 2 2 2
left_child=2 3 10 9 7 6 8 15 -4 14 23 -11 17 -6 18 16 22 -10 -2 -15 -9 28 -5 -1 -21 -18 -12 -20 -14 -19
right_child=1 -3 5 4 13 -7 -8 20 12 11 26 -13 21 19 -16 -17 25 29 27 24 -22 -23 -24 -25 -26 -27 -28 -29 -30 -31
leaf_value=0.0059946281879635181 -0.0019269124705654881 -0.017284441497176888 0.0070118959695100779 -0.0028380579647239086 -0.0033848191872239116 -0.0039753988207688537 0.0081740242301633487 -0.0050567731391148356 -0.0043210124842277386 0.00064800038988323651 0.0068134640856749489 -0.0060902507734649329 0.0019907267844347758 0.0024118104275090224 0.0059504738333635036 0.0006060248171373949 -0.0035682507073377364 0.0019350680225198309 0.0054921910213306547 -0.002470261566419849 -0.0096099780366206786 -0.0012778437733650208 0.0021558717917650938 0.0013551350037862614 0.00015928862757781252 -0.0082305591237364396 0.010847128542332813 0.0014376927913406735 0.0052728700957127986 -0.0024178473414345225
leaf_weight=57 46 30 33 51 128 49 36 169 39 62 88 32 213 64 46 57 70 60 30 116 37 43 31 39 138 31 56 157 47 31
leaf_count=57 46 30 33 51 128 49 36 169 39 62 88 32 213 64 46 57 70 60 30 116 37 43 31 39 138 31 56 157 47 31
internal_value=6.69102e-06 -0.00191426 0.00314851 -0.00152304 -0.00264158 0.00152836 0.00207922 -0.00404361 0.00157546 0.00115167 0.00682475 -0.00172496 0.0011308 -0.00122776 0.00212624 -0.0023638 -0.00328538 -0.0010377 0.00132703 -0.000343784 -0.00595912 0.00206188 -0.00094373 0.00417596 -0.00105153 -0.00513129 0.00850921 0.00213938 0.00261976 0.0004321
internal_weight=2086 1295 791 1265 892 551 502 446 466 373 240 94 433 446 279 240 183 130 233 318 206 303 82 96 254 101 144 187 260 91
internal_count=2086 1295 791 1265 892 551 502 446 466 373 240 94 433 446 279 240 183 130 233 318 206 303 82 96 254 101 144 187 260 91
is_linear=0
shrinkage=0.02


Tree=6
num_leaves=31
num_cat=0
split_feature=91 398 387 387 166 274 392 137 45 159 230 64 168 216 168 145 273 148 359 192 33 384 198 380 383 285 131 337 227 24
split_gain=34.348 13.6673 9.98693 7.35104 5.60529 3.96858 3.91917 2.93973 2.74735 3.38971 2.44942 2.89653 2.17061 1.94122 1.92042 1.88173 1.71344 1.62937 1.50194 1.40795 1.33967 1.2123 1.10105 1.09097 1.04999 1.15225 1.0011 1.17867 1.03798 0.993774
threshold=-0.055911522358655923 2.0864508152008061 -0.96325200796127308 1.0000000180025095e-35 -0.00083344912854954589 0.11879733949899675 -1.1376736760139463 -0.051880547776818269 0.95845377445220958 -0.33759769797325129 -0.82675889134407032 0.010332943405956032 0.21631142497062686 1.0006965994834902 -0.17359106242656705 0.074833247810602202 -0.12038396298885344 -0.017390642315149304 0.56278222799301159 2.6216268539428715 -0.049948489293456071 1.0489311218261721 -0.20104979723691938 -1.2255737185478208 -3.141443014144897 2.0330990552902226 -0.033234374597668641 -0.35633766651153559 -1.5179769992828367 0.084909312427043929
decision_type=2 2 2 2 2 2 2 2 2 2 2 2 2 2 2 2 2 2 2 2 2 2 2 2 2 2 2 2 2 2
left_child=2 3 7 10 5 16 -4 -1 9 -8 26 29 -7 19 -6 -16 21 -11 24 -9 -17 23 -20 -5 -19 -26 -2 -28 -29 -12
right_child=1 -3 6 4 14 12 8 13 -10 17 11 -13 -14 -15 15 20 -18 18 22 -21 -22 -23 -24 -25 25 -27 27 28 -30 -31
leaf_value=0.00225330858801802 3.8016205960577664e-05 -0.014806311279535293 0.005968575074836828 -0.0047967032373628831 -0.0035780857743390616 -0.0057233961456443503 -0.0057681295850447248 0.0060255328797787985 0.003740100893615322 0.0040995365865528583 0.0022509530915514283 -0.0064725395167447835 -0.011729502510279417 0.0047802282285622577 0.0010799670049374732 -0.0056098658704396452 0.00048943676072387744 0.00032248132082239437 -0.0040657907733043959 0.010928527617800063 -0.0011677128085950726 -0.0072068545639966475 -0.0001976092429443573 -0.00089121719447575747 0.0003028664198901617 0.0054332079447624157 -0.0006126601051758317 0.00085487162008097289 0.005032664670755989 -0.0022595542944584259
leaf_weight=64 89 32 67 53 121 156 33 51 108 48 44 35 30 86 143 31 50 161 41 67 164 31 94 62 31 39 32 36 74 32
leaf_count=64 89 32 67 53 121 156 33 51 108 48 44 35 30 86 143 31 50 161 41 67 164 31 94 62 31 39 32 36 74 32
internal_value=-0.000110714 -0.00229575 0.00287069 -0.00193293 -0.00293636 -0.00472102 0.00147092 0.00608444 0.000908482 0.00021072 0.000537301 -0.00188288 -0.0068066 0.00725282 -0.00143704 -0.000654031 -0.00269309 0.000712735 0.000248699 0.00894518 -0.00192368 -0.00377488 -0.00141459 -0.00274236 0.00122455 0.00323272 0.00170642 0.00273706 0.00370507 0.000342551
internal_weight=2105 1215 890 1183 841 382 622 268 555 447 342 111 186 204 459 338 196 414 366 118 195 146 135 115 231 70 231 142 110 76
internal_count=2105 1215 890 1183 841 382 622 268 555 447 342 111 186 204 459 338 196 414 366 118 195 146 135 115 231 70 231 142 110 76
is_linear=0
shrinkage=0.02


Tree=7
num_leaves=31
num_cat=0
split_feature=91 154 391 391 40 333 8 391 46 106 194 7 357 48 83 200 341 267 54 196 55 128 291 361 391 79 182 250 259 245
split_gain=28.4487 14.4087 11.2228 10.976 3.93919 3.76575 3.35616 3.0709 2.85587 2.72411 2.39204 2.22855 2.20517 1.9082 2.22887 1.8915 1.82476 1.81787 1.61176 1.51374 1.45572 1.62038 1.59454 1.38821 1.73007 1.34513 1.31848 1.29232 1.23518 1.10482
threshold=-0.055911522358655923 -0.11771220713853835 0.50900454819202434 -0.60852342844009388 0.066830001771450057 0.32177068293094641 0.0077505030203610667 0.97322851419448864 -0.032831722870469086 -0.089079268276691423 0.27107802033424383 -0.40587003529071802 1.3044347763061526 -0.1582783758640289 0.00015399882249766963 1.0361356735229494 0.32436230778694158 -1.2139656543731687 -0.017621179111301895 -3.9156811237335201 -0.22843603044748303 0.24768643081188205 -1.5325102210044859 -0.49709232151508326 -0.75765466690063465 -0.00048731722927186633 0.070937093347311034 1.4635114073753359 -0.91464671492576588 1.8442447781562807
decision_type=2 2 2 2 2 2 2 2 2 2 2 2 2 2 2 2 2 2 2 2 2 2 2 2 2 2 2 2 2 2
left_child=2 -2 5 9 7 8 12 13 -1 -3 25 17 -4 14 -5 20 23 -8 -15 -7 21 -11 -22 24 -10 -6 -17 -13 -20 -14
right_child=1 3 6 4 10 19 11 -9 16 15 -12 27 29 18 -16 26 -18 -19 28 -21 22 -23 -24 -25 -26 -27 -28 -29 -30 -31
leaf_value=-0.0056330826426366056 -0.015222114291973413 -0.0094623041541005166 0.0019828108647079378 0.0045363638537108068 -0.0032718506549600135 0.00048738537799017351 0.0057736629846951238 0.0046619411446154118 -0.0058555249361003318 -0.0095637469420709262 -0.0069956017402000728 0.0011924547981470824 0.0033124911785125735 0.0030999265622813255 -0.00025340061114971025 0.0012566486341232547 0.0023120478742888993 0.011619402872490102 0.00042103027969243981 0.0044180931144704423 -0.0044677052686681916 -0.0032519958453999338 -0.00064475803682580591 0.00041744446561027033 0.00014508511552489118 -0.00032359491714562064 -0.0035512293067619981 0.0066709660940316761 -0.0031641968253853861 0.0087165656953285906
leaf_weight=36 30 34 133 70 87 59 44 78 39 39 30 30 31 30 84 47 103 59 61 118 184 32 58 115 36 205 41 42 100 37
leaf_count=36 30 34 133 70 87 59 44 78 39 39 30 30 31 30 84 47 103 59 61 118 184 32 58 115 36 205 41 42 100 37
internal_value=1.59301e-05 -0.00197403 0.00274421 -0.00161202 -0.000135586 0.000793085 0.00535183 0.00113119 -0.000474364 -0.00412844 -0.00179641 0.00737883 0.00353171 0.000310663 0.00195401 -0.00363148 0.000193365 0.00927973 -0.00102086 0.00312794 -0.0043567 -0.00688605 -0.00356426 -0.000967304 -0.00304628 -0.0012183 -0.00101252 0.00448218 -0.00181732 0.00641798
internal_weight=2092 1210 882 1180 745 506 376 423 329 435 322 175 201 345 154 401 293 103 191 177 313 71 242 190 75 292 88 72 161 68
internal_count=2092 1210 882 1180 745 506 376 423 329 435 322 175 201 345 154 401 293 103 191 177 313 71 242 190 75 292 88 72 161 68
is_linear=0
shrinkage=0.02


Tree=8
num_leaves=31
num_cat=0
split_feature=3 387 398 185 183 287 77 341 165 283 293 225 156 234 83 0 172 325 337 133 259 338 167 161 330 102 139 342 296 90
split_gain=27.5974 19.0429 12.653 5.57235 5.11521 4.46141 3.791 3.56611 3.07662 3.32305 2.36978 2.2018 2.18818 2.24448 2.06711 1.77309 1.69377 1.45936 1.45499 1.34859 1.34223 1.28874 1.28647 1.43761 1.10632 1.0872 1.07492 1.06099 1.03055 0.920852
threshold=0.15832374244928363 1.0000000180025095e-35 2.331120610237122 0.27687960863113409 0.029646461829543117 -2.6964482069015498 -0.037063350901007645 0.37608231604099279 0.0012437450350262227 0.21878647804260257 -2.4720743894577022 1.7115268707275393 0.069625411182641997 1.6922916173934939 -0.00048032218182925129 0.073953244835138335 -0.00091270075063221146 0.2028593719005585 -0.19750669598579404 -0.30330932140350336 -0.57081574201583851 0.6773265302181245 0.38368575274944311 0.054899100214242942 1.0362948775291445 -0.15970464050769803 -0.0032448401907458897 0.029995601624250415 -1.7247466444969175 -0.0014409922296181319
decision_type=2 2 2 2 2 2 2 2 2 2 2 2 2 2 2 2 2 2 2 2 2 2 2 2 2 2 2 2 2 2
left_child=1 3 5 8 7 11 18 15 9 16 -11 -2 13 -6 -7 20 -1 -8 -5 -10 -3 26 23 -16 28 -22 -21 -9 -15 -29
right_child=2 4 -4 6 12 14 17 27 19 10 -12 -13 -14 24 22 -17 -18 -19 -20 21 25 -23 -24 -25 -26 -27 -28 29 -30 -31
leaf_value=-0.0010952773574917089 -0.0039670296355841621 -0.0010328714332024523 -0.016101571601979874 0.0046046240683248699 -0.001879144017716912 0.00073525720858015121 0.0014297376929714187 0.0020307750348001717 0.0064615844393318342 -0.0062334402176466852 3.1410736264660953e-05 -0.0098249161587311683 0.0059968503140327006 0.0060179163060254531 0.00058888755886564177 -0.0072935514388872049 0.0034627232062828042 0.0054189489225686437 0.0092811705669370095 0.0022753113344537489 -0.00034421208584190985 -4.1909708472138101e-05 -0.0044485202091237323 -0.0042736856341362003 -0.00022880429586652536 -0.0041753638324359158 0.0063545571003730096 0.00072905292150486883 0.0018366572071055445 -0.0029753202286415866
leaf_weight=40 60 147 32 45 86 78 80 84 64 31 90 50 34 34 61 33 157 69 101 64 36 42 117 38 56 176 46 58 77 47
leaf_count=40 60 147 32 45 86 78 80 84 64 31 90 50 34 34 61 33 157 69 101 64 36 42 117 38 56 176 46 58 77 47
internal_value=0.000118664 0.00127254 -0.00435778 0.00343674 -0.000797558 -0.00335284 0.00563758 -0.00187456 0.00220442 0.000942993 -0.00164889 -0.0067576 0.0013806 0.000718061 -0.00204189 -0.00295804 0.00253553 0.0033244 0.00792147 0.00403582 -0.00252131 0.0029438 -0.0030423 -0.00132522 0.00206195 -0.00353409 0.00406419 0.0003801 0.00320125 -0.000953715
internal_weight=2133 1697 436 829 868 404 295 581 534 318 121 110 287 253 294 392 197 149 146 216 359 152 216 99 167 212 110 189 111 105
internal_count=2133 1697 436 829 868 404 295 581 534 318 121 110 287 253 294 392 197 149 146 216 359 152 216 99 167 212 110 189 111 105
is_linear=0
shrinkage=0.02


Tree=9
num_leaves=31
num_cat=0
split_feature=24 398 387 387 291 337 111 318 291 133 283 373 101 220 19 252 238 341 358 285 136 37 201 149 148 238 247 329 281 199
split_gain=29.1906 19.0744 9.94659 7.96985 4.96604 3.75209 3.15291 3.14581 2.45396 2.33899 2.26487 2.24556 2.22185 2.03212 1.82849 1.56794 1.54351 1.32756 1.39658 1.32409 1.34883 1.15414 1.1272 1.18827 1.10852 1.05585 0.993755 0.972598 0.936371 0.870462
threshold=-0.022276544943451878 2.331120610237122 -0.96325200796127308 1.0000000180025095e-35 -2.6129671335220332 0.15887235850095752 0.076368741691112532 -1.8615978360176084 1.3011539578437807 -0.20147128403186795 0.51903283596038829 2.1814203262329106 -0.087527025490999208 -1.4228174090385435 0.015929239802062515 -1.5664107203483579 -0.1333188787102699 -0.72475457191467274 -0.20011743158102033 1.2296732068061831 0.042174436151981361 0.094743426889181151 -0.89650392532348622 0.035026412457227714 -0.015197561122477053 0.22710508108139041 0.29075857996940618 1.7380001544952395 -2.3168910741806026 -0.59767591953277577
decision_type=2 2 2 2 2 2 2 2 2 2 2 2 2 2 2 2 2 2 2 2 2 2 2 2 2 2 2 2 2 2
left_child=2 3 7 9 6 8 16 14 10 11 22 -2 -6 -7 28 -9 -5 25 21 -11 26 -19 -4 -24 -15 -14 -21 -18 -1 -20
right_child=1 -3 5 4 12 13 -8 15 -10 19 -12 -13 17 24 -16 -17 27 18 29 20 -22 -23 23 -25 -26 -27 -28 -29 -30 -31
leaf_value=0.0059928701664595041 0.0013310706361413136 -0.016405197211674282 0.0033639917634427545 -0.0050637055012500952 -0.0049076177393116297 0.0078572822016264709 -0.010506286588497461 -0.00032815384911373259 0.0038448201207003357 -0.0036880246264627205 -0.0049064572197808458 0.008016043298623779 -0.004474077511113137 0.0046989101997536161 0.0041625934112362742 0.0051043494119190833 -0.0047946663739599493 -0.00052839155083513696 -0.00021517646151580035 0.00025272470826960422 -0.0017288054452395778 -0.0041220389927844351 -0.0013072703617314498 0.0028873295743357054 0.0015901671951636673 -0.00070212646723937996 0.0031988633163273334 -0.0008586045992926936 0.010816780068451846 0.0031569750202422747
leaf_weight=32 54 33 33 160 60 33 30 30 54 30 42 31 62 67 39 69 34 217 61 108 69 41 148 31 148 57 78 87 77 59
leaf_count=32 54 33 33 160 60 33 30 30 54 30 42 31 62 67 39 69 34 217 61 108 69 41 148 31 148 57 78 87 77 59
internal_value=4.39659e-05 -0.00184108 0.00302481 -0.00142703 -0.00247302 0.00153067 -0.00449056 0.00634883 5.2764e-05 0.00102693 -0.00077716 0.00389735 -0.0013345 0.00335102 0.008193 0.00348424 -0.0037786 -0.000885195 -0.000299858 0.00014964 0.000626317 -0.00112679 7.9117e-05 -0.000556954 0.00259332 -0.00270881 0.00150909 -0.00202458 0.00953408 0.00146737
internal_weight=2074 1271 803 1238 868 556 311 247 308 370 254 85 557 248 148 99 281 497 378 285 255 258 212 179 215 119 186 121 109 120
internal_count=2074 1271 803 1238 868 556 311 247 308 370 254 85 557 248 148 99 281 497 378 285 255 258 212 179 215 119 186 121 109 120
is_linear=0
shrinkage=0.02


Tree=10
num_leaves=31
num_cat=0
split_feature=91 154 391 391 37 8 15 391 46 223 354 230 376 277 341 346 314 377 391 159 391 259 37 70 282 336 165 361 57 372
split_gain=28.4908 18.3807 9.53635 9.51016 3.36772 3.34482 3.19587 2.82607 2.42912 2.35992 1.94934 1.90199 1.87502 1.80844 1.7314 1.65017 1.58867 1.54744 1.4637 1.69578 1.24217 1.06316 1.49014 1.05545 1.00083 0.989851 0.986905 0.978536 0.945117 0.900545
threshold=-0.055911522358655923 -0.12728432565927503 0.50900454819202434 -0.60852342844009388 0.14023226499557498 -0.014951486606150864 -0.13940215855836866 0.87352478504180919 -0.032831722870469086 1.607369661331177 2.183444738388062 -0.17289458960294721 0.15455490350723269 -1.9441820979118345 -0.63375571370124806 0.94694644212722789 -0.82190886139869679 1.6798052191734316 1.0565347075462344 0.20235686004161837 -1.0659501552581785 -0.70269456505775441 0.078458234667778029 0.018442551605403427 1.3704698681831362 0.58660218119621288 0.001070389000233263 -1.3267081975936887 -0.0033574432600289579 1.1325590610504153
decision_type=2 2 2 2 2 2 2 2 2 2 2 2 2 2 2 2 2 2 2 2 2 2 2 2 2 2 2 2 2 2
left_child=2 -2 8 4 11 18 26 12 -1 20 -6 15 17 -7 -11 -3 25 21 -4 -20 -10 -8 28 24 -22 -15 -5 -14 -23 -18
right_child=1 3 5 6 10 13 7 -9 9 14 -12 -13 27 16 -16 -17 29 -19 19 -21 23 22 -24 -25 -26 -27 -28 -29 -30 -31
leaf_value=-0.0034808014843450939 -0.016929768789559603 -0.0045691705398011682 0.00012888699736107479 -0.0012366548419231549 -0.0037193633982855264 0.0021268981892396421 -0.00075210210516071709 0.0031449897416016975 -0.0026882372316904368 0.00077324742658270733 -0.010729790315395449 -0.0041095100173192053 0.0033827809816734354 0.01068738620947389 0.00662816959934739 0.00017840918552023002 0.0025108478764856337 0.0011699062859973652 0.0060936958225710049 0.0010281742307478967 -0.00098998698531576105 0.00025087098083035513 -0.0067238235135262496 0.0021366967303613417 0.0026075412995443204 0.0061853594154767369 -0.0060650305519270344 0.0003320772783281129 -0.0039808263665153864 0.0069510269197432892
leaf_weight=44 30 39 53 30 31 32 120 113 38 34 39 247 53 66 50 102 36 75 68 44 124 42 36 170 39 44 41 181 40 44
leaf_count=44 30 39 53 30 31 32 120 113 38 34 39 247 53 66 50 102 36 75 68 44 124 42 36 170 39 44 41 181 40 44
internal_value=1.54505e-05 -0.00196697 0.00274124 -0.00156164 -0.00381459 0.00508917 -0.00014353 0.000294806 0.000907262 0.00134498 -0.00781473 -0.00305654 -0.000303301 0.00669082 0.00433142 -0.00118029 0.00742931 -0.00131218 0.0028799 0.00415662 0.000649204 -0.00209758 -0.00343051 0.00104383 -0.000108056 0.00902919 -0.00411465 0.00104586 -0.001859 0.00506292
internal_weight=2105 1219 886 1189 458 387 731 660 499 455 70 388 547 222 84 141 190 313 165 112 371 238 118 333 163 110 71 234 82 80
internal_count=2105 1219 886 1189 458 387 731 660 499 455 70 388 547 222 84 141 190 313 165 112 371 238 118 333 163 110 71 234 82 80
is_linear=0
shrinkage=0.02


Tree=11
num_leaves=31
num_cat=0
split_feature=24 398 391 391 199 193 106 91 133 318 391 194 333 380 33 291 246 141 270 391 391 16 106 156 250 381 291 90 270 153
split_gain=26.9226 16.476 10.6737 9.56535 4.05289 4.14181 3.77739 3.59641 2.8172 2.76843 2.52145 2.38534 2.21585 1.94437 1.87775 1.71416 1.45659 1.45315 1.71083 1.35047 1.31337 1.29393 1.09085 1.06188 1.04765 1.03905 1.01582 0.874218 0.848999 0.801582
threshold=-0.022276544943451878 2.331120610237122 0.92247045040130626 -0.60852342844009388 -0.17833843082189557 -3.1552115678787227 -0.082481767982244478 0.18442564457654956 -0.16507226973772046 -1.8412176966667173 0.97322851419448864 0.049971684813499458 0.60748958587646495 -3.0940203666687007 -0.0086133494041860086 -2.6891636848449703 -0.60677519440650929 -0.048530729487538331 1.0000000180025095e-35 -0.97657391428947438 -0.032008765265345566 0.0047872932627797135 0.0083969887346029299 0.008508152328431608 1.0317483544349673 -0.18738039582967755 -1.5806989669799802 0.0099109676666557806 -0.1181851029396057 0.00080290017649531375
decision_type=2 2 2 2 2 2 2 2 2 2 2 2 2 2 2 2 2 2 2 2 2 2 2 2 2 2 2 2 2 2
left_child=2 3 4 6 5 19 -2 10 -8 16 13 28 20 -5 -14 -10 25 23 -19 -1 29 -12 24 -15 -21 -4 -20 -11 -9 -6
right_child=1 -3 9 7 12 -7 8 11 15 27 21 -13 14 17 -16 -17 -18 18 26 22 -22 -23 -24 -25 -26 -27 -28 -29 -30 -31
leaf_value=-0.0026322111987162294 -0.008877069754153491 -0.015284480333328248 0.0036571447476744651 0.0036418267240405158 0.002036403970711905 -0.0068673714351441184 -0.0074658372607082123 0.00061501286625862122 -0.0040458902009090202 0.0020205221325159074 0.0044608380003822046 -0.007541630631594947 0.0078042963546301634 0.0034560554508087146 0.0025147979731782004 -0.0012035730494901018 0.011202530641945041 0.0023590599372982977 -0.0031314411492022721 0.0016010222211480141 0.0032694991642959639 6.338679045438766e-05 0.0025859128309100449 -0.00034548836054220316 -0.0032454339815585903 0.0081638302514329547 -0.00066871831074311603 0.0061055263380209602 -0.0028270068923281371 -0.0014727771852631121
leaf_weight=41 48 33 38 51 44 33 48 48 142 58 89 31 54 55 57 213 47 47 114 37 99 38 105 60 31 62 162 34 67 58
leaf_count=41 48 33 38 51 44 33 48 48 142 58 89 31 54 55 57 213 47 47 114 37 99 38 105 60 31 62 162 34 67 58
internal_value=8.36909e-05 -0.00175234 0.0029477 -0.00135964 0.00142501 -0.000487991 -0.0036612 8.5782e-06 -0.00299918 0.00646774 0.000679192 -0.0027918 0.00293293 2.29504e-05 0.00518065 -0.0023568 0.00817245 -0.000413064 -0.00109946 0.000550223 0.00165284 0.00316645 0.0013259 0.00150064 -0.000637992 0.00655658 -0.00170114 0.00362798 -0.00140438 5.1038e-05
internal_weight=2044 1246 798 1213 559 247 451 762 403 239 616 146 312 489 111 355 147 438 323 214 201 127 173 115 68 100 276 92 115 102
internal_count=2044 1246 798 1213 559 247 451 762 403 239 616 146 312 489 111 355 147 438 323 214 201 127 173 115 68 100 276 92 115 102
is_linear=0
shrinkage=0.02


Tree=12
num_leaves=31
num_cat=0
split_feature=91 161 392 291 298 91 238 37 291 312 125 330 94 315 144 216 282 380 356 392 125 82 2 368 63 241 202 110 59 108
split_gain=26.4614 12.2071 8.74592 7.16761 4.36574 3.61461 3.0497 2.96871 2.70043 2.50217 2.42206 1.9459 1.80726 1.70253 1.70241 1.66031 1.64939 1.47584 1.38174 1.37329 1.32851 1.22981 1.20552 1.44483 1.13765 1.11416 1.08968 1.07292 1.02759 1.08447
threshold=-0.055911522358655923 0.083541646599769606 -1.1376736760139463 -1.8125385642051695 2.0710538625717168 0.1729133874177933 0.26127980649471289 0.13705816119909289 -2.7416534423828121 -2.5061030387878414 0.32120336592197424 -1.299258768558502 0.086296122521162047 3.319815039634705 -0.10596918314695357 0.22847933322191241 -0.011950617656111715 -2.8440843820571895 -0.015908338129520413 0.10446841642260553 -0.0084402323700487596 -0.079014331102371202 -0.060195507481694215 -3.3331288099288936 0.0055048863869160422 0.022496733814477924 0.57202154397964489 -0.0023674352560192342 0.0011683783959597351 0.47310386598110205
decision_type=2 2 2 2 2 2 2 2 2 2 2 2 2 2 2 2 2 2 2 2 2 2 2 2 2 2 2 2 2 2
left_child=2 3 13 6 8 9 7 17 -4 19 15 24 -12 -1 -15 -6 -8 -2 -7 -5 -18 -9 -13 -24 -10 -21 -19 -11 29 -25
right_child=1 -3 4 5 10 18 16 21 11 27 12 22 -14 14 -16 -17 20 26 -20 25 -22 -23 23 28 -26 -27 -28 -29 -30 -31
leaf_value=0.0039774478749005186 0.00032204429905575055 -0.013438472524285316 -0.0045026891986914988 0.00065211251378059385 -0.00082919684179285735 -0.0071238611613146288 -0.0046791397679121572 -0.0048657184937282612 0.00084500257668661933 0.0037075985968112947 0.0086964532417261008 -0.0021290807566437565 0.0027908562957064103 0.010113014101352491 0.0040869169050093855 0.0045727418561776478 -0.0014910691895145384 -0.0024492090788224468 -0.0018290553301838891 -0.0043443612366043513 0.0023998177274673557 -0.010516368628312381 -0.0021683128456620928 4.8092242519407225e-05 0.005193953270936618 -0.00060304172256070638 -0.0052150802692541706 0.00099130852829429177 0.0034604715324301079 0.0034622917149929287
leaf_weight=64 37 34 35 106 45 31 45 36 40 79 57 59 36 69 31 43 129 113 54 60 46 37 50 179 62 67 128 215 74 45
leaf_count=64 37 34 35 106 45 31 45 36 40 79 57 59 36 69 31 43 129 113 54 60 46 37 50 179 62 67 128 215 74 45
internal_value=-4.46405e-05 -0.00195944 0.00257514 -0.0016074 0.0016218 -0.000101982 -0.00321493 -0.00436854 0.000719974 0.000519655 0.00429478 0.00109531 0.0065173 0.0067193 0.00836169 0.00185335 -0.00135161 -0.00338236 -0.00387948 -0.00102354 -0.000452762 -0.00793381 0.000468954 0.000919074 0.00353753 -0.00241054 -0.00394905 0.00174132 0.00144809 0.00075855
internal_weight=2106 1217 889 1183 725 612 571 351 544 527 181 509 93 164 100 88 220 278 85 233 175 73 407 348 102 127 241 294 298 224
internal_count=2106 1217 889 1183 725 612 571 351 544 527 181 509 93 164 100 88 220 278 85 233 175 73 407 348 102 127 241 294 298 224
is_linear=0
shrinkage=0.02


Tree=13
num_leaves=31
num_cat=0
split_feature=291 161 391 391 163 105 6 139 365 139 320 265 177 47 300 296 241 235 352 365 350 64 238 301 391 134 153 107 226 81
split_gain=23.6243 8.8476 7.38037 6.65857 4.54894 3.98271 3.48067 3.12508 2.98366 2.38767 2.36261 1.95896 1.58849 1.5793 1.57238 1.49916 1.4754 1.36283 1.21215 1.32479 1.18439 1.11274 1.07571 1.02572 0.99172 0.940683 0.913801 0.89858 0.898177 0.895151
threshold=-0.59987583756446827 0.060650205239653594 0.63041901588439953 0.92247045040130626 -0.036843776702880852 0.66181844472885143 -0.025752205401659008 0.18039134144783023 1.189729690551758 -0.019967338070273396 -0.024810004979372021 -0.85656252503395069 -0.021737004630267617 0.0023815099848434333 0.39639700949192053 -1.8403377532958982 -0.34533163905143732 -1.8844528198242185 0.74050563573837291 0.34093558788299566 0.43894526362419134 0.0074495216831564912 0.54369291663169872 1.1734744310379031 -0.67864093184471119 -0.16241794824600217 0.014038242865353824 0.23897948116064074 1.2742972373962405 -0.048341229557991021
decision_type=2 2 2 2 2 2 2 2 2 2 2 2 2 2 2 2 2 2 2 2 2 2 2 2 2 2 2 2 2 2
left_child=1 2 4 6 -1 -3 13 10 18 -5 24 12 -12 15 22 28 21 26 -4 -20 27 -8 -13 -17 -6 -16 -11 -9 -2 -18
right_child=3 5 8 9 7 -7 16 20 -10 17 11 14 -14 -15 25 23 29 -19 19 -21 -22 -23 -24 -25 -26 -27 -28 -29 -30 -31
leaf_value=-0.0088748793095712441 0.0037757947135284757 -0.0045827031550322505 -0.0012372434391484906 0.0022790126357136705 -0.0022448221565333801 -0.013094486242625863 0.00033485669978997778 0.0015379598420151494 0.0081868994981050495 0.0063537652974111451 -0.0026730146585910953 -0.0026926666150911376 0.0023782209624001321 -0.00093507312005385761 -0.0074053678332882764 0.00046764605159906644 -0.0011100329835069915 0.0043492680318929534 0.0044304432285328706 -0.00067660513101145629 0.0044619663602539477 -0.0043757600494427609 0.0018286835121442424 0.0034800549526698889 0.00041049719200219296 -0.0037294397508406915 0.010920607340004709 -0.0026003788883099334 0.0079623169120815063 0.0015855307302367722
leaf_weight=34 67 84 46 80 83 30 34 59 30 67 51 57 45 38 32 77 71 79 58 30 33 46 31 110 165 283 34 30 34 151
leaf_count=34 67 84 46 80 83 30 34 59 30 67 51 57 45 38 32 77 71 79 58 30 33 46 31 110 165 283 34 30 34 151
internal_value=8.99754e-05 -0.00176199 -0.00118924 0.00255143 -0.00189842 -0.00700979 0.00142866 -0.00160571 0.00269138 0.00523176 -0.00208991 -0.00288041 -0.000305035 0.00285512 -0.00348937 0.00335822 -0.000119828 0.00650463 0.00135873 0.00271306 0.00134494 -0.00241441 -0.00109468 0.00225773 -0.000489027 -0.00414723 0.00807332 0.000116521 0.00531236 0.000721222
internal_weight=2069 1181 1067 888 903 114 628 869 164 260 747 499 96 326 403 288 302 180 134 88 122 80 88 187 248 315 101 89 101 222
internal_count=2069 1181 1067 888 903 114 628 869 164 260 747 499 96 326 403 288 302 180 134 88 122 80 88 187 248 315 101 89 101 222
is_linear=0
shrinkage=0.02


Tree=14
num_leaves=31
num_cat=0
split_feature=98 398 391 391 199 223 40 358 391 222 364 194 153 258 363 144 120 391 241 140 260 173 33 386 230 30 257 46 250 197
split_gain=22.2703 14.319 14.0249 6.89117 4.76813 2.68123 2.2148 2.06182 1.92718 1.87778 1.87118 1.7183 1.64219 1.52848 1.49335 1.42954 1.42143 1.34664 1.3204 1.30745 1.36937 1.25481 1.21087 1.33314 1.14137 1.10026 0.880117 0.835838 0.824432 0.808039
threshold=-0.0081403222866356355 2.331120610237122 0.92247045040130626 -0.60852342844009388 -0.17833843082189557 0.41061230003833776 0.066830001771450057 -1.9382384419441221 -0.95966491103172291 0.61031514406204235 -1.9606572389602659 0.17854277789592746 0.015895459800958637 -2.0280481576919551 1.2553383708000185 -0.044900085777044289 0.026525535620749 -0.13579289615154264 1.0350787043571474 0.068177495151758208 0.88141393661499035 0.15216986089944842 -0.023483683355152603 1.0000000180025095e-35 0.91533085703849804 -0.70525681972503651 1.4593504667282107 0.0068186293356120595 1.66218638420105 -0.95314878225326527
decision_type=2 2 2 2 2 2 2 2 2 2 2 2 2 2 2 2 2 2 2 2 2 2 2 2 2 2 2 2 2 2
left_child=1 3 4 9 8 17 10 -4 14 12 -5 26 24 16 -2 25 22 27 -12 -19 -21 -20 -10 -24 -1 -9 -8 28 -6 -7
right_child=2 -3 7 6 5 29 11 15 13 -11 18 -13 -14 -15 -16 -17 -18 19 21 20 -22 -23 23 -25 -26 -27 -28 -29 -30 -31
leaf_value=-0.0029209407934015896 -0.0008833917299671157 -0.015152141434304855 0.0081182092241942876 0.0037362991465066655 -0.0043425092802328227 0.0073255220774444754 -0.0018278060414092113 0.0029343920795524376 0.0017553654076481187 -0.00082523639689673458 -0.0017314791926427893 -0.0056661881493857581 -0.0088719053838346891 -0.0032106677216806397 -0.0051493124695944368 0.0020388720390965807 0.0022683877226566738 0.0047788986448198557 0.004214182001887821 -0.00077479982401021342 0.0042139363552269058 -0.0011359012848697603 0.00031926795369700383 -0.0031958602143859027 -0.0058696315017049061 0.0070187041172314257 0.00061896010965708343 0.0017742915474809706 0.00012268940425094437 0.0035209482409909632
leaf_weight=130 78 32 90 67 32 30 183 45 72 55 93 35 36 49 56 72 118 48 38 69 30 30 93 78 97 82 85 30 32 112
leaf_count=130 78 32 90 67 32 30 183 45 72 55 93 35 36 49 56 72 118 48 38 69 30 30 93 78 97 82 85 30 32 112
internal_value=1.1458e-06 -0.00241723 0.00175437 -0.00190275 0.000550676 0.00225426 -0.000503585 0.00558501 -0.000652583 -0.00422134 0.000980576 -0.00161949 -0.00491996 3.16047e-05 -0.00271567 0.00436997 0.000486956 0.000955076 -0.000197988 0.00213946 0.000790447 0.00188883 -0.000389556 -0.00130253 -0.00422121 0.00563944 -0.00105294 -0.000903089 -0.00217385 0.00441531
internal_weight=2097 881 1216 849 927 383 531 289 544 318 228 303 263 410 134 199 361 241 161 147 99 68 243 171 227 127 268 94 64 142
internal_count=2097 881 1216 849 927 383 531 289 544 318 228 303 263 410 134 199 361 241 161 147 99 68 243 171 227 127 268 94 64 142
is_linear=0
shrinkage=0.02


Tree=15
num_leaves=31
num_cat=0
split_feature=98 398 387 372 333 265 291 55 136 228 389 384 137 247 210 42 214 339 259 193 200 324 312 31 268 338 223 136 85 297
split_gain=22.9028 13.3549 12.2271 5.87901 5.01646 3.39639 3.31628 3.31311 2.85197 2.54686 2.12426 2.1208 1.93918 1.90464 1.89808 1.74589 1.68315 1.44608 1.39909 1.32341 1.2941 1.15379 1.11816 1.0828 1.05181 1.04206 0.923723 0.908434 0.951267 1.00126
threshold=-0.0081403222866356355 2.331120610237122 -0.96325200796127308 -0.88143321871757496 0.32177068293094641 1.1971691846847536 -0.68144807219505299 -0.22843603044748303 -0.039939455687999718 2.1645781993865971 -1.1361607909202573 0.78872472047805797 -0.0540690179914236 0.51557084918022167 -2.6959022283554073 -0.014832283370196818 -0.58752048015594471 -0.17456860840320584 -1.0383796095848081 -6.0748255252838126 0.90951314568519603 -0.77381905913352955 -3.6017934083938594 0.11653104797005655 -2.4754031896591182 -0.16279577463865277 -1.0227851271629331 0.062555843964219107 -0.49281941354274744 1.0074343681335451
decision_type=2 2 2 2 2 2 2 2 2 2 2 2 2 2 2 2 2 2 2 2 2 2 2 2 2 2 2 2 2 2
left_child=1 3 12 7 6 9 14 -1 21 10 18 19 -2 23 -4 -15 -14 24 -5 -12 26 -6 -19 -8 -16 -9 -10 28 -21 -30
right_child=2 -3 4 5 8 -7 13 25 20 -11 11 -13 16 15 17 -17 -18 22 -20 27 -22 -23 -24 -25 -26 -27 -28 -29 29 -31
leaf_value=-0.010542136515395191 0.0020162989817714941 -0.015062737464904786 -0.0052347628698661266 -0.0010288200765738592 0.0067477494964996981 -0.0044050174853269971 0.00094950170158434309 -0.00071723234878542529 -0.0026533955586857572 0.004880274132592604 -0.0021421424397784802 -0.0028650756702162661 0.0092528058074671654 0.0069361100081555748 -0.0013005258194688295 0.00085877732074420368 0.0050657596372844981 -0.0050453326669641007 -0.0067804257591304032 -0.00062085109175986626 0.0029006274054148074 0.0019905318094022347 -0.0012578552988193501 -0.0021509797157098849 0.0033750323352537003 -0.0047932509893462774 0.001449330322444439 -0.0018190154056389666 0.0027813681780009081 -0.0010132882605705942
leaf_weight=37 58 31 52 32 73 111 179 34 41 30 70 109 56 35 34 40 161 37 36 71 85 31 168 58 40 103 43 41 149 33
leaf_count=37 58 31 52 32 73 111 179 34 41 30 70 109 56 35 34 40 161 37 36 71 85 31 168 58 40 103 43 41 149 33
internal_value=-0.000138015 -0.00256787 0.0016729 -0.00208131 0.000558175 -0.00123613 -0.000407508 -0.00534236 0.00281908 -0.000606882 -0.000928015 -0.000444791 0.00535509 0.00106849 -0.00179684 0.00380136 0.00622092 -0.00112338 -0.00418052 0.00029166 0.00118993 0.00539404 -0.00198359 0.000179084 0.00124911 -0.00380656 -0.000568327 0.000881695 0.00133019 0.00208979
internal_weight=2078 887 1191 856 916 682 643 174 273 571 541 473 275 312 331 75 217 279 68 364 169 104 205 237 74 137 84 294 253 182
internal_count=2078 887 1191 856 916 682 643 174 273 571 541 473 275 312 331 75 217 279 68 364 169 104 205 237 74 137 84 294 253 182
is_linear=0
shrinkage=0.02


Tree=16
num_leaves=31
num_cat=0
split_feature=91 154 199 83 392 75 323 287 238 346 133 273 306 201 234 201 247 285 215 149 320 167 325 308 75 341 178 32 350 252
split_gain=21.0348 14.2516 6.814 5.44671 3.49162 3.27936 3.24461 3.00814 2.79494 2.74199 2.54999 2.23031 2.16953 1.90663 1.70046 1.52821 1.44073 1.41099 1.38624 1.51025 1.33725 1.10238 1.06925 1.0451 1.04439 1.03141 0.985034 0.915713 1.18241 0.981561
threshold=-0.055911522358655923 -0.13467560708522794 -0.17833843082189557 -0.00011494743739604017 -1.6235494613647459 -0.091495148837566362 -1.3026883006095884 -1.7924790382385252 1.2504971623420718 3.6686550378799443 -0.2124267295002937 -0.32873101532459253 -0.84955120086669911 -0.80129122734069813 2.1159549951553349 -0.50500699877738942 -0.56751954555511464 2.7906352281570439 -1.1054710149765012 -0.010945019312202929 -0.38172890245914454 0.36650504171848303 -0.55367597937583912 0.19222678244113925 -0.015646414831280705 0.47782051563262945 -0.024742777459323403 -0.0511577371507883 -0.72237983345985401 -0.32361274957656855
decision_type=2 2 2 2 2 2 2 2 2 2 2 2 2 2 2 2 2 2 2 2 2 2 2 2 2 2 2 2 2 2
left_child=2 -2 6 11 -4 7 -1 -5 14 13 22 17 -13 -6 16 -15 -7 -3 -14 -20 -18 -11 -8 -10 -21 -16 -19 28 -12 -29
right_child=1 3 4 5 9 8 10 -9 23 21 27 12 18 15 25 -17 20 26 19 24 -22 -23 -24 -25 -26 -27 -28 29 -30 -31
leaf_value=-0.0057337705834652301 -0.014272994833333153 4.7056693924017821e-05 0.0082620442757615816 -0.010295246575887387 0.0044690152288455031 -0.0066706145065836614 0.0020135745437194906 -0.0025106091943124065 -0.00032258983963401989 0.0041714439000773793 -0.0041241785324027027 0.0045387247341003882 0.0024013878481091116 -0.0027185944016232633 -0.0023076827832705623 0.0019460089791243022 -0.00046191195274818028 -0.0055167348757840509 0.0016735232615222534 -0.00029753524465891328 -0.0036630557311297047 0.0088095067877595017 0.0065527335362774988 0.004073872934801109 -0.0047212366034675921 0.0007157966798102414 -0.001227581160189584 0.0020393177098183037 0.00099449607325368555 -0.00075900077737648709
leaf_weight=30 33 128 63 37 113 46 58 44 62 56 41 65 87 31 101 194 71 39 58 44 202 39 33 31 40 79 48 97 30 100
leaf_count=30 33 128 63 37 113 46 58 44 62 56 41 65 87 31 101 194 71 39 58 44 202 39 33 31 40 79 48 97 30 100
internal_value=1.55085e-05 -0.00169174 0.00235789 -0.00131697 0.00390724 -0.00249496 0.000372476 -0.00622895 -0.0019648 0.00323856 0.000911686 0.000244233 0.00137247 0.00236953 -0.00255666 0.00128504 -0.00343044 -0.00129699 0.000442235 -0.000774772 -0.00283994 0.00621787 0.00376516 0.00119781 -0.00246487 -0.000987427 -0.00323107 -7.79312e-05 -0.00199337 0.000625499
internal_weight=2100 1215 885 1182 496 673 389 81 592 433 359 509 294 338 499 225 319 215 229 142 273 95 91 93 84 180 87 268 71 197
internal_count=2100 1215 885 1182 496 673 389 81 592 433 359 509 294 338 499 225 319 215 229 142 273 95 91 93 84 180 87 268 71 197
is_linear=0
shrinkage=0.02


Tree=17
num_leaves=31
num_cat=0
split_feature=28 391 69 391 333 391 167 313 320 392 367 198 379 302 276 269 289 196 28 384 230 333 284 362 298 392 22 267 298 74
split_gain=21.1819 15.2904 12.0477 5.26336 4.86968 4.5469 3.43861 2.37856 2.37708 2.08308 2.07579 1.81024 1.79545 1.33692 1.32854 1.30242 1.27524 1.23244 1.20882 1.15976 1.12958 1.08091 0.987134 0.963833 0.932631 0.90908 0.871997 0.834758 0.777841 1.09971
threshold=0.069346640259027495 0.92247045040130626 -0.26922775804996485 0.017837715800851587 0.43208914995193487 -0.50764188170433033 0.019287913106381897 -1.6279507279396055 2.7511696815490727 -0.42669795453548426 -0.17310380190610883 -2.5901095867156978 1.9077110886573794 -0.30842070281505579 -1.2382744550704954 0.56147798895835888 -0.27632327377796168 0.17320356518030169 0.23692308366298678 0.70116311311721813 0.88663610816001903 -0.90682771801948536 -0.75784099102020253 0.11135468259453775 2.1215925216674809 0.095204565674066557 -0.060271164402365678 -0.30843335390090937 0.88084021210670482 0.043838825076818473
decision_type=2 2 2 2 2 2 2 2 2 2 2 2 2 2 2 2 2 2 2 2 2 2 2 2 2 2 2 2 2 2
left_child=1 4 -2 8 5 7 16 -1 20 17 -7 -6 13 19 -13 28 -3 23 24 27 21 -4 -16 -8 -5 -15 -22 -9 -12 -30
right_child=2 6 3 18 11 10 9 12 -10 -11 15 14 -14 25 22 -17 -18 -19 -20 -21 26 -23 -24 -25 -26 -27 -28 -29 29 -31
leaf_value=-0.0073783303194624537 -0.013904826991260052 0.0034099896735650427 -0.0053737923632497372 0.00019750519166700543 0.0054941058887593578 -0.0042598156995981382 0.0057511173281818628 -0.0006978821950191158 -0.0088805087524301864 0.0036348775308579209 -0.00046711172425846866 -0.0013907394253228809 0.0023902806609466271 0.00075498507447438706 0.0046230493536075726 0.0045899485103372073 -0.0014618910895660519 0.0049506892070876087 -0.002518029399052 -0.0067127015539962392 -0.0023487201002849777 -0.0019494012670141297 0.0013852685487518706 0.010449193333906513 0.0038185875738660498 -0.0024182441697080826 -0.0067376755079940742 -0.0038862822904469976 0.00077420466705245051 0.004539726853577627
leaf_weight=32 38 45 44 78 55 31 38 57 32 110 162 49 35 71 50 34 38 67 37 34 31 216 148 60 43 70 55 79 235 34
leaf_count=32 38 45 44 78 55 31 38 57 32 110 162 49 35 71 50 34 38 67 37 34 31 216 148 60 43 70 55 79 235 34
internal_value=-3.20699e-05 0.0011945 -0.00330281 -0.00250227 9.02853e-05 -0.000666746 0.00480109 -0.00231327 -0.00377804 0.0058722 0.000592318 0.00227114 -0.00180512 -0.00228952 0.0015151 0.000932652 0.00119757 0.00730235 0.000558961 -0.00347454 -0.00325781 -0.00256551 0.00224094 0.00877895 0.0015255 -0.000832166 -0.00524495 -0.00257945 0.000624273 0.00128014
internal_weight=2108 1534 574 536 1176 874 358 378 378 275 496 302 346 311 247 465 83 165 158 170 346 260 198 98 121 141 86 136 431 269
internal_count=2108 1534 574 536 1176 874 358 378 378 275 496 302 346 311 247 465 83 165 158 170 346 260 198 98 121 141 86 136 431 269
is_linear=0
shrinkage=0.02


Tree=18
num_leaves=31
num_cat=0
split_feature=24 154 199 387 178 185 337 386 253 328 337 203 236 140 279 136 134 123 22 141 299 261 326 384 337 294 337 328 320 82
split_gain=21.8895 11.8858 6.29395 5.92314 3.78157 3.22396 2.95165 2.63637 2.00106 1.90038 1.74217 1.709 1.61469 1.86379 1.77644 1.50643 1.40728 1.37545 1.32776 1.29874 1.23593 1.18762 1.13271 1.23582 1.05194 1.0324 1.0257 0.960172 0.815188 0.802511
threshold=-0.024596907198429104 -0.13467560708522794 -0.17833843082189557 1.0000000180025095e-35 -0.070224270224571214 0.26702901721000677 -0.37349317967891688 0.96225464344024669 -1.1453759074211118 3.1519854068756108 0.99552366137504589 1.1005529165267947 1.7082595825195315 -1.0800677537918089 -0.27405975759029383 0.047314297407865531 -0.14588718116283414 -0.015186860691756008 -0.074578221887350069 -0.029548048041760918 -1.188829720020294 0.86601909995079052 3.6667020320892338 -0.83916673064231861 0.14091027528047564 -2.1379408836364742 -0.89931371808052052 2.0826281309127812 1.1306259632110598 0.0077949215192347774
decision_type=2 2 2 2 2 2 2 2 2 2 2 2 2 2 2 2 2 2 2 2 2 2 2 2 2 2 2 2 2 2
left_child=2 -2 6 7 8 17 11 15 -5 18 25 26 13 -6 19 16 -3 -4 -8 -15 -18 -16 23 -19 -10 -7 -1 -27 -21 -22
right_child=1 3 5 4 12 10 9 -9 24 -11 -12 -13 -14 14 21 -17 20 22 -20 28 29 -23 -24 -25 -26 27 -28 -29 -30 -31
leaf_value=0.0012580952561346062 -0.013623410612344742 -0.0015225971372503982 -0.0013322305253573826 -0.0084828475651077245 0.0032961356930215568 0.0017110846092014812 0.0011702527259232155 -0.0041155884529535582 -0.004521041555418855 -0.0016511586274060867 0.0086667177793119232 -0.0054461995697914602 -0.0058280680147987417 0.0018434294203790017 -0.0011344487381121906 -0.0010668868757194921 0.0048938259195004195 0.0069059721827507015 0.0049379868473152858 -0.00047317711047219994 0.0027287450873364621 -0.0033379343227163062 0.00039768128880058175 0.0027560164592236218 -0.00063780109602503657 0.0033851283131950786 -0.00309333845866578 0.0069474418442218733 -0.003739223803083102 -0.00018545130908977788
leaf_weight=55 30 36 33 42 32 41 79 37 103 44 60 37 31 81 181 77 68 38 72 145 102 219 52 124 39 61 33 76 37 59
leaf_count=55 30 36 33 42 32 41 79 37 103 44 60 37 31 81 181 77 68 38 72 145 102 219 52 124 39 61 33 76 37 59
internal_value=6.64367e-06 -0.00157879 0.00260187 -0.0012778 -0.00215135 0.00403372 0.000420158 0.000819932 -0.00469949 0.0019505 0.00569199 -0.00196029 -0.00149441 -0.00128494 -0.00151529 0.00137472 0.00208684 0.00240299 0.00300785 -0.000235404 0.00266253 -0.00235146 0.00298598 0.00380181 -0.00347819 0.00460411 -0.000406171 0.00543283 -0.00117058 0.00167164
internal_weight=2124 1319 805 1289 910 485 320 379 184 195 238 125 726 695 663 342 265 247 151 263 229 400 214 162 142 178 88 137 182 161
internal_count=2124 1319 805 1289 910 485 320 379 184 195 238 125 726 695 663 342 265 247 151 263 229 400 214 162 142 178 88 137 182 161
is_linear=0
shrinkage=0.02


Tree=19
num_leaves=31
num_cat=0
split_feature=28 154 391 391 333 321 391 391 167 15 130 290 307 30 304 366 204 341 205 127 163 177 86 99 239 21 228 163 318 341
split_gain=20.5493 13.0442 10.4719 6.68951 3.77286 3.4746 3.193 2.51011 2.35263 2.23133 2.16981 1.53168 1.52036 1.74924 1.32529 1.29742 1.48433 1.15442 1.29128 1.7321 1.12933 1.06022 1.11565 1.1302 1.04984 1.01175 0.942162 0.885009 0.871448 0.855204
threshold=-0.02502814773470163 -0.12728432565927503 0.95846661925315868 -0.69211912155151356 0.43208914995193487 2.770771980285645 -0.87415349483489979 0.50900454819202434 0.019287913106381897 -0.11105143278837203 0.11157865449786188 0.54005140066146862 -1.8970929384231565 0.44748385250568395 -0.90343907475471485 0.6637430489063264 0.52655711770057689 0.8681190311908723 0.1268512308597565 -0.072877779603004442 0.0047616143710911283 0.053215255960822112 -0.041152365505695336 2.2650740902463443e-05 -2.0502355098724361 0.00023686331405770036 1.6463758349418642 0.014279532246291639 -2.469577312469482 -0.35045386850833887
decision_type=2 2 2 2 2 2 2 2 2 2 2 2 2 2 2 2 2 2 2 2 2 2 2 2 2 2 2 2 2 2
left_child=2 -2 4 5 6 15 11 12 -4 -9 27 20 -5 21 -10 16 24 18 19 -8 -1 22 -14 -24 -3 -17 -11 -6 -16 -12
right_child=1 3 8 7 10 -7 17 9 14 26 29 -13 13 -15 28 25 -18 -19 -20 -21 -22 -23 23 -25 -26 -27 -28 -29 -30 -31
leaf_value=0.00064083662076602473 -0.014443535646971536 -0.002834079988191233 0.0017185103317806081 0.0016644884244816608 0.0022236227583626342 -0.009724959315732121 0.0016305945836938918 -0.002485969173938556 0.0099451355373158176 0.0017695017871769644 0.0032034124468067072 -0.0065447464359529098 -0.0034563135696449678 -0.0051168256585619274 0.0069357067796333542 -0.00070305844464976536 -0.0017458609322894296 0.0024918789186407454 0.0011098772128602362 -0.0025450579816585078 -0.0033221554864818854 0.0022149936156347395 4.6894385529394516e-05 -0.0039063675287697051 -0.007514277562273272 -0.0048462338210083543 0.0057861946686170998 -0.0012146549990687233 0.0039370608549565075 0.0076861528077950851
leaf_weight=50 32 32 65 55 134 38 58 41 32 99 39 31 89 54 80 93 51 102 230 117 64 30 147 34 64 30 30 37 98 37
leaf_count=50 32 32 65 55 134 38 58 41 32 99 39 31 89 54 80 93 51 102 230 117 64 30 147 34 64 30 30 37 98 37
internal_value=-4.16215e-05 -0.00227878 0.00171051 -0.0018084 0.000661317 -0.00417968 -0.000138065 -0.000536957 0.00511086 0.00149408 0.00275559 -0.00273412 -0.00138431 -0.00186469 0.00613476 -0.00333346 -0.00459619 0.000612221 0.000128907 -0.00115834 -0.00160292 -0.00124929 -0.00164767 -0.000730284 -0.00604389 -0.00177496 0.00277769 0.00147423 0.00534686 0.00552692
internal_weight=2093 919 1174 887 899 308 652 579 275 170 247 145 409 354 210 270 147 507 405 175 114 300 270 181 96 123 129 171 178 76
internal_count=2093 919 1174 887 899 308 652 579 275 170 247 145 409 354 210 270 147 507 405 175 114 300 270 181 96 123 129 171 178 76
is_linear=0
shrinkage=0.02


Tree=20
num_leaves=31
num_cat=0
split_feature=24 125 185 238 336 44 51 266 153 389 315 82 369 160 296 325 214 232 122 183 277 298 354 168 77 163 210 100 278 386
split_gain=17.4327 8.60151 5.43785 4.34598 3.32956 4.12213 3.304 2.38207 2.28082 2.1098 1.94604 1.82502 1.82196 1.50583 1.41532 1.49503 1.39462 1.30514 1.53535 1.17469 1.12747 1.01851 0.966354 0.910293 0.858204 0.837611 0.8222 0.891507 0.884522 0.806387
threshold=-0.022276544943451878 0.65946781635284435 0.27415654063224798 0.30185180902481085 2.0334409475326543 -0.11184171587228774 -0.22394484281539914 1.0699726343154909 0.0032728508813306694 -0.65380889177322377 3.7340749502182011 -0.062876541167497621 0.089193381369113936 0.049714257940649993 2.6706187725067143 -1.1210564970970152 -1.0018698275089262 1.8183853030204775 -0.21001224219799039 -0.005085242446511983 0.10157160460948945 1.7872993946075442 0.90144509077072155 0.040944913402199752 -0.055016465485095971 0.0097266738303005713 0.78436517715454113 -0.20557101070880887 0.0053525608964264402 1.0000000180025095e-35
decision_type=2 2 2 2 2 2 2 2 2 2 2 2 2 2 2 2 2 2 2 2 2 2 2 2 2 2 2 2 2 2
left_child=2 3 6 4 5 8 -1 17 -2 13 26 23 -8 21 15 22 -14 18 -4 -17 25 -5 -7 -6 -9 -18 27 -11 29 -29
right_child=1 -3 7 9 11 14 12 24 -10 10 -12 -13 16 -15 -16 19 20 -19 -20 -21 -22 -23 -24 -25 -26 -27 -28 28 -30 -31
leaf_value=-0.0051402104745449676 -0.0043110003389625088 -0.011757656298577786 0.0073429854593070401 -0.002008994870903817 -0.00030515916969122022 -0.0010935085393495357 0.002620155489809501 0.0083702968712896109 -0.010700765649813253 0.0026160491470040548 0.0039128600550958747 0.0023041414987386728 0.0029282901399189012 -0.0045278817528890351 -0.0053342443229813198 -0.0015809533423320813 0.0014936970752210189 0.0011232208698814692 0.0021449260920700102 0.0031908939908801889 -0.0034619468555826213 0.0024367442523891276 -0.0033980436154695992 -0.004532035698648542 0.0043935579127476858 -0.0018227699548006057 0.0019069221037040865 0.0020091904524826643 -0.0018407481793395204 -0.0011967662053260332
leaf_weight=31 70 30 42 53 57 132 238 62 35 34 63 80 51 57 49 42 76 84 52 37 44 31 168 30 46 48 82 64 136 58
leaf_count=31 70 30 42 53 57 132 238 62 35 34 63 80 51 57 49 42 76 84 52 37 44 31 168 30 46 48 82 64 136 58
internal_value=-0.000104192 -0.00151128 0.00227144 -0.00125275 -0.00231022 -0.00307978 0.000980674 0.00445175 -0.00660112 3.14574e-05 0.000718616 0.000153314 0.00141646 -0.00207851 -0.00218921 -0.00175673 9.64692e-05 0.00297508 0.00457206 0.000677567 -0.000787528 -0.000349793 -0.00239801 -0.00183179 0.00678718 0.000201348 0.000162597 -0.000336887 -0.000743164 0.000490327
internal_weight=2082 1308 774 1278 700 533 488 286 105 578 437 167 457 141 428 379 219 178 94 79 168 84 300 87 108 124 374 292 258 122
internal_count=2082 1308 774 1278 700 533 488 286 105 578 437 167 457 141 428 379 219 178 94 79 168 84 300 87 108 124 374 292 258 122
is_linear=0
shrinkage=0.02


Tree=21
num_leaves=31
num_cat=0
split_feature=24 398 392 387 83 37 40 387 33 72 234 362 279 265 316 307 141 222 276 43 122 267 282 255 241 154 265 310 204 392
split_gain=19.6555 11.7686 7.11303 5.551 3.45168 3.44318 2.88335 2.7351 2.82532 2.28496 2.15322 1.91641 1.74883 1.7044 1.5351 1.33904 1.33105 1.29676 1.17258 1.18235 1.15332 1.08924 1.0513 0.909079 0.883909 0.854331 0.730379 0.732977 0.725598 0.699559
threshold=-0.022276544943451878 2.331120610237122 -1.1376736760139463 1.0000000180025095e-35 -0.0032270886003971096 0.13864076882600787 0.090221043676137938 -0.96325200796127308 -0.062224153429269784 0.0013133748434484007 2.1159549951553349 0.12819972634315493 -0.27405975759029383 -0.23219347745180127 0.75305482745170604 -1.6985847949981687 -0.039299730211496346 0.60095414519310009 0.69612291455268871 0.35970251262187963 -0.21001224219799039 -0.90747463703155506 0.66213646531105053 0.19085055589675906 -0.32419656217098231 0.04174469783902169 0.62277710437774669 0.39628112316131597 -2.3358815908432002 0.054770620539784438
decision_type=2 2 2 2 2 2 2 2 2 2 2 2 2 2 2 2 2 2 2 2 2 2 2 2 2 2 2 2 2 2
left_child=2 3 14 9 -4 10 -7 20 -9 11 12 25 16 -11 17 -14 -5 -1 19 23 -6 -20 -17 -10 -12 26 27 -2 -8 -26
right_child=1 -3 4 5 7 6 28 8 18 13 24 -13 15 -15 -16 22 -18 -19 21 -21 -22 -23 -24 -25 29 -27 -28 -29 -30 -31
leaf_value=0.0086902469827468132 -0.00079123110363357957 -0.01359994312748313 -0.0032565173029032502 0.0015474775604998863 0.0062319922949554338 -0.0090155543656425269 -0.0013875913852825761 0.0066029194769833023 -0.002361766912401953 0.00040927801420526945 -0.002371006292938176 0.0060430130031373765 -1.8339202823964033e-05 -0.0045630796943256198 0.0024902851684246124 -0.0058503935164891377 -0.0020626883517600534 0.0039702882937022619 -0.00023239493399159982 0.0013765544868338392 0.0025244639748707417 0.0030978607987317275 -0.0029787700354878964 0.0014500113765737324 0.0019900676482381007 -3.7664381819668897e-05 0.0047711615083473073 0.0032385750572596281 -0.0046206566916200623 -0.00038569071375194096
leaf_weight=81 36 30 56 61 64 45 58 32 107 66 57 34 42 45 39 76 115 40 62 95 78 104 180 31 71 127 33 33 56 153
leaf_count=81 36 30 56 61 64 45 58 32 107 66 57 34 42 45 39 76 115 40 62 95 78 104 180 31 71 127 33 33 56 153
internal_value=-0.000120858 -0.00161467 0.00237229 -0.00131486 0.00140465 -0.00215338 -0.00481357 0.00186993 0.00106684 0.00073492 -0.00158192 0.00174703 -0.00240151 -0.00165163 0.006112 -0.00333091 -0.000808109 0.00721986 0.000592129 -0.000323644 0.00425881 0.00186607 -0.00387003 -0.00149702 -0.000192214 0.0010624 0.00240648 0.001173 -0.00302805 0.000378287
internal_weight=2107 1318 789 1288 629 914 159 573 431 374 755 263 474 111 160 298 176 121 399 233 142 166 256 138 281 229 102 69 114 224
internal_count=2107 1318 789 1288 629 914 159 573 431 374 755 263 474 111 160 298 176 121 399 233 142 166 256 138 281 229 102 69 114 224
is_linear=0
shrinkage=0.02


Tree=22
num_leaves=31
num_cat=0
split_feature=24 105 391 391 337 337 37 283 49 320 289 133 41 377 266 183 33 291 278 239 283 235 391 270 54 282 266 363 155 338
split_gain=18.9573 10.0514 7.46298 6.84782 2.97245 2.46226 2.24401 2.18574 1.98808 1.95171 1.94235 1.64659 1.47416 1.41476 1.35258 1.34755 1.29624 1.22963 1.10081 1.39662 1.19752 1.08408 1.04168 1.03037 0.989257 0.852704 0.84295 0.799469 0.778757 0.771254
threshold=-0.022276544943451878 0.9280611276626588 -0.60852342844009388 0.95846661925315868 -0.19750669598579404 0.77610602974891674 0.13705816119909289 0.75876823067665111 -0.074516352266073213 1.1050188541412356 0.76564335823059093 -0.27936805784702295 -0.28529518842697138 1.8244096636772158 1.2087149620056155 0.11400502920150758 -0.046519441530108445 -1.8125385642051695 -1.0138805508613584 -1.1365247964859007 1.0000000180025095e-35 -2.2176606655120845 0.34085367619991308 -0.1181851029396057 0.020682275295257572 1.267453193664551 0.040534427389502532 2.7147933244705205 -0.010739352554082869 -0.92024233937263478
decision_type=2 2 2 2 2 2 2 2 2 2 2 2 2 2 2 2 2 2 2 2 2 2 2 2 2 2 2 2 2 2
left_child=3 2 6 4 7 10 18 15 16 -8 28 -10 14 17 -6 -1 -4 25 24 20 -20 -14 26 -18 -2 -13 -23 -7 -5 -19
right_child=1 -3 8 5 12 27 9 -9 11 -11 -12 13 21 -15 -16 -17 23 29 19 -21 -22 22 -24 -25 -26 -27 -28 -29 -30 -31
leaf_value=-0.00056836236795715876 0.00092777607555035498 -0.012476736493408681 -0.0048126532902588717 0.0063271246026729193 -0.0013062439717782231 0.0061595619010872075 -0.0033470417998731142 -0.0052916192717384547 0.0036925663401865781 -0.0098424542804851252 -0.0004063499114803366 -0.0029035351646167261 0.0059019511831165461 0.0032189799522360169 0.0034454105784626383 0.0031883655661717057 0.001357824458938205 0.0036236612498760225 -0.0033602509303653446 -0.0053499294822046788 -0.00021590047582978076 -0.00026513639499240046 0.0056998729131051478 -0.0016005731478378358 -0.0028112073081509011 0.0001303503035700747 0.0029186506855222302 0.01084097009152174 0.0029913430383144801 0.0003424038095441314
leaf_weight=160 62 30 35 69 63 54 48 30 66 32 35 79 52 58 36 48 64 31 130 79 77 51 33 164 49 68 92 30 57 222
leaf_count=160 62 30 35 69 63 54 48 30 66 32 35 79 52 58 36 48 64 31 130 79 77 51 33 164 49 68 92 30 57 222
internal_value=9.78943e-05 -0.00140347 -0.00112136 0.00249392 0.00127431 0.00527339 -0.00308965 -0.000424951 7.64307e-05 -0.0061219 0.0037465 0.000787929 0.00250614 0.000355122 0.000455641 0.000320684 -0.0013364 -7.4086e-05 -0.002451 -0.00310401 -0.00220387 0.00338479 0.00258313 -0.00076556 -0.000743309 -0.00151719 0.00179518 0.00804473 0.0048884 0.000769723
internal_weight=2104 1294 1264 810 565 245 477 238 787 80 161 524 327 458 99 208 263 400 397 286 207 228 176 228 111 147 143 84 126 253
internal_count=2104 1294 1264 810 565 245 477 238 787 80 161 524 327 458 99 208 263 400 397 286 207 228 176 228 111 147 143 84 126 253
is_linear=0
shrinkage=0.02


Tree=23
num_leaves=31
num_cat=0
split_feature=28 391 69 291 337 154 337 236 341 337 47 172 44 133 391 343 340 259 240 242 316 135 272 21 246 391 373 388 295 168
split_gain=17.056 13.9554 8.09131 4.78573 3.35453 3.08947 2.7486 2.72336 2.69384 1.86877 1.86411 1.66602 2.0908 1.57333 1.53382 1.33772 1.26023 1.25293 1.23509 1.23056 1.20631 1.15624 1.03448 0.955034 0.928265 0.877693 0.841054 0.837038 0.98275 0.788324
threshold=0.15375345200300219 0.92247045040130626 -0.26922775804996485 -0.35570929944515223 -2.6129702329635616 0.11096773296594621 0.64190387725830089 1.6579061746597292 0.66939935088157665 0.012854463886469604 0.0012542626936919989 0.00016161012899829077 -0.016410761512815949 -0.036635268479585641 0.080205310136079802 0.81481689214706432 -6.2127797603607169 -1.1352389454841612 1.2554000020027163 0.28769980370998388 -0.4005597978830337 0.051113968715071685 1.6634939312934878 -0.00051436899229884137 -1.2939450144767759 -0.67864093184471119 0.62963116168975841 0.81216193735599529 0.50432282686233532 -0.065710254013538347
decision_type=2 2 2 2 2 2 2 2 2 2 2 2 2 2 2 2 2 2 2 2 2 2 2 2 2 2 2 2 2 2
left_child=1 3 -2 4 -1 8 13 14 9 20 18 12 21 -3 17 22 -8 -4 -5 -14 -6 -11 -10 -22 -12 -25 -7 28 -19 -24
right_child=2 6 7 10 5 26 16 -9 15 11 24 -13 19 -15 -16 -17 -18 27 -20 -21 23 -23 29 25 -26 -27 -28 -29 -30 -31
leaf_value=-0.007272544714876197 -0.012852359051639971 0.0043179505319793279 -0.0012558201730522947 0.0018939464000868611 -0.0055647570942892344 -0.0024267980972571034 0.0094448957490650097 -0.0077131610727381138 0.0058754677573839825 -0.002467197354143376 -0.0016905168855787609 -0.0035238725358519604 0.0054302391322443681 0.00098750006986185186 0.00039527315865936025 -0.00084148705329584043 0.0050237163456254884 -0.0084071665396913894 0.0059148600740092138 0.00098707983507351433 0.001840916185756214 0.0016442715858473725 -0.00049056969714417523 -0.0028298497054983964 0.0011218525593479475 -0.00076672184870660526 -0.0071384521718958725 -0.0020843989320565018 -0.0035612407950114233 0.0038888834929093718
leaf_weight=31 35 132 94 288 30 33 42 40 37 66 85 35 47 101 68 44 93 30 33 53 30 44 33 164 100 168 32 46 47 30
leaf_count=31 35 132 94 288 30 33 42 40 37 66 85 35 47 101 68 44 93 30 33 53 30 44 33 164 100 168 32 46 47 30
internal_value=-1.44496e-05 0.000801728 -0.00396674 -0.000121096 -0.00101403 -0.000768092 0.00425175 -0.00293708 -0.000413406 -0.000972466 0.00142445 0.000396174 0.0010766 0.00289497 -0.00221767 0.0020391 0.006517 -0.0030326 0.00234138 0.00314089 -0.00182553 -0.000822615 0.00329821 -0.00148678 -0.000174578 -0.0017967 -0.00489023 -0.00434865 -0.00561431 0.00165037
internal_weight=2111 1751 360 1383 877 846 368 325 781 637 506 245 210 233 285 144 135 217 321 100 392 110 100 362 185 332 65 123 77 63
internal_count=2111 1751 360 1383 877 846 368 325 781 637 506 245 210 233 285 144 135 217 321 100 392 110 100 362 185 332 65 123 77 63
is_linear=0
shrinkage=0.02


Tree=24
num_leaves=31
num_cat=0
split_feature=392 28 337 160 306 278 314 392 265 55 225 374 277 324 200 324 341 19 66 306 394 49 253 246 205 17 383 84 312 188
split_gain=13.8495 7.47464 5.05341 4.89688 2.99929 2.96925 2.46662 2.42338 2.06096 1.70976 1.63341 1.58911 1.53501 1.46647 1.36136 1.3004 1.27707 1.56488 1.17721 1.24807 1.15537 1.10195 1.08253 1.07158 1.04505 0.931778 0.919757 0.832972 0.817676 1.14428
threshold=-0.35324104130268091 0.15375345200300219 -0.12275049835443495 0.066074106842279448 0.14880985766649249 0.79960909485816967 2.3705091476440434 -1.4803026914596555 -0.21174234151840207 -0.47104075551033014 4.1513221263885507 2.1188014745712285 0.36927329003810888 -1.5861958861351011 0.47411076724529272 0.7415413260459901 -0.65489685535430897 -0.036943839862942689 -0.0041377204470336429 -0.7279587686061858 -0.92321288585662831 0.14866061508655551 -0.30008098483085627 -1.0619210600852964 1.4323599934577944 0.19860550016164782 -0.68143168091773976 0.024630412459373478 -2.9397257566452022 0.66273608803749096
decision_type=2 2 2 2 2 2 2 2 2 2 2 2 2 2 2 2 2 2 2 2 2 2 2 2 2 2 2 2 2 2
left_child=1 2 8 4 14 20 -3 25 -1 -9 11 24 21 -13 16 28 -2 27 19 23 22 -10 -5 -11 -6 -4 -26 -18 29 -16
right_child=3 6 7 5 10 -7 -8 9 12 18 -12 13 -14 -15 15 -17 17 -19 -20 -21 -22 -23 -24 -25 26 -27 -28 -29 -30 -31
leaf_value=0.0028581816134484188 -0.0029107184589374814 -0.0081766598625108607 0.0084817160526290541 -0.006639292150735855 -0.0003298496810285459 -0.0083499445409533826 -0.00056098847327610624 0.007355573636790117 -0.0009775243480934909 -3.1698633295794332e-05 0.0019489686420663846 -0.007750317541067489 -0.0044270806559487379 -0.002726527039485518 -0.0025458301810181183 0.0040828151874244215 -0.0031637761315161535 0.0022338510725575574 0.0039048914470582079 -0.0007309896830702201 -0.0008484106433173888 0.0030155103796651252 -0.002053817939758301 0.0040993927187549005 -0.0039556780361489933 0.0045434171223502247 -7.1640528637815162e-05 0.00085074907935717527 0.0013715293672276843 0.0012397516635974171
leaf_weight=93 78 30 54 38 174 45 37 34 93 37 41 30 35 102 62 48 53 76 167 62 81 37 48 76 79 60 35 32 211 62
leaf_count=93 78 30 54 38 174 45 37 34 93 37 41 30 35 102 62 48 53 76 167 62 81 37 48 76 79 60 35 32 211 62
internal_value=0.000166214 0.00220571 0.00278079 -0.00111875 -0.000571327 -0.00388378 -0.00410915 0.00396977 0.000509482 0.00316524 -0.00179023 -0.00216276 -0.000832706 -0.00396693 0.000334917 0.00107192 -0.000845225 0.000178884 0.00270831 0.00153521 -0.00259574 0.000187425 -0.0041848 0.00276971 -0.00131419 0.006523 -0.00278501 -0.00166761 0.000618833 -0.000663405
internal_weight=2110 815 748 1295 1083 212 67 490 258 376 461 420 165 132 622 383 239 161 342 175 167 130 86 113 288 114 114 85 335 124
internal_count=2110 815 748 1295 1083 212 67 490 258 376 461 420 165 132 622 383 239 161 342 175 167 130 86 113 288 114 114 85 335 124
is_linear=0
shrinkage=0.02


Tree=25
num_leaves=31
num_cat=0
split_feature=28 398 391 391 337 323 18 392 230 193 30 238 127 344 313 255 30 306 70 39 384 59 319 8 25 61 277 395 365 339
split_gain=14.0822 9.00938 8.50465 5.10914 3.2562 2.48421 2.38888 2.29384 2.24191 2.61991 1.87357 1.74464 1.60303 1.34834 1.56573 1.30419 1.25836 1.21234 1.15294 1.12239 1.02117 1.11969 0.99277 1.1166 0.973513 0.973221 0.966005 0.898492 0.911977 0.85232
threshold=-0.02502814773470163 2.331120610237122 0.95846661925315868 -0.69211912155151356 -0.094661567360162721 1.4688084125518801 -0.014842856675386427 0.27254594862461096 -0.35744287073612208 -3.1733088493347164 0.24701086431741717 0.41507342457771307 -0.086244355887174592 2.5140122175216679 0.19577563554048541 0.1061573624610901 0.27898322045803076 -0.20311781018972394 0.057980112731456764 -0.55351686477661122 -0.74022719264030445 -0.00058202564832754422 -1.4889069199562071 0.022963657043874267 -0.061926126480102532 -3.902789285348262e-05 1.1106418371200564 1.0000000180025095e-35 -0.49336211383342737 1.4291668534278872
decision_type=2 2 2 2 2 2 2 2 2 2 2 2 2 2 2 2 2 2 2 2 2 2 2 2 2 2 2 2 2 2
left_child=2 3 4 5 8 20 11 10 17 18 22 -4 16 14 -12 27 -6 -1 24 -13 -2 -22 -5 -24 -10 -25 -9 28 -14 -21
right_child=1 -3 6 7 12 -7 -8 26 9 -11 13 19 15 -15 -16 -17 -18 -19 -20 29 21 -23 23 25 -26 -27 -28 -29 -30 -31
leaf_value=0.0027634104043827391 -0.00043042996233063084 -0.012216081547014642 0.0088844245314598086 -0.0010146037155860349 0.0048757800195432669 -0.0082061049892079262 0.0014953144903560062 -0.0013904514793622574 -0.0003099225828367652 -0.0061102344111073764 -0.00036410214875133768 0.0078154302947223194 0.0026383592560887338 0.0019791910471976737 -0.0055657800679144113 0.0026712578672142525 0.00060393185121938593 -0.00090775894124597075 0.0020227042901352411 0.0021005322621203961 -0.0070394378888886423 -0.0028724877332122279 0.00054901727690146525 0.0010476651708736565 -0.0032308772881782942 0.005468371434272418 -0.0051386313437251372 -0.0026149340804536331 -0.00029308245140957097 0.0056564228418800565
leaf_weight=78 54 31 48 36 82 40 84 222 97 48 60 30 58 38 36 104 42 64 39 78 30 180 63 31 85 60 30 41 144 43
leaf_count=78 54 31 48 36 82 40 84 222 97 48 60 30 58 38 36 104 42 64 39 78 30 180 63 31 85 60 30 41 144 43
