tree
version=v4
num_class=1
num_tree_per_iteration=1
label_index=0
max_feature_idx=399
objective=regression
feature_names=Column_0 Column_1 Column_2 Column_3 Column_4 Column_5 Column_6 Column_7 Column_8 Column_9 Column_10 Column_11 Column_12 Column_13 Column_14 Column_15 Column_16 Column_17 Column_18 Column_19 Column_20 Column_21 Column_22 Column_23 Column_24 Column_25 Column_26 Column_27 Column_28 Column_29 Column_30 Column_31 Column_32 Column_33 Column_34 Column_35 Column_36 Column_37 Column_38 Column_39 Column_40 Column_41 Column_42 Column_43 Column_44 Column_45 Column_46 Column_47 Column_48 Column_49 Column_50 Column_51 Column_52 Column_53 Column_54 Column_55 Column_56 Column_57 Column_58 Column_59 Column_60 Column_61 Column_62 Column_63 Column_64 Column_65 Column_66 Column_67 Column_68 Column_69 Column_70 Column_71 Column_72 Column_73 Column_74 Column_75 Column_76 Column_77 Column_78 Column_79 Column_80 Column_81 Column_82 Column_83 Column_84 Column_85 Column_86 Column_87 Column_88 Column_89 Column_90 Column_91 Column_92 Column_93 Column_94 Column_95 Column_96 Column_97 Column_98 Column_99 Column_100 Column_101 Column_102 Column_103 Column_104 Column_105 Column_106 Column_107 Column_108 Column_109 Column_110 Column_111 Column_112 Column_113 Column_114 Column_115 Column_116 Column_117 Column_118 Column_119 Column_120 Column_121 Column_122 Column_123 Column_124 Column_125 Column_126 Column_127 Column_128 Column_129 Column_130 Column_131 Column_132 Column_133 Column_134 Column_135 Column_136 Column_137 Column_138 Column_139 Column_140 Column_141 Column_142 Column_143 Column_144 Column_145 Column_146 Column_147 Column_148 Column_149 Column_150 Column_151 Column_152 Column_153 Column_154 Column_155 Column_156 Column_157 Column_158 Column_159 Column_160 Column_161 Column_162 Column_163 Column_164 Column_165 Column_166 Column_167 Column_168 Column_169 Column_170 Column_171 Column_172 Column_173 Column_174 Column_175 Column_176 Column_177 Column_178 Column_179 Column_180 Column_181 Column_182 Column_183 Column_184 Column_185 Column_186 Column_187 Column_188 Column_189 Column_190 Column_191 Column_192 Column_193 Column_194 Column_195 Column_196 Column_197 Column_198 Column_199 Column_200 Column_201 Column_202 Column_203 Column_204 Column_205 Column_206 Column_207 Column_208 Column_209 Column_210 Column_211 Column_212 Column_213 Column_214 Column_215 Column_216 Column_217 Column_218 Column_219 Column_220 Column_221 Column_222 Column_223 Column_224 Column_225 Column_226 Column_227 Column_228 Column_229 Column_230 Column_231 Column_232 Column_233 Column_234 Column_235 Column_236 Column_237 Column_238 Column_239 Column_240 Column_241 Column_242 Column_243 Column_244 Column_245 Column_246 Column_247 Column_248 Column_249 Column_250 Column_251 Column_252 Column_253 Column_254 Column_255 Column_256 Column_257 Column_258 Column_259 Column_260 Column_261 Column_262 Column_263 Column_264 Column_265 Column_266 Column_267 Column_268 Column_269 Column_270 Column_271 Column_272 Column_273 Column_274 Column_275 Column_276 Column_277 Column_278 Column_279 Column_280 Column_281 Column_282 Column_283 Column_284 Column_285 Column_286 Column_287 Column_288 Column_289 Column_290 Column_291 Column_292 Column_293 Column_294 Column_295 Column_296 Column_297 Column_298 Column_299 Column_300 Column_301 Column_302 Column_303 Column_304 Column_305 Column_306 Column_307 Column_308 Column_309 Column_310 Column_311 Column_312 Column_313 Column_314 Column_315 Column_316 Column_317 Column_318 Column_319 Column_320 Column_321 Column_322 Column_323 Column_324 Column_325 Column_326 Column_327 Column_328 Column_329 Column_330 Column_331 Column_332 Column_333 Column_334 Column_335 Column_336 Column_337 Column_338 Column_339 Column_340 Column_341 Column_342 Column_343 Column_344 Column_345 Column_346 Column_347 Column_348 Column_349 Column_350 Column_351 Column_352 Column_353 Column_354 Column_355 Column_356 Column_357 Column_358 Column_359 Column_360 Column_361 Column_362 Column_363 Column_364 Column_365 Column_366 Column_367 Column_368 Column_369 Column_370 Column_371 Column_372 Column_373 Column_374 Column_375 Column_376 Column_377 Column_378 Column_379 Column_380 Column_381 Column_382 Column_383 Column_384 Column_385 Column_386 Column_387 Column_388 Column_389 Column_390 Column_391 Column_392 Column_393 Column_394 Column_395 Column_396 Column_397 Column_398 Column_399
feature_infos=[-0.44814327359199524:0.23163847625255585] [-0.0014304359210655093:0.00040954226278699934] [-1.4029788970947266:0.71758723258972168] [-0.80180191993713379:0.59379422664642334] [-0.99761974811553955:0.78530770540237427] [-0.51049399375915527:0.44260716438293457] [-0.71250331401824951:0.38449501991271973] [-1.5759310722351074:1.1491352319717407] [-0.28714483976364136:0.3306785523891449] [-0.5350528359413147:0.84059607982635498] [-0.65602266788482666:0.25146880745887756] [-0.26902428269386292:0.20514670014381409] [-0.97476649284362793:1.1380969285964966] [-0.20374663174152374:0.20944629609584808] [-1.5474786758422852:1.969495415687561] [-0.3758125901222229:0.57839810848236084] [-0.024414597079157829:0.024077456444501877] [-1.2117894887924194:1.661515474319458] [-0.6401100754737854:0.34738031029701233] [-0.37310138344764709:0.23770323395729065] [-0.73900693655014038:0.34263229370117188] [-0.0022873657289892435:0.0009734964114613831] [-1.0818426609039307:1.7326713800430298] [-0.20173455774784088:0.30295011401176453] [-0.59893816709518433:0.28392285108566284] [-1.3704088926315308:1.2027661800384521] [-1.5045435428619385:1.6113755702972412] [-0.09886777400970459:0.19480440020561218] [-1.1190165281295776:0.58900207281112671] [-1.8797316551208496:1.873117208480835] [-1.5711159706115723:1.7543220520019531] [-0.99199444055557251:1.0524140596389771] [-1.4778578281402588:0.95497995615005493] [-0.23663137853145599:0.21271646022796631] [-1.6695655584335327:1.654297947883606] [-1.2028799057006836:1.2298243045806885] [-0.39903023838996887:0.42200711369514465] [-0.56687188148498535:0.32482299208641052] [-1.3191177845001221:0.68622153997421265] [-1.193200945854187:1.1665959358215332] [-0.64080017805099487:0.26671111583709717] [-2.1998181343078613:1.731553316116333] [-0.8878750205039978:0.63746345043182373] [-1.116045355796814:1.1914271116256714] [-0.2733103334903717:0.61364525556564331] [-0.99979954957962036:2.4763059616088867] [-0.14342391490936279:0.13906893134117126] [-0.012115731835365295:0.0089721735566854477] [-0.80060082674026489:1.2491333484649658] [-0.32871297001838684:0.65354722738265991] [-0.5096849799156189:0.64533406496047974] [-0.96948552131652832:0.71028667688369751] [-0.12766876816749573:0.14461164176464081] [-0.30679929256439209:0.88198184967041016] [-0.42060530185699463:0.16401110589504242] [-1.0067852735519409:1.6215057373046875] [-0.49358537793159485:0.25758981704711914] [-0.10305183380842209:0.092030562460422516] [-0.80373519659042358:0.4557499885559082] [-0.0069602248258888721:0.0042045572772622108] [-0.33600014448165894:0.14553803205490112] [-0.0020837909542024136:0.0019842800684273243] [-2.2916204929351807:1.7401907444000244] [-0.60102784633636475:0.72024399042129517] [-0.27407738566398621:0.35300186276435852] [-0.2159004807472229:0.18771994113922119] [-0.18674895167350769:0.12455915659666061] [-0.81721258163452148:0.31772398948669434] [-0.87220990657806396:0.56758546829223633] [-0.78469628095626831:0.74447846412658691] [-0.16334627568721771:0.37188223004341125] [-0.72446745634078979:0.54112917184829712] [-0.0071848495863378048:0.012903900817036629] [-1.4368464946746826:1.3258756399154663] [-0.2405148446559906:0.49743103981018066] [-0.18043495714664459:0.38436684012413025] [-0.10865838825702667:0.096834205090999603] [-0.60929363965988159:0.55096638202667236] [-0.76532584428787231:0.63877314329147339] [-0.0027749240398406982:0.0052709388546645641] [-0.27461874485015869:0.074042238295078278] [-0.19580039381980896:0.43411839008331299] [-0.28350892663002014:0.44640845060348511] [-0.011101630516350269:0.013387284241616726] [-0.085606127977371216:0.097062043845653534] [-1.1540817022323608:1.5917301177978516] [-0.25339549779891968:0.46890160441398621] [-0.49550759792327881:0.22187675535678864] [-1.4082646369934082:1.1104276180267334] [-0.51185697317123413:0.15420036017894745] [-0.097358681261539459:0.061431165784597397] [-1.0590094327926636:0.41729205846786499] [-0.0086988406255841255:0.0092494627460837364] [-0.36354073882102966:0.41866391897201538] [-0.80375409126281738:0.84378814697265625] [-0.53124237060546875:0.92259883880615234] [-0.4399229884147644:0.78710085153579712] [-0.36052441596984863:0.17623597383499146] [-0.44396474957466125:1.0166932344436646] [-0.0039886822924017906:0.0052807326428592205] [-0.95198148488998413:1.0380188226699829] [-0.15182587504386902:0.44649937748908997] [-1.0678647756576538:0.81146436929702759] [-0.4072684645652771:0.19430622458457947] [-0.24381420016288757:0.85275739431381226] [-1.0539642572402954:1.9150174856185913] [-0.16480815410614014:0.3261333703994751] [-0.96117854118347168:0.97180497646331787] [-1.2588567733764648:1.524450421333313] [-0.2057209312915802:0.45543447136878967] [-0.077133260667324066:0.075785152614116669] [-0.17848588526248932:0.22551752626895905] [-1.4714491367340088:1.4091099500656128] [-0.63524729013442993:0.36826512217521667] [-1.0594403743743896:1.2407712936401367] [-1.6482484340667725:0.8403393030166626] [-0.47085371613502502:0.85667562484741211] [-0.83119446039199829:0.84673655033111572] [-0.97752910852432251:0.38213738799095154] [-0.33495524525642395:0.20203201472759247] [-0.33744379878044128:0.32687106728553772] [-0.0046652676537632942:0.0094903791323304176] [-1.0911401510238647:1.5440267324447632] [-0.097164027392864227:0.2188844233751297] [-0.45968112349510193:0.25897711515426636] [-0.9981849193572998:1.4062981605529785] [-0.27004453539848328:0.38190257549285889] [-0.83932805061340332:0.37523895502090454] [-1.4986264705657959:1.05901038646698] [-0.20119009912014008:0.58054482936859131] [-0.4292265772819519:0.73996609449386597] [-0.12184926122426987:0.26584064960479736] [-0.69213992357254028:0.37967348098754883] [-0.866324782371521:1.2453082799911499] [-0.41287079453468323:0.76689553260803223] [-0.43512329459190369:0.41865727305412292] [-0.46272072196006775:0.25655484199523926] [-1.3910330533981323:1.0789257287979126] [-0.01505908090621233:0.0090470928698778152] [-0.44569766521453857:0.94323796033859253] [-1.5802158117294312:2.237109899520874] [-0.55390667915344238:0.77389997243881226] [-0.33737024664878845:0.74052858352661133] [-1.4486156702041626:1.4455827474594116] [-1.0039540529251099:0.66413044929504395] [-0.54238098859786987:0.66820311546325684] [-0.44449195265769958:0.21343556046485901] [-0.67407745122909546:0.98858016729354858] [-0.11772117018699646:0.077302441000938416] [-0.45561704039573669:0.17318640649318695] [-0.90689229965209961:1.2482017278671265] [-2.5478408336639404:1.1420470476150513] [-0.268074631690979:0.54383945465087891] [-0.080085337162017822:0.1941777765750885] [-0.72921323776245117:0.2164367139339447] [-0.17103418707847595:0.10020963847637177] [-0.24223129451274872:0.30634981393814087] [-0.69275194406509399:0.80527883768081665] [-2.0739445686340332:2.3232765197753906] [-1.2070804834365845:0.51379561424255371] [-0.20975485444068909:0.17433421313762665] [-0.27104339003562927:0.13661479949951172] [-0.66576993465423584:0.73703116178512573] [-0.10715598613023758:0.089546613395214081] [-0.4663563072681427:0.91905593872070312] [-0.0045453179627656937:0.0036262995563447475] [-0.0056413793936371803:0.013046841137111187] [-1.5113698244094849:2.4732863903045654] [-0.74767857789993286:1.5442444086074829] [-1.0120341777801514:1.0753638744354248] [-0.070733189582824707:0.082916975021362305] [-0.0064458460547029972:0.016234824433922768] [-0.0046537499874830246:0.0042580808512866497] [-0.79110145568847656:0.69537049531936646] [-0.099683359265327454:0.11524774879217148] [-0.6462472677230835:0.86708474159240723] [-0.080933168530464172:0.24555328488349915] [-0.35096272826194763:0.26809966564178467] [-0.15773412585258484:0.28074643015861511] [-0.55719029903411865:0.7582518458366394] [-0.43180739879608154:0.95998674631118774] [-1.0936678647994995:0.98270970582962036] [-0.59737288951873779:0.2707902193069458] [-0.16404341161251068:0.53702396154403687] [-0.32362788915634155:0.28269341588020325] [-0.98787295818328857:0.9409448504447937] [-0.081549994647502899:0.24771571159362793] [-0.74933129549026489:0.27494242787361145] [-1.5198721885681152:2.887784481048584] [-0.12289389222860336:0.13543856143951416] [-1.1197885274887085:2.0122520923614502] [-0.41771510243415833:0.22985786199569702] [-15.515321731567383:8.6023283004760742] [-32.574298858642578:3.6172895431518555] [-7.4738092422485352:4.9723725318908691] [-15.52595043182373:16.864179611206055] [-11.179492950439453:5.9282631874084473] [-7.429469108581543:12.684486389160156] [-14.697796821594238:4.5247220993041992] [-5.5466418266296387:23.772243499755859] [-13.501084327697754:7.8836092948913574] [-7.3347487449645996:4.4197592735290527] [-4.3275818824768066:9.3154354095458984] [-5.172879695892334:12.574857711791992] [-7.986663818359375:8.711176872253418] [-10.08254337310791:4.5913667678833008] [-6.4454126358032227:3.8503377437591553] [-6.0552153587341309:9.9523487091064453] [-9.4538249969482422:7.4535355567932129] [-5.7955217361450195:9.8336696624755859] [-26.466678619384766:3.8293876647949219] [-20.690710067749023:5.4415512084960938] [-6.76611328125:28.214681625366211] [-11.320677757263184:6.2002959251403809] [-11.400447845458984:10.628998756408691] [-5.4750285148620605:5.9675297737121582] [-19.173526763916016:5.4961376190185547] [-7.8888535499572754:10.000677108764648] [-15.553949356079102:5.1244149208068848] [-4.9788246154785156:46.388656616210938] [-11.332855224609375:4.5974907875061035] [-5.3016948699951172:11.857261657714844] [-49.319023132324219:3.6168656349182129] [-4.2776145935058594:19.704471588134766] [-65.759117126464844:8.7200450897216797] [-3.4621987342834473:16.473285675048828] [-4.5472235679626465:8.0732460021972656] [-6.4800567626953125:22.431655883789062] [-15.265363693237305:12.52888011932373] [-25.085416793823242:5.210209846496582] [-8.9319391250610352:6.1634526252746582] [-6.403130054473877:4.5023632049560547] [-7.902824878692627:11.579679489135742] [-6.7751102447509766:5.3289270401000977] [-10.096334457397461:6.9391803741455078] [-7.5061726570129395:5.5129795074462891] [-4.2358531951904297:6.1387777328491211] [-9.4875507354736328:14.513776779174805] [-3.773322582244873:7.8432378768920898] [-9.700465202331543:26.493194580078125] [-12.961297988891602:7.4321932792663574] [-5.0579724311828613:6.4522542953491211] [-9.1523857116699219:12.758601188659668] [-5.2249689102172852:7.0869693756103516] [-11.203882217407227:8.5745296478271484] [-10.082990646362305:4.4403238296508789] [-6.5980157852172852:14.123392105102539] [-9.8221244812011719:5.5666580200195312] [-13.810455322265625:7.0052971839904785] [-12.652334213256836:14.799771308898926] [-8.9037332534790039:6.7414007186889648] [-7.8735795021057129:7.4104666709899902] [-9.7099246978759766:7.6732687950134277] [-9.7409095764160156:4.757901668548584] [-3.1503450870513916:20.427036285400391] [-9.9357213973999023:8.1212530136108398] [-12.61676025390625:4.5887413024902344] [-15.84541130065918:5.6746454238891602] [-39.1492919921875:2.8841431140899658] [-4.9449868202209473:12.020373344421387] [-13.244409561157227:7.1550698280334473] [-3.210252046585083:20.993904113769531] [-4.7036452293395996:7.123542308807373] [-4.8526530265808105:14.972378730773926] [-5.8162269592285156:8.3380537033081055] [-7.5168557167053223:9.5996417999267578] [-12.789263725280762:5.0731019973754883] [-5.8808374404907227:14.521151542663574] [-8.4076728820800781:10.923816680908203] [-8.3405828475952148:12.453100204467773] [-5.5007462501525879:9.3667764663696289] [-5.1942729949951172:5.858128547668457] [-7.5481133460998535:18.521440505981445] [-5.4339413642883301:6.0751433372497559] [-6.1391830444335938:12.160263061523438] [-5.7488784790039062:7.9542717933654785] [-6.3945832252502441:8.6555204391479492] [-6.2425546646118164:5.4394245147705078] [-14.299779891967773:6.8555536270141602] [-8.7074899673461914:10.788498878479004] [-6.3352065086364746:12.887286186218262] [-5.8888578414916992:4.181145191192627] [-16.211206436157227:6.1319265365600586] [-8.5081033706665039:6.8593897819519043] [-5.0901947021484375:9.5682830810546875] [-2.6366298198699951:8.7690601348876953] [-5.2223043441772461:12.785155296325684] [-15.458727836608887:4.4669756889343262] [-4.7717657089233398:14.404508590698242] [-11.022819519042969:14.013998031616211] [-10.824398040771484:6.6269588470458984] [-9.4096384048461914:14.036972045898438] [-5.664947509765625:15.994059562683105] [-12.75710391998291:2.8137197494506836] [-8.1540937423706055:13.685563087463379] [-5.4567852020263672:6.0142359733581543] [-9.9031715393066406:11.144075393676758] [-20.599300384521484:8.7073640823364258] [-5.6301279067993164:9.0970315933227539] [-31.227910995483398:5.2082381248474121] [-7.6109991073608398:8.4140005111694336] [-6.5933175086975098:17.001039505004883] [-15.815260887145996:6.700049877166748] [-5.5585579872131348:9.2139892578125] [-6.853325366973877:13.236798286437988] [-4.8538789749145508:28.705896377563477] [-6.0052237510681152:10.760785102844238] [-9.3391208648681641:4.1734113693237305] [-9.6956491470336914:7.2271971702575684] [-8.0131359100341797:8.4360437393188477] [-16.187658309936523:5.0061526298522949] [-15.140521049499512:11.270476341247559] [-7.6763906478881836:13.120376586914062] [-9.0908946990966797:6.9029979705810547] [-9.7705774307250977:15.863713264465332] [-18.637277603149414:7.7317166328430176] [-8.0303401947021484:7.3169708251953125] [-12.247947692871094:5.3028683662414551] [-8.0814018249511719:10.442595481872559] [-4.6180791854858398:10.243279457092285] [-4.5656542778015137:12.194652557373047] [-7.2902736663818359:6.3134965896606445] [-14.186604499816895:6.1118025779724121] [-4.8643589019775391:5.7337913513183594] [-7.9400372505187988:5.369870662689209] [-8.3188438415527344:7.5616397857666016] [-8.05987548828125:14.670999526977539] [-8.0995759963989258:2.9918115139007568] [-4.6543498039245605:10.916524887084961] [-20.065771102905273:17.458358764648438] [-18.244575500488281:5.5995826721191406] [-6.1365108489990234:8.4019966125488281] [-13.200108528137207:6.64697265625] [-6.6744661331176758:9.3753137588500977] [-5.0840134620666504:15.749734878540039] [-5.9541792869567871:15.383813858032227] [-57.667045593261719:5.3998231887817383] [-6.0198793411254883:5.5740413665771484] [-6.5200653076171875:7.5214262008666992] [-9.8568973541259766:6.9538030624389648] [-10.299861907958984:20.794748306274414] [-5.6248869895935059:8.3194131851196289] [-7.4078774452209473:10.881197929382324] [-15.897119522094727:4.7634601593017578] [-4.9751110076904297:8.3260459899902344] [-8.8086528778076172:5.7996082305908203] [-7.1797246932983398:10.662755966186523] [-9.8801908493041992:5.1913671493530273] [-6.1070137023925781:4.2637820243835449] [-6.1314778327941895:4.5837993621826172] [-12.094876289367676:7.3000988960266113] [-7.9375777244567871:9.8818931579589844] [-5.0810408592224121:47.730514526367188] [-6.1763820648193359:8.38885498046875] [-6.0407543182373047:23.864864349365234] [-31.768854141235352:3.780465841293335] [-64.826362609863281:6.6857929229736328] [-18.056129455566406:5.794771671295166] [-6.2149577140808105:11.924053192138672] [-4.656893253326416:11.325595855712891] [-16.692815780639648:4.7319169044494629] [-7.1221833229064941:5.2559618949890137] [-15.600410461425781:8.7585000991821289] [-6.1362576484680176:10.221014022827148] [-5.6537280082702637:8.6897687911987305] [-4.8158712387084961:7.8463630676269531] [-12.97706127166748:10.073592185974121] [-4.4467954635620117:33.1724853515625] [-7.0784974098205566:23.056896209716797] [-9.3823633193969727:6.4388971328735352] [-3.810380220413208:5.4866595268249512] [-2.0080323219299316:57.938335418701172] [-6.5500946044921875:7.1768326759338379] [-3.5313680171966553:41.609657287597656] [-1.9997702836990356:20.267793655395508] [-27.670070648193359:3.7055747509002686] [-6.706479549407959:9.7032384872436523] [-8.3094244003295898:6.6692914962768555] [-11.396894454956055:12.009708404541016] [-4.757598876953125:16.604534149169922] [-12.465887069702148:4.5658917427062988] [-11.797931671142578:5.7878026962280273] [-6.9614620208740234:7.0195837020874023] [-26.464244842529297:4.2350602149963379] [-1.4043614864349365:6.6031174659729004] [-1.727409839630127:6.0601158142089844] [-1.3214609622955322:9.0590639114379883] [-1.3350194692611694:6.1003303527832031] [-2.0025291442871094:5.5033135414123535] [-1.8596886396408081:4.8932380676269531] [-0.71775519847869873:8.8326215744018555] [-1.3228062391281128:2.3971786499023438] [-4.3940672874450684:5.9613180160522461] [-1.9903242588043213:5.5355358123779297] [-1.9222637414932251:6.8693838119506836] [-0.33559334278106689:14.458232879638672] none [-4.3325681686401367:3.65838623046875] [-3.4245080947875977:3.8208508491516113] [-2.7520947456359863:4.6152410507202148]
tree_sizes=2684 2919 2913 2909 2918 2919 2905 2911 2924 2913 2906 2914 2903 2921 2928 2924 2916 2909 2921 2930 2929 2922 2925 2935 2923 2932 2914 2927 2926 2930 2917 2931 2938 2932 2916 2916 2927 2935 2932 2928 2915 2952 2942 2941 2930 2943 2946 2936 2942 2932 2927 2943 2921 2935 2931 2933 2937 2934 2941 2950 2940 2956 2932 2947 2950 2934 2949 2945 2940 2953 2958 2929 2954 2942 2934 2941 2953 2946 2961 2936 2955 2943 2958 2934 2964 2952 2942 2945 2959 2956 2967 2957 2958 2963 2960 2962 2958 2963 2983 2955 2957 2942 2957 2967 2963 2965 2975 2969 2963 2969 2959 2948 2948 2964 2972 2979 2977 2970 2960 2957 2970 2967 2968 2967 2959 2952 2952 2959 2958 2972 2975 2973 2952 2986 2959 2974 2972 2966 2964 2959 2970 2972 2980 2973 2959 2973 2970 2961 2968 2971 2968 2972 2962 2966 2976 2982 2971 2968 2975 2976 2964 2983 2977 2970 2961 2987 2981 2980 2976 2968 2965 2958 2978 2981 2985 2960 2975 2964 2966 2963 2978 2973 2980 2987 2972 2953 2977 2970 2978 2987 2979 2984 2973 2980 2967 2964 2981 2978 2959 2967 2976 2970 2981 2971 2971 2971 2953 2961 2959 2972 2961 2976 2967 2975 2971 2977 2974 2976 2991 2989 2975 2962 2994 2986 2981 2976 2964 2974 2963 2976 2979 2983 2982 2972 2987 2987 2992 2980 2975 2980 2999 2989 2982 2969 2987 2981 2989 2981 3000 2981 2960 2981 2985 2986 2965 2982 2976 2974 2988 3005 2981 2984 3005 2970 2985 2986 2990 2981 2986 2972 2991 2979 2983 2980 2989 2991 2995 2983 2995 2987 2977 2987 3004 2979 2981 3002 2986 2991 2997 2981 2979 3004 2981 2994 2979 2995 2988 2997 2999 2984 3004 2991 3013 3006 2985 2988 2990 3005 3004 2999 3010 2989 2988 2980 3016 3006 3002 2981 3007 2993 2994 3025 3005 2999 3010 2999 3005 2989 3029 2997 2992 3003 2992 2993 2997 3004 3001 3010 3006 2990 3024 3019 3012 3003 3007 3010 3009 3005 3005 2991 3027 3010 3023 3015 3028 2989 3016 3005 3015 3009 3005 3012 3029 3013 3004 3014 3033 3017 3022 2997 3007 3017 3016 3001 3027 3018 3026 3007 3007 3010 3012 3013 2999 3020 3014 3040 3010 3005 3007 3007 3011 3017 3010 3027 3002 3014 3026 3006 3035 3019 3008 3010 3000 3027 3009 3023 3034 3021 3025 3016 3021 3020 3006 3008 3041 3011 3020 3025 3017 3028 3029 3026 3030 3009 3023 3022 3018 3026 3007 3009 3020 3032 3008 3038 3024 3038 3023 2995 3032 3025 3004 3022 3034 3010 3019 3024 3032 3021 3012 3035 3007 3029 3045 3022 3012 3028 3020 3015 3036 3017 3025 3020 3032 3022 3040 3002 3023 3006 3022 3022 3026 3025 3036 3013 3019 3011 3022 3019 3019 3014 3012 3009 3011 3018 3029 3023 3045 3030 3011 3019 3031 3024 3035 3034 3036 3007 3006 3043 3024 3014 3024 3023 3037 3010 3029 3026 3017 3020 3031 3030 3019 3018 3016 3030 3010 3035 3025 3014 3020 3021 3016 3049 3024 3024 3011 3019 3031 3034 3026 3012 3019 3026 3010 3029 3038 3027 3027 3004 3038 3026 3016 3039 3031 3018 3035 3032 3008 3023 3032 3027 3014 3005 3013 3031 3015 3025 3027 3022 3011 3018 3021 3020 3022 3025 3017 3026 3019 3032 3026 3026 3027 3041 3022 3022 3013 3027 3024 3016 3014 3004 3039 3030 3030 3029 3012 3024 3036 3029 3027 3023 3026 3031 3033 3019 3041 3022 3020 3043 3036 3025 3021 3018 3030 3027 3006 3017 3024 3021 3020 3036 3033 3018 3028 3024 3020 3003 3036 3020 3028 3012 3030 3025 3017 3026 3019 3031 3020 3036 3037 3020 3008 3028 3017 3016 3030 3021 3016 3030 3033 3013 3036 3022 3027 3013 3021 3031 3033 3035 3034 3020 3043 3032 3028 3026 3021 3031 3008 3016 3023 3019 3021 3004 3028 3039 3030 3024 3029 3021 3049 3041 3021 3034 3042 3027 3050 3012 3024 3060 3033 3023 3029 3053 3040 3027 3037 3029 3031 3031 3031 3028 3033 3046 3036 3051 3038 3030 3028 3032 3025 3024 3042 3055 3021 3031 3012 3017 3025 3046 3046 3044 3026 3031 3031 3047 3021 3040 3050 3063 3048 3036 3042 3051 3043 3020 3028 3043 3039 3045 3035 3039 3034 3027 3041 3042 3038 3026 3048 3044 3040 3053 3046 3040 3034 3043 3053 3047 3044 3036 3052 3045 3040 3038 3042 3048 3039 3051 3028 3047 3048 3057 3048 3032 3066 3046 3035 3061 3039 3035 3056 3058 3056 3039 3034 3060 3033 3043 3048 3035 3035 3056 3049 3055 3044 3053 3046 3043 3078 3045 3046 3034 3053 3062 3039 3051 3056 3053 3041 3050 3045 3055 3043 3064 3055 3047 3050 3037 3053 3052 3051 3041 3072 3049 3054 3041 3043 3049 3061 3048 3052 3051 3044 3049 3049 3047 3045 3047 3033 3057 3069 3058 3061 3057 3060 3062 3056 3056 3052 3053 3050 3046 3069 3054 3035 3046 3042 3063 3058 3074 3053 3045 3044 3041 3064 3062 3056 3050 3052 3049 3042 3073 3054 3048 3052 3056 3055 3056 3050 3056 3046 3062 3057 3054 3043 3053 3042 3044 3046 3040 3048 3080 3043 3044 3053 3052 3057 3046 3070 3049 3048 3058 3053 3047 3058 3045 3049 3051 3053 3055 3055 3062 3042 3064 3047 3051 3079 3047 3050 3057 3049 3064 3045 3066 3049 3051 3068 3048 3069 3066 3053 3062 3049 3050 3050 3073 3059 3042 3045 3042 3050 3057 3044 3041 3052 3043 3055 3051 3059 3072 3056 3041 3065 3043 3060 3061 3062 3047 3077 3052 3064 3061 3064 3073 3039 3047 3050 3063 3043 3067 3046 3058 3061 3058 3076 3057 3050 3053 3063 3061 3059 3059 3050 3058 3042 3070 3065 3049 3067 3045

Tree=0
num_leaves=31
num_cat=0
split_feature=24 398 392 306 70 296 392 228 50 179 306 372 338 94 386 220 338 367 9 287 374 304 122 195 317 372 298 320 279 131
split_gain=37.5976 16.62 8.73066 8.68402 5.81512 5.09585 4.34651 3.47648 4.81399 3.44523 2.88843 2.79884 2.67906 2.39895 1.92301 1.85395 1.67528 1.63857 1.61226 1.55302 1.53162 1.49243 1.46414 1.4509 1.42281 1.27821 1.20888 1.11159 1.09608 1.0867
threshold=-0.017883920110762116 2.1842894554138188 -0.099309187382459627 0.28196918964385992 -0.0326151605695486 -1.834049344062805 0.19066872447729113 -2.4551055431365962 0.12951676547527316 0.07155636698007585 -0.76170575618743885 -0.2558820098638534 0.47601774334907537 -0.073746610432863222 1.0000000180025095e-35 -0.37843240797519678 -0.051143387332558625 1.575315594673157 0.07960947230458261 -4.125485658645629 1.1862772107124331 0.22338667511940005 -0.026081047020852562 0.16579331457614901 1.0000000180025095e-35 1.706260144710541 1.7872993946075442 0.23830521851778033 0.02808378636837006 -0.059431653469800942
decision_type=2 2 2 2 2 2 2 2 2 2 2 2 2 2 2 2 2 2 2 2 2 2 2 2 2 2 2 2 2 2
left_child=2 3 5 6 7 9 14 -5 16 20 26 -8 13 -7 22 -11 -9 -16 -14 -12 25 -6 -2 -13 -18 -1 -4 -24 -26 -23
right_child=1 -3 10 4 21 12 11 8 -10 15 19 23 18 -15 17 -17 24 -19 -20 -21 -22 29 27 -25 28 -27 -28 -29 -30 -31
leaf_value=1.0260313762702591 1.0243101126658594 1.0051785118778409 1.0214749472088931 1.0212840938171117 1.0175337133431785 1.0217261528627692 1.0146591893255723 1.0184852756999268 1.0093507969291344 1.0332063787736061 1.0200652909841754 1.0229247893475251 1.0194701545224241 1.0278532806504155 1.0168767277115025 1.0271920112617607 1.0115383609657853 1.0216520440964447 1.0234132141659995 1.0150698421436746 1.0279098519496401 1.0175536403174155 1.0234248697333819 1.0189328987806161 1.0178050273579797 1.0207156073538914 1.0259877721602908 1.0186591914024339 1.0145140456178903 1.0214775228244737
leaf_weight=33 140 35 78 38 98 38 54 82 51 51 73 42 60 83 42 49 38 81 127 36 51 34 34 212 77 38 33 41 98 129
leaf_count=33 140 35 78 38 98 38 54 82 51 51 73 42 60 83 42 49 38 81 127 36 51 34 34 212 77 38 33 41 98 129
internal_value=1.02042 1.0184 1.024 1.01878 1.01714 1.02538 1.02042 1.01558 1.01496 1.02769 1.02064 1.01871 1.02368 1.02598 1.02198 1.03045 1.01599 1.01999 1.02215 1.01835 1.0253 1.01946 1.02312 1.01961 1.01506 1.02327 1.02289 1.02084 1.01592 1.02063
internal_weight=2076 1326 750 1291 645 530 646 384 346 222 220 308 308 121 338 100 295 123 187 109 122 261 215 254 213 71 111 75 175 163
internal_count=2076 1326 750 1291 645 530 646 384 346 222 220 308 308 121 338 100 295 123 187 109 122 261 215 254 213 71 111 75 175 163
is_linear=0
shrinkage=1


Tree=1
num_leaves=31
num_cat=0
split_feature=28 86 391 392 139 391 111 238 29 391 28 223 102 392 352 144 85 309 33 31 157 206 47 94 289 64 310 106 213 171
split_gain=41.4434 21.4992 21.0196 9.21311 5.69242 5.35346 3.64213 3.29295 2.942 2.59196 2.52111 2.44613 2.32305 2.2701 2.12141 2.02227 1.98248 2.90267 1.85012 1.83881 1.68493 1.67608 1.57941 1.43773 1.37364 1.26792 1.24613 1.39283 1.24149 1.16912
threshold=0.027614013291895393 -0.12525854259729383 0.87352478504180919 0.094233725219964995 -0.10105825588107108 0.15391508489847186 0.05080667510628701 -0.16855861991643903 1.4034054875373843 -0.97657391428947438 0.24577642232179644 -0.46272154152393336 -0.18990564346313474 -0.32798004150390619 1.9165901541709902 -0.099226731806993471 -0.29337322711944575 -1.8792003393173216 -0.036967603489756577 -0.014887146651744841 0.094008572399616255 0.25577750802040106 -0.0021162643097341056 0.10235073789954187 -0.70669439435005177 0.013324071653187277 -3.5074627399444576 -0.025607070885598656 -0.27182869613170618 -0.0003141860215691849
decision_type=2 2 2 2 2 2 2 2 2 2 2 2 2 2 2 2 2 2 2 2 2 2 2 2 2 2 2 2 2 2
left_child=2 -2 3 8 -4 6 14 24 9 28 20 18 29 15 19 -6 17 -8 -11 -3 21 -7 -13 -14 -5 -24 -16 -28 -1 -9
right_child=1 5 4 7 13 10 16 12 -10 11 -12 22 23 -15 26 -17 -18 -19 -20 -21 -22 -23 25 -25 -26 -27 27 -29 -30 -31
leaf_value=0.0013418431918812441 -0.015256086478009821 0.0030949683507787997 0.0007518036998808384 -0.0013348613285022427 0.010920622222921225 1.8245129397621862e-05 -0.013572242269010255 0.0043173251352272932 0.0077223661592385421 0.0053451477885246282 -0.0046687186060144622 0.00099774594866104574 -0.00056144568778574474 0.0048188419175449384 -0.0014641482199384077 0.0064068000778471201 -0.0036490334966715349 -0.004515909941401333 0.00074022284928630569 -0.0021828464075074262 -0.0022253315852811704 0.0049638494051559351 0.0032275614381900857 -0.004717466314120785 -0.005600900719422968 0.0070806010596051409 -0.0041023778195119053 -0.0089725539600476623 -0.0028944788489979312 -0.00046469790253063874
leaf_weight=49 58 30 58 47 101 52 31 48 34 38 32 49 123 87 51 86 45 30 282 153 37 56 75 44 91 72 128 30 59 34
leaf_count=49 58 30 58 47 101 52 31 48 34 38 32 49 123 87 51 86 45 30 282 153 37 56 75 44 91 72 128 30 59 34
internal_value=6.26486e-05 -0.0037731 0.00210699 0.000709587 0.00647487 -0.00274426 -0.00380246 -0.00173352 0.00214739 0.00181992 0.000242258 0.00240811 -0.000350785 0.0076721 -0.00288663 0.00893451 -0.00707313 -0.00940307 0.00131686 -0.00129353 0.00137483 0.00262626 0.00415844 -0.00169931 -0.0041878 0.00518447 -0.00425607 -0.00512769 -0.000982993 0.00237068
internal_weight=2110 733 1377 1045 332 675 498 387 658 624 177 516 249 274 392 187 106 61 320 183 145 108 196 167 138 147 209 158 108 82
internal_count=2110 733 1377 1045 332 675 498 387 658 624 177 516 249 274 392 187 106 61 320 183 145 108 196 167 138 147 209 158 108 82
is_linear=0
shrinkage=0.02


Tree=2
num_leaves=31
num_cat=0
split_feature=75 387 112 392 71 152 12 325 318 113 286 34 113 366 103 230 213 5 334 122 311 32 346 166 203 31 213 142 346 240
split_gain=34.6244 27.1233 11.0263 10.1453 4.95333 4.4855 4.10503 3.04952 2.78073 2.61437 2.44391 2.0932 2.06714 1.96061 1.90999 1.82667 1.65728 1.61327 1.57621 1.49975 1.44689 1.40259 1.35052 1.34488 1.32441 1.3201 1.20549 1.04905 1.01878 1.79404
threshold=-0.064785990864038454 -0.96325200796127308 0.43259048461914068 0.094233725219964995 0.048351731151342399 -0.082871895283460603 0.1754979342222214 -1.0996543765068052 -0.11418605223298071 -0.037244113162159913 1.3738807439804079 -0.12479613721370696 -0.049250066280364983 0.91496190428733837 -0.0012350045144557951 -0.30645552277564997 -0.0183484423905611 -0.073962651193141923 1.3046258091926577 -0.073332656174898134 0.036222830414772041 0.05732757784426213 2.2898616790771489 -0.0015768320299684999 0.15075234323740008 1.0000000180025095e-35 -1.340052008628845 0.036596633493900306 2.4223104715347294 -0.3459081351757049
decision_type=2 2 2 2 2 2 2 2 2 2 2 2 2 2 2 2 2 2 2 2 2 2 2 2 2 2 2 2 2 2
left_child=2 6 10 4 13 12 19 11 25 14 28 -7 -5 17 -6 -13 20 21 -16 26 22 -3 -11 -12 -18 -9 -2 -28 29 -1
right_child=1 3 -4 5 9 7 -8 8 -10 16 23 15 -14 -15 18 -17 24 -19 -20 -21 -22 -23 -24 -25 -26 -27 27 -29 -30 -31
leaf_value=-0.0085012783757743553 0.0035465776809115905 0.001978238289510565 -0.017500055353431142 -0.0084157711147951585 0.0011575711170598022 -0.0066574184535110881 0.0095242335370608749 0.0033789436789471417 -0.0037869515715822301 -0.00043997131227966279 -0.010959537075116084 0.0010041373865979334 -0.0019671430241535691 0.0059844587654320162 -0.001959321836087232 -0.0029313197718024396 0.00067994649318279697 0.0013945037176156239 -0.00695296690488855 0.0019620665785536839 0.0047875864058732984 0.0074819370081011007 0.0038530177328475685 -0.0049196549994604925 -0.0040443037509133939 1.2340928175641845e-05 0.0042119412852281877 0.0094533724564573041 -0.00043534951895708219 -0.003133667414120557
leaf_weight=33 65 40 32 58 51 45 103 75 52 91 37 60 32 65 94 205 62 250 34 65 54 36 41 33 36 118 31 44 30 104
leaf_count=33 65 40 32 58 51 45 103 75 52 91 37 60 32 65 94 205 62 250 34 65 54 36 41 33 36 118 31 44 30 104
internal_value=-0.000116434 0.000882424 -0.00678323 -0.000230957 0.00119792 -0.0021207 0.00626765 -0.00143673 0.000231434 -0.000202904 -0.0052019 -0.00274816 -0.00621553 0.0028493 -0.00208315 -0.00203943 0.000988463 0.00219151 -0.00337232 0.00455521 0.00208972 0.00471025 0.000931063 -0.00832791 -0.00110167 0.00134184 0.00571458 0.00745259 -0.00380855 -0.00453031
internal_weight=2076 1807 269 1499 854 645 308 555 245 463 237 310 90 391 179 265 284 326 128 205 186 76 132 70 98 193 140 75 167 137
internal_count=2076 1807 269 1499 854 645 308 555 245 463 237 310 90 391 179 265 284 326 128 205 186 76 132 70 98 193 140 75 167 137
is_linear=0
shrinkage=0.02


Tree=3
num_leaves=31
num_cat=0
split_feature=24 39 391 391 333 140 75 333 37 391 384 315 270 318 180 382 150 72 285 261 281 127 175 46 299 392 381 167 36 166
split_gain=37.368 17.4368 12.9872 11.4462 4.38077 6.58984 4.35006 4.1844 3.29754 3.02213 2.65101 2.45211 2.23346 2.12626 2.05363 1.94796 1.89831 1.98595 1.80246 1.60754 1.58109 1.56728 1.58656 1.46442 1.44117 1.30748 1.29176 1.26072 1.24748 1.19957
threshold=-0.017883920110762116 -0.58649343252181996 0.95846661925315868 -0.37952432036399836 -1.4743707776069639 -0.1182742193341255 -0.071808636188507066 2.3678464889526372 0.15248977392911914 -0.34811910986900324 0.64453300833702099 3.1152100563049321 0.366426631808281 -2.6232753992080684 0.024461306631565097 -1.0501016378402708 0.03271914832293988 0.0012321095564402642 1.7877337932586672 0.018362564966082576 -1.0815783739089964 -0.077200036495923982 0.083059683442115798 0.0095606781542301195 -0.93878290057182301 -1.3021923899650572 -1.8484565019607542 -0.21558747440576551 0.068032734096050276 -0.0017181818839162586
decision_type=2 2 2 2 2 2 2 2 2 2 2 2 2 2 2 2 2 2 2 2 2 2 2 2 2 2 2 2 2 2
left_child=2 -2 7 4 5 -3 12 9 11 13 16 18 -5 27 -4 -12 17 24 -6 -18 -17 -11 -23 -15 -8 -16 -20 -1 -29 -28
right_child=1 3 14 6 8 -7 10 -9 -10 21 15 -13 -14 23 25 20 19 -19 26 -21 -22 22 -24 -25 -26 -27 29 28 -30 -31
leaf_value=0.0038943739729317413 -0.016260066926479341 -0.0033646931157757837 0.0038851835420157048 -0.00027201519746865549 -0.0057605021285973947 -0.01508077786071226 0.0062006439546459036 0.0072167599499840035 -0.0075112537493736576 0.0049236888315567036 0.0012529315728170333 0.00070734004290508377 -0.007107720413123784 -0.004973261267402951 0.012024865162869294 -0.00023589507357904779 0.0020606004128232601 -0.00057192638081808881 0.0014167532285280298 -0.0018941760110249232 -0.0054740411491895269 0.0033624295806415224 -0.00056687527610473846 0.00017562464988302618 0.0024225711969006127 0.0074624164703373727 -0.0054985011822798035 -0.0011820051147757719 0.0027669984283663026 -0.0021965593132422345
leaf_weight=46 32 52 45 33 79 30 59 52 56 95 62 82 44 47 46 40 73 58 31 89 53 94 71 40 135 102 53 94 46 259
leaf_count=46 32 52 45 33 79 30 59 52 56 95 62 82 44 47 46 40 73 58 31 89 53 94 71 40 135 102 53 94 46 259
internal_value=-6.83993e-05 -0.00211664 0.00340329 -0.00174059 -0.00362746 -0.00790808 0.000140005 0.00190575 -0.00297474 0.00136256 0.000748159 -0.00244299 -0.00425919 -0.000109237 0.00787635 -0.00147001 0.00158171 0.00266069 -0.00305558 -0.000108689 -0.00327347 0.00289698 0.0016851 -0.00265521 0.00362312 0.0090219 -0.0024028 0.0010972 0.000136221 -0.00278892
internal_weight=2098 1320 778 1288 642 82 646 585 560 533 569 504 77 273 193 155 414 252 422 162 93 260 165 87 194 148 343 186 140 312
internal_count=2098 1320 778 1288 642 82 646 585 560 533 569 504 77 273 193 155 414 252 422 162 93 260 165 87 194 148 343 186 140 312
is_linear=0
shrinkage=0.02


Tree=4
num_leaves=31
num_cat=0
split_feature=28 391 25 140 391 291 167 75 247 299 397 334 118 40 391 193 161 40 140 367 238 167 266 310 277 384 306 312 1 234
split_gain=32.918 17.828 13.8786 6.90411 5.59596 5.03801 3.95566 3.49102 2.55923 2.5579 2.52656 2.48727 2.59473 3.00363 2.47816 2.14725 2.18141 1.85103 1.81165 1.60461 1.52216 1.58688 1.45655 1.41819 1.35556 1.4413 1.09057 1.02859 1.02251 1.04108
threshold=0.027614013291895393 0.87352478504180919 -0.52956369519233693 -1.0939981341361997 -0.40690085291862482 -2.6913264989852901 0.24880135804414752 -0.067432533949613557 -0.04379534721374511 -1.0125740766525266 -1.7353769540786741 0.74505379796028148 0.15764338523149493 0.10098712891340257 -0.3147683292627334 -3.3215911388397212 -0.030971081927418705 -0.028521910309791561 -0.49569961428642267 2.946393728256226 0.23077801614999774 -0.21989941596984861 -0.25006777793169016 -0.3711018562316894 -0.38382285833358759 -0.56247135996818531 -0.60424271225929249 -1.9363715052604673 -0.00032098323572427029 2.7938830852508549
decision_type=2 2 2 2 2 2 2 2 2 2 2 2 2 2 2 2 2 2 2 2 2 2 2 2 2 2 2 2 2 2
left_child=1 3 -2 10 11 8 17 -6 -5 -9 -1 -4 -13 -14 20 16 -16 -3 -11 23 22 -22 -7 -18 -24 -26 -23 -10 -8 -30
right_child=2 6 4 5 7 14 28 9 27 18 -12 12 13 -15 15 -17 19 -19 -20 -21 21 26 24 -25 25 -27 -28 -29 29 -31
leaf_value=0.0099162127032424458 -0.015199051299745119 0.0058191348897599724 -0.003238921854684882 -0.0066849496408745088 -0.0050172498760580574 0.0013194613583871852 0.011481638138110822 0.0039516086810854854 -0.0044172669667750597 -0.0053012583954841833 0.0032609442771751097 -0.0037051106385526155 -0.013844829519169734 -0.0046827611492335566 0.0063907162348429362 -0.00032928869322252773 0.0068745876936351551 0.0013374980959437184 -0.00016863981423894851 -0.00023221364109000814 0.003139839770450984 0.0015704857228353384 -0.00051318403996400918 0.0019619188728560318 -0.0016146837738720147 -0.0073590440631500983 -0.0018620451927999966 -0.00019840755773340026 0.0050918838531652001 0.0091988990847337044
leaf_weight=31 36 77 217 52 66 44 37 52 30 30 86 60 32 30 55 118 32 72 197 82 71 61 57 85 35 36 88 84 62 57
leaf_count=31 36 77 217 52 66 44 37 52 30 30 86 60 32 30 55 118 32 72 197 82 71 61 57 85 35 36 88 84 62 57
internal_value=3.03697e-05 0.00186939 -0.00341851 0.000625418 -0.00275598 4.49201e-05 0.00610777 -0.000953849 -0.00309168 3.62537e-05 0.00516133 -0.00457365 -0.00685717 -0.00969645 0.000732726 0.00189752 0.00292651 0.00369991 -0.000887334 0.00191501 -0.000376662 0.000723265 -0.00177569 0.00339851 -0.00284358 -0.00464914 -0.000454592 -0.00136565 0.00833164 0.00717864
internal_weight=2072 1352 720 1047 684 930 305 345 166 279 117 339 122 62 764 372 254 149 227 199 392 220 172 117 128 71 149 114 156 119
internal_count=2072 1352 720 1047 684 930 305 345 166 279 117 339 122 62 764 372 254 149 227 199 392 220 172 117 128 71 149 114 156 119
is_linear=0
shrinkage=0.02


Tree=5
num_leaves=31
num_cat=0
split_feature=24 185 372 201 337 306 70 384 283 318 312 126 141 154 348 5 285 111 94 50 71 330 353 390 208 110 337 352 346 337
split_gain=31.5178 17.2622 7.54903 7.50139 4.75478 3.82434 5.00336 3.11919 3.11333 2.55781 2.48514 2.84107 2.46399 2.74207 2.87524 2.28083 1.87946 1.84077 1.75359 1.65932 1.49981 1.48475 1.36657 1.30551 1.24668 1.24588 1.19729 1.13115 1.11613 1.11463
threshold=-0.021651955321431157 0.40287585556507116 -0.23237562924623487 -1.1021200418472288 -0.34121040999889368 0.14778965711593631 -0.031813712790608399 -0.22865912318229673 -0.90830019116401661 -1.3200643062591551 -2.6535295248031612 0.023990149609744552 -0.10825812444090842 0.06574502214789392 -1.4339858293533323 -0.016363243572413918 0.84128060936927807 -0.0079144975170493109 0.21320813149213794 0.073218088597059264 -0.034534161910414689 0.2766851037740708 1.2994199991226199 0.87397427856922161 1.4216567873954775 1.0000000180025095e-35 -0.25816649198532099 0.28605715930461889 2.6897739171981816 0.88153168559074413
decision_type=2 2 2 2 2 2 2 2 2 2 2 2 2 2 2 2 2 2 2 2 2 2 2 2 2 2 2 2 2 2
left_child=3 2 12 16 9 10 8 15 -7 -5 24 22 -2 18 -15 -6 -1 -9 23 -10 -19 25 -12 -14 27 -8 -18 -4 -17 -26
right_child=1 -3 5 4 7 6 21 17 19 -11 11 -13 13 14 -16 28 26 20 -20 -21 -22 -23 -24 -25 29 -27 -28 -29 -30 -31
leaf_value=0.010301042272020942 0.001609280729899183 -0.01630492864176631 8.6746265082375009e-05 0.00074552390760240642 0.0085831964701887174 -0.0078544605840913592 0.0031017699592096144 -0.00018849196930214305 -0.0012699244295685621 -0.0049976848374660076 0.0016278727456449052 -0.0019623596245242703 -0.0025285955584339499 -0.010743375745883514 -0.0044805363362007168 0.0013020833378657698 0.0030131523009234418 0.0070115833325045457 0.001697722862008959 -0.0060565493303613785 0.0010411362111982373 -0.0032094379563409933 0.00477760149874603 -0.0070050757980960254 -0.00069098108542115931 -0.00031510210607498619 0.0067668569098625862 -0.0044369036437976253 0.005622229503613769 0.0035287704088753369
leaf_weight=44 30 30 36 167 61 59 71 95 119 36 146 60 135 41 113 48 58 33 30 37 34 37 90 32 102 102 103 55 49 31
leaf_count=44 30 30 36 167 61 59 71 95 119 36 146 60 135 41 113 48 58 33 30 37 34 37 90 32 102 102 103 55 49 31
internal_value=1.62754e-05 -0.00178532 -0.00143277 0.0033677 0.00208241 -0.000471721 -0.0018747 0.00359373 -0.00400455 -0.000311797 0.000677736 0.00187516 -0.00380155 -0.00427051 -0.00626427 0.00557862 0.00659496 0.00161343 -0.00266464 -0.00246751 0.0040998 0.000323068 0.00285909 -0.00345911 -0.000907167 0.00110662 0.00546815 -0.00268395 0.00355392 0.000330277
internal_weight=2084 1356 1326 728 523 945 425 320 215 203 520 296 381 351 154 158 205 162 197 156 67 210 236 167 224 173 161 91 97 133
internal_count=2084 1356 1326 728 523 945 425 320 215 203 520 296 381 351 154 158 205 162 197 156 67 210 236 167 224 173 161 91 97 133
is_linear=0
shrinkage=0.02


Tree=6
num_leaves=31
num_cat=0
split_feature=24 75 380 230 28 196 392 308 264 337 392 33 200 392 285 306 201 90 216 233 393 301 208 185 27 32 177 292 122 42
split_gain=32.7067 15.7133 7.07993 6.72136 5.78086 4.75269 4.65178 3.67367 3.53884 3.42689 2.12941 2.08809 1.93493 1.91585 1.68239 1.64286 1.83764 1.7527 1.6005 1.58486 1.71799 1.51643 1.49701 1.46826 1.52353 1.4197 1.35619 1.20095 1.19031 1.0993
threshold=-0.017883920110762116 -0.093906834721565233 -0.7158505618572234 -0.36128652095794672 0.10472043603658678 -3.5884906053543086 -0.86283028125762928 0.72383612394332897 1.6257895827293398 0.54789462685585033 0.14635618031024936 -0.041347196325659745 0.86036920547485363 -1.1964045763015745 2.2235748767852788 -0.73584473133087147 1.0318045616149905 0.011832461692392828 0.33302253484725958 -1.6977524161338804 1.0952784419059756 1.3903776407241824 2.4635967016220097 0.33546248078346258 0.031899239867925651 0.01872831862419844 0.032645089551806457 1.2047867178916933 -0.24592990428209302 -0.051375068724155419
decision_type=2 2 2 2 2 2 2 2 2 2 2 2 2 2 2 2 2 2 2 2 2 2 2 2 2 2 2 2 2 2
left_child=3 2 -2 7 5 12 18 13 19 11 26 -7 14 -1 -3 -13 17 -17 -5 29 21 -21 -11 24 -15 -12 27 -8 -9 -6
right_child=1 4 -4 6 8 9 10 28 -10 22 25 15 -14 23 -16 16 -18 -19 -20 20 -22 -23 -24 -25 -26 -27 -28 -29 -30 -31
leaf_value=0.0070607213672038227 -0.0051406525496573178 -0.0080756844984633588 -0.016661310409636875 0.0023727816556181227 -0.0077127118763036838 0.0034509953976209675 0.0028820447437465191 0.011954119269336974 -0.0098934646043926482 0.001452104714315039 -0.0055401786577862671 0.00063783674473719045 -0.00037675093925174547 0.0033221189445936999 -0.0030215740760357939 -0.0023376092203731711 0.00049438079328475786 -0.0076356129584019073 0.0081327781098939119 -0.0024106995225166394 -0.0050491810740814326 0.0011966759248879617 0.0053976827266873154 0.0063865439350507701 -0.00080444633719351888 -0.00050647925119847055 -0.0022974218457396068 -0.0012522777185438681 0.0059947224927915108 -0.0027264331548641891
leaf_weight=66 55 33 36 40 39 40 123 33 30 192 35 118 83 175 130 131 68 30 40 144 61 67 47 47 44 58 35 35 35 37
leaf_count=66 55 33 36 40 39 40 123 33 30 192 35 118 83 175 130 131 68 30 40 144 61 67 47 47 44 58 35 35 35 37
internal_value=-0.000142344 -0.00202476 -0.00995857 0.00314981 -0.0014322 -0.000533728 0.00118145 0.00493602 -0.00349114 0.000393379 -2.24259e-05 -0.00076903 -0.0028771 0.00402419 -0.00413028 -0.00127248 -0.00225383 -0.00340639 0.0053809 -0.00288583 -0.00214412 -0.00126475 0.00226637 0.0032237 0.00249326 -0.00247764 0.00117393 0.00196201 0.0091457 -0.00541733
internal_weight=2107 1341 91 766 1250 872 366 400 378 626 286 387 246 332 163 347 229 161 80 348 272 211 239 266 219 93 193 158 68 76
internal_count=2107 1341 91 766 1250 872 366 400 378 626 286 387 246 332 163 347 229 161 80 348 272 211 239 266 219 93 193 158 68 76
is_linear=0
shrinkage=0.02


Tree=7
num_leaves=31
num_cat=0
split_feature=24 112 387 387 238 333 219 118 72 392 219 31 337 197 122 60 236 267 50 265 196 119 32 163 55 254 312 245 383 351
split_gain=30.666 17.4366 10.0532 8.9357 4.7236 4.44335 3.94632 3.64102 3.47159 3.13646 2.52895 2.3274 2.1378 1.81756 1.75441 1.66091 1.59677 1.53212 1.53052 1.38919 1.36779 1.27861 1.22922 1.20395 1.17221 1.16824 1.15219 1.55677 1.18489 1.10355
threshold=-0.017883920110762116 0.43259048461914068 -0.96325200796127308 1.0000000180025095e-35 -0.035202499479055398 2.3678464889526372 9.2031850814819354 0.16169337183237079 -0.001454251760151237 0.90937259793281566 4.4039804935455331 -0.046799557283520692 0.43758794665336614 -1.4276167154312132 -0.21083533763885495 0.020543719641864303 0.16862878203392032 -0.80934539437293995 -0.066872984170913682 1.9141834974288943 -4.7112815380096427 0.024332613684237007 -0.0077370128128677598 -0.017930154688656327 0.074154797941446318 0.29369819164276129 -2.8668842315673824 0.75175210833549511 -3.1199411153793331 -3.2193990945816036
decision_type=2 2 2 2 2 2 2 2 2 2 2 2 2 2 2 2 2 2 2 2 2 2 2 2 2 2 2 2 2 2
left_child=2 3 15 6 8 9 11 19 10 13 -5 24 18 25 -9 29 -12 -14 -13 26 -15 -20 -21 -10 -2 -4 -6 -28 -29 -1
right_child=1 -3 5 4 7 -7 -8 14 23 -11 16 12 17 20 -16 -17 -18 -19 21 22 -22 -23 -24 -25 -26 -27 27 28 -30 -31
leaf_value=0.0091678782339606971 0.0070330174411223694 -0.015497930426564482 0.0011804531478122168 -0.0024537519230083986 -0.0015941338616955495 0.007154550852025288 -0.0047033638425353101 -0.0078573738783597954 -0.0066046411040074681 -0.0044517720883919133 -0.006031432522253858 0.0030787304267287253 -0.00029467342755733395 -0.0019155462622915493 -0.0025386077258735896 0.0031498114819206841 -0.012975473571568728 0.0046635545048862703 -0.00027504293861634592 -0.0053957377816550431 0.0014711176577849731 -0.0047119026748757616 -0.00025610350310168367 -0.0025565505083088077 0.0021769849609496982 0.0051439776853090379 -0.00055457631295154758 0.0055524793560928019 0.0013364381440378447 0.0052471903576092284
leaf_weight=110 42 34 49 31 68 55 39 31 32 34 34 33 37 56 116 39 30 73 83 30 271 36 45 292 41 80 93 41 75 53
leaf_count=110 42 34 49 31 68 55 39 31 32 34 34 33 37 56 116 39 30 73 83 30 271 36 45 292 41 80 93 41 75 53
internal_value=5.02837e-05 -0.00176365 0.00329053 -0.00138178 -0.00245181 0.00186484 0.00117571 -0.00113006 -0.00401307 0.00124443 -0.00735382 0.00186358 0.000922723 0.00168673 -0.00375066 0.00708108 -0.00958101 0.00302031 -0.000614775 -2.06561e-05 0.00088302 -0.00167298 -0.00239871 -0.00299443 0.00474192 0.00367946 0.0006358 0.00136956 0.00289544 0.00797211
internal_weight=2083 1336 747 1302 918 545 384 499 419 490 95 345 262 456 147 202 64 110 152 352 327 119 75 324 83 129 277 209 116 163
internal_count=2083 1336 747 1302 918 545 384 499 419 490 95 345 262 456 147 202 64 110 152 352 327 119 75 324 83 129 277 209 116 163
is_linear=0
shrinkage=0.02


Tree=8
num_leaves=31
num_cat=0
split_feature=81 391 125 392 104 199 179 276 105 98 392 217 391 353 178 320 339 199 394 260 200 52 100 90 102 290 35 236 386 287
split_gain=24.7947 21.5599 8.97178 8.40148 4.95833 4.13324 3.92488 3.74816 3.54438 2.67898 2.29125 2.19575 1.98353 1.7585 1.74906 1.9091 1.62143 1.60991 1.40505 1.35596 1.34707 1.32742 1.30809 1.34959 1.2034 1.08255 1.00623 0.987217 0.968546 0.899891
threshold=-0.053024481981992715 0.47456027567386633 0.59822046756744396 0.14635618031024936 0.070242434740066542 -1.5636342167854307 0.34321129322052008 -1.0936913490295408 0.098409879952669158 0.078049682080745711 0.076763492077589049 -0.21000265330076215 -0.018298024311661717 1.8116872906684878 -0.01879596151411533 0.31848578155040747 1.2214665412902834 -0.40541404485702509 -0.52359256148338307 0.51564836502075206 -0.11731773987412451 -0.0090626212768256647 0.11671316623687746 -0.0020405325340107079 0.16607383638620379 -1.9786607623100279 -0.1865129545331001 -0.89292466640472401 1.0000000180025095e-35 -1.7013731598854063
decision_type=2 2 2 2 2 2 2 2 2 2 2 2 2 2 2 2 2 2 2 2 2 2 2 2 2 2 2 2 2 2
left_child=2 3 7 6 13 11 9 8 -1 20 22 -5 24 19 15 -7 17 27 -17 -3 -2 -19 23 -6 -9 -13 -14 -11 -15 -26
right_child=1 4 -4 5 10 14 -8 12 -10 16 -12 25 26 28 -16 18 -18 21 -20 -21 -22 -23 -24 -25 29 -27 -28 -29 -30 -31
leaf_value=-0.0038918664233025275 -0.0030947794073247627 0.00032880396319505498 -0.014047224144725239 -0.0092168875646434344 0.0024134229975087303 0.00036197034658157624 0.0072046250413255533 -0.0022689200391185389 -0.012254938601981848 -0.0012233215111440846 0.0023196536188539213 -0.00038994825061629805 -0.0018444117251783609 0.0056770812729190967 0.00064293080268959914 -0.0076423459624250737 -0.00025818251936774079 0.0076776551866817337 -0.0022704706239580577 0.0038203782187547532 5.32156585940866e-05 0.0028355893077836795 0.0094871630384495437 0.0081861547481369319 -0.0080172403901815417 -0.004627291721481722 0.0022522904702975432 0.0024818223742570015 0.0015169874717001664 -0.0028857702406821775
leaf_weight=64 66 115 32 36 33 56 37 156 30 40 37 32 45 100 138 31 94 37 54 71 271 64 100 35 30 101 47 92 31 30
leaf_count=64 66 115 32 36 33 56 37 156 30 40 37 32 45 100 138 31 94 37 54 71 271 64 100 35 30 101 47 92 31 30
internal_value=9.58587e-05 0.00120282 -0.00415215 -0.000329872 0.00456488 -0.00246322 0.00103665 -0.00329884 -0.00676064 0.000672352 0.00698316 -0.00491293 -0.00220552 0.00296702 -0.000954944 -0.00250594 0.00195655 0.00284464 -0.00436027 0.00168807 -0.000577927 0.00472405 0.00797087 0.00553368 -0.00324489 -0.00362866 0.00025186 0.00135755 0.00473025 -0.00562736
internal_weight=2105 1671 434 1149 522 448 701 402 94 664 205 169 308 317 279 141 327 233 85 186 337 101 168 68 216 133 92 132 131 60
internal_count=2105 1671 434 1149 522 448 701 402 94 664 205 169 308 317 279 141 327 233 85 186 337 101 168 68 216 133 92 132 131 60
is_linear=0
shrinkage=0.02


Tree=9
num_leaves=31
num_cat=0
split_feature=75 391 182 154 139 365 351 241 276 318 217 82 148 100 166 238 330 268 385 246 365 320 238 94 341 188 397 265 332 198
split_gain=28.2597 20.9476 9.91122 8.42436 4.85336 4.55011 4.3814 3.03844 2.37876 2.31697 2.43321 2.31554 2.26224 2.20778 1.98163 1.74698 1.73499 1.59033 1.44027 1.33428 1.3006 1.45103 1.27945 1.19011 1.35955 1.06997 1.0607 1.05587 0.975096 0.974093
threshold=-0.064785990864038454 0.47456027567386633 -0.036192566156387322 -0.059824069961905472 -0.15889667719602582 2.0930000543594365 -2.0419517755508418 1.8170567154884341 -1.0662478804588316 -2.6489592790603633 1.0238682031631472 -0.087923549115657793 -0.023947739042341706 0.10777038708329202 -0.00098077609436586478 1.6309952735900881 2.1477749347686772 -1.0192934870719907 0.23880347609519961 -0.48826023936271662 -0.19656077772378919 -0.1084262616932392 -0.44002914428710932 0.13848565518856051 1.2249726653099062 0.5236685872077943 -0.82886952161788929 1.0000000180025095e-35 1.2639449834823611 0.26644767820835119
decision_type=2 2 2 2 2 2 2 2 2 2 2 2 2 2 2 2 2 2 2 2 2 2 2 2 2 2 2 2 2 2
left_child=3 2 5 -1 -3 9 12 27 11 16 -11 -5 -4 15 22 19 25 -7 29 -6 -16 -22 -14 24 28 -2 -20 -8 -10 -15
right_child=1 4 6 8 13 17 7 -9 23 10 -12 -13 14 18 20 -17 -18 -19 26 -21 21 -23 -24 -25 -26 -27 -28 -29 -30 -31
leaf_value=-0.014850737923070003 0.0056066580966343069 6.329041805558948e-05 -0.0060815802554134279 -0.0043940676277389335 0.0034019615596685656 0.0091288409162408272 -0.00069811009846856452 -0.0092734303466307042 -0.0035501683377108335 -0.0032192802923348019 0.0017099162773229182 -0.01170604934450239 -0.0051286333010588979 0.0069077490315620979 0.0014152153939914589 0.0010171031054969017 -0.0020307213490013964 0.0032668848167469893 0.010742203335998193 0.0068731055298405586 0.0010086888633418067 -0.002312124479165087 -0.0012912315307654326 0.00023532178359372276 -0.00073495873321707426 0.002064083779302354 0.0055068894922733307 -0.0039881483296101746 -0.0080951048926833809 0.0022947997848192852
leaf_weight=36 47 91 30 47 115 37 55 37 57 83 74 30 47 41 181 63 30 42 51 80 91 120 127 33 37 128 33 141 32 37
leaf_count=36 47 91 30 47 115 37 55 37 57 83 74 30 47 41 181 63 30 42 51 80 91 120 127 33 37 128 33 141 32 37
internal_value=-7.61534e-05 0.000842881 -0.000534099 -0.00605603 0.00425386 0.00188297 -0.00182134 -0.00413515 -0.00460094 0.000918651 -0.00090368 -0.00746713 -0.000905969 0.00515721 -0.000611195 0.00395283 0.00230954 0.00616997 0.00700371 0.00488134 0.000179475 -0.000883902 -0.00237427 -0.0031374 -0.0040106 0.00306812 0.00886137 -0.0030813 -0.0053263 0.00483163
internal_weight=2053 1781 1270 272 511 441 829 233 236 362 157 77 596 420 566 258 205 79 162 195 392 211 174 159 126 175 84 196 89 78
internal_count=2053 1781 1270 272 511 441 829 233 236 362 157 77 596 420 566 258 205 79 162 195 392 211 174 159 126 175 84 196 89 78
is_linear=0
shrinkage=0.02


Tree=10
num_leaves=31
num_cat=0
split_feature=75 391 159 182 180 351 365 392 287 136 255 391 236 153 320 291 337 147 275 111 352 392 117 211 287 248 312 320 337 214
split_gain=25.6214 19.6725 8.78787 8.65299 5.40253 3.64858 3.4584 3.20173 2.47655 2.15814 2.06677 1.94454 1.87199 1.73936 1.64223 1.70324 1.59686 1.87325 1.5495 1.25525 1.22091 1.1221 1.07511 1.03937 1.00219 0.987732 0.986392 1.13214 0.976694 0.889597
threshold=-0.05928791128098964 0.47456027567386633 0.33832147717475897 -0.036192566156387322 0.024461306631565097 -2.2161622047424312 2.0930000543594365 -1.1480789780616758 -1.8376910686492918 0.0084527735598385351 -0.19258076697587964 1.0144211053848269 0.86957001686096203 0.030145964585244659 1.1631816029548647 -1.9809616208076475 1.4430690407752993 0.41557000577449804 -1.3044258952140806 0.02478079125285149 2.0540577173233037 0.24283209443092349 0.047007560729980476 1.559111535549164 0.27607581019401556 0.24905100464820865 -2.8668842315673824 0.3038595318794251 0.37438391149044042 1.9430340528488161
decision_type=2 2 2 2 2 2 2 2 2 2 2 2 2 2 2 2 2 2 2 2 2 2 2 2 2 2 2 2 2 2
left_child=2 3 8 6 18 10 16 -6 9 -1 12 25 26 -8 15 21 17 19 -3 23 28 -7 -16 -2 29 -9 27 -5 -12 -10
right_child=1 4 -4 5 7 14 13 11 24 -11 20 -13 -14 -15 22 -17 -18 -19 -20 -21 -22 -23 -24 -25 -26 -27 -28 -29 -30 -31
leaf_value=-0.0090136471276099864 0.00027442545295140687 0.00063772706732916551 -0.013977119800372003 -0.00024248325973749162 0.010017399336728785 -0.0014692680443577628 0.0028135333002051888 0.0054773133369092125 0.0010044927582285315 -0.0036842917866835539 0.00055213704150407867 0.0068386809443040653 -0.0048336179709682868 0.0086552631883667058 -0.0072789773354306822 0.00045578226334506983 0.0051678283852251141 -0.0026636677999691718 0.0037347515525042959 0.0049565188767332017 -0.00036843296495898985 -0.0058892997171656756 -0.002823200738500981 0.0040921820214751999 -0.0043102346809909629 0.0011052917024945139 2.0074819232342623e-05 -0.0044933176479952514 0.0047470183018594979 -0.002633924890648235
leaf_weight=50 213 125 37 48 70 45 49 31 51 86 45 99 58 37 58 59 32 56 134 31 129 49 40 31 49 59 169 51 43 53
leaf_count=50 213 125 37 48 70 45 49 31 51 86 45 99 58 37 58 59 32 56 134 31 129 49 40 31 49 59 169 51 43 53
internal_value=0.000103859 0.00105868 -0.00502892 -0.000307314 0.0043251 -0.0015609 0.00190658 0.00636067 -0.00379511 -0.00574585 -0.000634042 0.00491561 -0.00163675 0.00546643 -0.00354514 -0.00220392 0.00103787 0.000609958 0.00225639 0.00129101 0.000873523 -0.00384802 -0.00555313 0.000788795 -0.00200935 0.00269754 -0.000914212 -0.00247792 0.00266185 -0.000864413
internal_weight=2087 1761 326 1243 518 794 449 259 289 136 543 189 326 86 251 153 363 331 259 275 217 94 98 244 153 90 268 99 88 104
internal_count=2087 1761 326 1243 518 794 449 259 289 136 543 189 326 86 251 153 363 331 259 275 217 94 98 244 153 90 268 99 88 104
is_linear=0
shrinkage=0.02


Tree=11
num_leaves=31
num_cat=0
split_feature=81 387 258 291 224 333 139 337 113 207 343 333 381 394 370 315 296 178 317 291 384 324 297 85 312 359 251 289 51 182
split_gain=27.0608 19.4004 10.3383 7.99204 4.37697 4.2509 3.44631 2.95131 2.85021 2.76328 1.99493 1.98387 1.42503 1.40909 1.40002 1.36415 1.35157 1.30103 1.23844 1.22932 1.17968 1.1729 1.17046 1.09747 1.01246 1.01205 0.936514 0.927546 0.914466 0.742925
threshold=-0.052544469013810151 -0.96325200796127308 0.5821131467819215 -1.7210718393325803 -3.812490582466125 2.9207495450973515 -0.048188034445047372 0.36502479016780859 -0.03891439922153949 0.54832252860069286 0.83761560916900646 -1.4877219200134275 -1.0543655157089231 1.0000000180025095e-35 0.10963954031467439 3.670917391777039 -1.1085669994354246 0.057585686445236213 -2.3563493490219112 -0.15268278867006299 -0.37562732398509974 -1.3250268697738645 0.86596411466598522 0.13548657298088077 -2.5079338550567623 -0.39288789033889765 -0.63295158743858326 -1.6938865780830381 -0.075198397040367113 0.0093096564523875731
decision_type=2 2 2 2 2 2 2 2 2 2 2 2 2 2 2 2 2 2 2 2 2 2 2 2 2 2 2 2 2 2
left_child=2 6 4 8 -1 7 -2 15 9 13 16 -6 -8 -3 -12 17 -9 27 -10 21 23 -13 29 -14 -17 -24 -18 -5 -23 -20
right_child=1 3 -4 5 11 -7 12 10 18 -11 14 19 20 -15 -16 24 26 -19 22 -21 -22 28 25 -25 -26 -27 -28 -29 -30 -31
leaf_value=-0.010057237162380606 0.0019776899715113201 -0.0035070793785862337 -0.015317619163542986 0.00076796561851744745 -0.0075979821418877694 0.0076144896720240756 0.0033546754782614501 0.0054279269065755009 -0.0035342066186583704 -0.0072149345942103026 0.0019142737223094778 -0.0017625746482349547 0.01072590221219988 -0.00015023932667515642 -0.002475378884650443 5.0741359043647257e-06 -0.0005460917734001812 0.00290228912437504 0.0033234112914050781 0.0010541687927280482 0.0053068674356970737 -0.0017967129615676959 0.0013310226096904705 0.0063801719044666669 0.0033103225202257953 -0.0031995256763437518 0.0031693987661184598 -0.001972243781943404 -0.0056076829724061566 -0.0003050375941234666
leaf_weight=35 80 127 30 64 30 39 44 87 34 55 77 192 65 82 44 83 36 31 60 37 74 41 33 57 65 44 102 202 76 35
leaf_count=35 80 127 30 64 30 39 44 87 34 55 77 192 65 82 44 83 36 31 60 37 74 41 33 57 65 44 102 202 76 35
internal_value=4.4828e-05 0.0012413 -0.00433612 0.000152465 -0.00346426 0.00133155 0.00563625 0.00100335 -0.00192657 -0.0032943 0.00238308 -0.00280058 0.00682935 -0.00220395 0.000303741 -7.52876e-05 0.00348877 -0.000855774 -0.000158936 -0.00234335 0.00756761 -0.00275433 0.000541223 0.00883117 0.00148149 -0.00127332 0.00220619 -0.00131213 -0.00432486 0.00200789
internal_weight=2061 1620 441 1300 411 830 320 791 470 264 346 376 240 209 121 445 225 297 206 346 196 309 172 122 148 77 138 266 117 95
internal_count=2061 1620 441 1300 411 830 320 791 470 264 346 376 240 209 121 445 225 297 206 346 196 309 172 122 148 77 138 266 117 95
is_linear=0
shrinkage=0.02


Tree=12
num_leaves=31
num_cat=0
split_feature=24 398 24 392 238 230 262 352 327 352 100 63 31 332 193 320 353 337 131 114 238 14 308 267 169 22 286 245 337 336
split_gain=28.391 14.8516 6.76559 6.69623 4.73646 4.15384 2.91709 2.86464 2.80896 2.31955 2.43341 2.10594 1.89826 2.73516 1.74069 1.63298 1.62585 1.44326 1.30009 1.23319 1.17887 1.14245 1.13321 1.20679 1.1965 1.09729 1.07736 1.18523 1.02626 0.984216
threshold=-0.022909430786967274 2.0439261198043828 0.089056521654129042 -0.099309187382459627 0.20887623727321628 0.4431395828723908 3.272796750068665 2.484727263450623 -3.1249153614044185 1.5230160951614382 0.04220916889607907 -0.043595153838396065 -0.029593340121209618 1.5047678351402285 -5.6378095149993888 0.23830521851778033 2.9141499996185307 -0.25816649198532099 -0.040736053138971322 0.057437203824520118 0.27570758759975439 0.30716505646705633 -0.4747579544782638 0.33239604532718664 -0.18018520623445508 0.069975428283214583 -0.26576785743236536 1.8653194308280947 -0.14968072623014447 2.0351746082305913
decision_type=2 2 2 2 2 2 2 2 2 2 2 2 2 2 2 2 2 2 2 2 2 2 2 2 2 2 2 2 2 2
left_child=3 2 4 5 7 6 22 26 -5 18 20 -9 13 17 -14 -12 -10 -6 29 21 -11 -16 23 -1 -25 -8 27 -2 -24 -4
right_child=1 -3 9 8 12 -7 25 11 16 10 15 -13 14 -15 19 -17 -18 -19 -20 -21 -22 -23 28 24 -26 -27 -28 -29 -30 -31
leaf_value=0.001760122045655461 -0.0042458692173927264 -0.012763777374411407 -0.005534261310240254 -0.0051367350446525966 -0.00058436227276926827 0.0015226874148061473 0.0061449899925201225 -0.0025110131787722777 0.0003973835092156556 -0.0041787784756964139 -0.0031783388464739827 -0.0079436413339738325 -0.0033247454527299855 0.0075179700150683117 0.0032166159652098586 -0.0091624245921085624 0.0052331248276373922 0.0032222707661635737 0.0013652684262060388 -0.0017536177396053269 -0.00067983149169165581 0.00022791603778114938 0.0029192933285745177 0.0081940801622289606 0.0026524323136923283 0.012161883533000946 0.0012989806889547645 0.00075115582072421124 0.0068727178078114501 -0.0014380689770114993
leaf_weight=83 37 44 30 30 74 136 31 179 155 114 31 33 48 35 85 56 32 83 47 60 59 125 39 31 35 33 105 36 121 97
leaf_count=83 37 44 30 30 74 136 31 179 155 114 31 33 48 35 85 56 32 83 47 60 59 125 39 31 35 33 105 36 121 97
internal_value=9.80047e-05 -0.00158791 -0.00120073 0.00329356 -0.000209644 0.00454358 0.00563104 -0.00186371 0.000346758 -0.0032456 -0.00443708 -0.00342299 0.00105757 0.00261673 0.000105717 -0.0071495 0.00127151 0.00144328 -0.00143504 0.000735539 -0.0030069 0.00145656 0.0047691 0.00343149 0.00541977 0.00952198 1.08109e-05 -0.00182727 0.00595701 -0.00247647
internal_weight=2104 1378 1334 726 900 509 373 390 217 434 260 212 510 192 318 87 187 157 174 270 173 210 309 149 66 64 178 73 160 127
internal_count=2104 1378 1334 726 900 509 373 390 217 434 260 212 510 192 318 87 187 157 174 270 173 210 309 149 66 64 178 73 160 127
is_linear=0
shrinkage=0.02


Tree=13
num_leaves=31
num_cat=0
split_feature=24 106 387 49 387 392 160 113 226 133 337 392 307 323 283 368 217 271 199 81 12 265 50 133 200 85 373 17 184 346
split_gain=25.961 11.8487 7.68403 5.1513 5.03195 4.27069 3.22622 2.8349 2.62176 2.19479 1.98327 1.82031 1.80261 1.78016 1.79678 1.68681 1.65303 1.29585 1.3185 1.29188 1.29116 1.14609 1.07936 1.39216 1.45035 1.06097 1.05372 1.0402 1.00654 0.966902
threshold=-0.017883920110762116 -0.091668460518121705 -0.96325200796127308 -0.1304494962096214 1.0000000180025095e-35 0.90937259793281566 0.055967384949326522 -0.018324011936783787 -0.91889309883117665 -0.20021037012338636 1.0232354998588564 -1.1964045763015745 -0.94960370659828175 1.6597039699554446 -0.88356715440750111 -1.7595810294151304 -0.057901417836546891 -1.5470268726348875 -1.1654793620109556 -0.057679841294884675 0.24283775687217715 0.75598028302192699 0.019057913683354858 0.25176325440406805 0.78367489576339733 0.13548657298088077 -0.15527649223804471 0.24508013576269153 -0.031160657294094559 2.5344171524047856
decision_type=2 2 2 2 2 2 2 2 2 2 2 2 2 2 2 2 2 2 2 2 2 2 2 2 2 2 2 2 2 2
left_child=2 3 12 -2 6 8 9 13 -4 15 11 -10 20 14 21 -3 27 -11 -19 26 -1 -6 -16 24 -24 -14 -9 -13 -18 -21
right_child=1 4 5 -5 7 -7 -8 19 10 17 -12 16 25 -15 22 -17 28 18 -20 29 -22 -23 23 -25 -26 -27 -28 -29 -30 -31
leaf_value=0.0012488315468654036 -0.014790282579692636 0.0017260650191456078 0.0073610028318528619 -0.0042003478655093457 -0.0079050866980105647 -0.0044365671852772889 -0.0048854096953731933 -0.0011242454048068099 0.0047091385520690561 0.0038983828662377262 0.0044056849897870882 -0.00017590109145621192 0.0093130288702068919 -0.0065458091049311832 -0.00054922798967872483 0.0076988580698768294 0.0022399612412016879 -0.0027184031767537821 0.00078328098599357826 -0.00072288051465623133 0.0062882200779544343 -0.0034538757204651263 -0.0051139328785107605 0.00072149326044477927 -0.0011586661976980394 0.0054615481152461886 -0.005594360911054537 -0.0044691719176868597 -0.00045649352620239371 0.001971356525243103
leaf_weight=48 35 48 33 41 30 42 35 66 47 34 86 72 64 50 154 31 184 58 150 171 35 115 96 36 62 76 30 31 78 75
leaf_count=48 35 48 33 41 30 42 35 66 47 34 86 72 64 50 154 31 184 58 150 171 35 115 96 36 62 76 30 31 78 75
internal_value=-4.51359e-05 -0.00176779 0.00280232 -0.00933148 -0.00129032 0.00156607 0.000714809 -0.00209669 0.00205572 0.00135189 0.00167612 0.00108783 0.00593674 -0.00299272 -0.00260737 0.00420204 0.000598403 0.000394657 -0.00020974 -0.000664919 0.00347183 -0.00446984 -0.00181024 -0.00279543 -0.00359575 0.0073286 -0.00260682 -0.00152857 0.00143982 0.000107807
internal_weight=2113 1317 796 76 1241 573 356 885 531 321 498 412 223 543 493 79 365 242 208 342 83 145 348 194 158 140 96 103 262 246
internal_count=2113 1317 796 76 1241 573 356 885 531 321 498 412 223 543 493 79 365 242 208 342 83 145 348 194 158 140 96 103 262 246
is_linear=0
shrinkage=0.02


Tree=14
num_leaves=31
num_cat=0
split_feature=24 399 306 392 166 316 228 213 323 105 93 325 392 103 32 323 315 303 250 183 133 325 71 369 135 341 126 242 72 385
split_gain=24.0599 13.3781 7.6097 5.58518 4.89496 3.09273 2.97959 2.94186 2.93795 2.88313 3.13703 2.87855 2.70923 2.16108 1.89003 1.81964 1.67074 1.67652 1.45908 1.40749 1.34888 1.29276 1.20681 1.08822 1.04283 1.41415 1.00447 0.982561 0.980749 0.915558
threshold=-0.022909430786967274 2.5248206853866582 0.21182668209075931 -0.099309187382459627 -0.0008311247220262884 0.71529382467269909 -1.5559632182121275 -0.36246584355831141 1.7101629972457888 0.10602000728249551 -0.029543137177824971 0.30869939923286444 -1.1717250943183897 0.084496118128299727 -0.2495482265949249 -1.1698025465011594 3.5741503238677983 -0.70052018761634816 1.7054759263992312 -0.030343304388225075 0.2331778481602669 -0.35338073968887324 0.0020257281139492993 -0.76704537868499745 0.020454228855669502 0.52182769775390636 0.01566998474299908 -1.963263154029846 0.00085889891488477599 1.1127086877822878
decision_type=2 2 2 2 2 2 2 2 2 2 2 2 2 2 2 2 2 2 2 2 2 2 2 2 2 2 2 2 2 2
left_child=3 2 7 5 6 8 -4 13 12 27 -11 22 23 28 20 -14 17 -9 -18 -19 -6 -17 -5 -1 25 -16 -21 -8 -2 -7
right_child=1 -3 4 11 14 29 9 16 -10 10 -12 -13 15 -15 24 21 18 19 -20 26 -22 -23 -24 -25 -26 -27 -28 -29 -30 -31
leaf_value=0.004820963508294274 0.0040561799717343545 -0.014283029669895768 0.00070220974047441743 -1.8664208510303945e-06 -0.0061571014152529335 0.002638805342751066 -0.0009875545523276455 -0.0047723718583583827 0.010746461084733408 -0.013386256563312866 -0.0047331576364203574 0.0041721528948381031 -0.0011685935814272274 -0.0019349809256179826 -0.0037943987949641753 0.0022950233030628333 0.0035973575043267221 -0.0024314170335664564 -0.0015085646404406508 0.0013635899834021801 -0.0013184106847917549 0.0057807710323611204 -0.0038862209048035534 0.0095242442846298209 0.00095345956634665873 -0.00034637672637652514 -0.002630629408522509 -0.0047767304093401909 0.001277048375972725 -0.00097529710270464424
leaf_weight=46 119 30 35 125 46 137 36 48 34 32 40 56 31 44 66 92 56 112 35 117 47 85 41 48 114 160 30 131 92 34
leaf_count=46 119 30 35 125 46 137 36 48 34 32 40 56 31 44 66 92 56 112 35 117 47 85 41 48 114 160 30 131 92 34
internal_value=4.54275e-05 -0.00149753 -0.00119494 0.00298346 -0.00262969 0.00413805 -0.00471296 0.000361753 0.00525026 -0.00550522 -0.00883683 0.000333216 0.00456485 0.00203047 -0.0012958 0.00323855 -0.000712208 -0.00141655 0.00164333 -0.000762814 -0.00379098 0.00401486 -0.000996098 0.00737103 -0.000595119 -0.00137777 0.000524074 -0.00398126 0.00286779 0.00191724
internal_weight=2119 1390 1360 729 707 507 274 653 336 239 72 222 302 255 433 208 398 307 91 259 93 177 166 94 340 226 147 167 211 171
internal_count=2119 1390 1360 729 707 507 274 653 336 239 72 222 302 255 433 208 398 307 91 259 93 177 166 94 340 226 147 167 211 171
is_linear=0
shrinkage=0.02


Tree=15
num_leaves=31
num_cat=0
split_feature=28 391 39 391 256 391 334 20 276 199 90 247 141 223 359 320 167 270 196 219 372 284 55 270 339 257 199 226 46 202
split_gain=23.8836 16.6096 9.68073 5.30083 5.1228 5.36142 3.69295 3.31657 2.79514 2.29124 2.23718 2.9112 2.19159 1.72393 1.70663 1.62663 1.51809 1.43558 1.40293 1.83899 1.24606 1.25338 1.1299 1.08882 1.02333 0.866171 1.2165 0.814971 0.801339 0.787052
threshold=0.10837752744555475 0.95846661925315868 -0.33941526710987086 0.10114406421780588 -0.17909009009599683 -0.69211912155151356 0.61229279637336742 -0.036233641207218163 -1.1665796041488645 2.6250709295272832 0.0056942144874483356 -0.096911385655403123 0.026508399285376075 -0.48475341498851771 -0.54100617766380299 4.391179323196412 -0.11758316308259963 0.30851945281028753 -4.8628129959106436 3.6462770700454716 -0.24305007606744763 -0.36293625831603998 -0.1045042537152767 1.1481387019157412 0.27103245258331304 -0.58454960584640492 -1.4626025557518003 1.8373804092407229 -0.014162661973387001 -1.1201657056808469
decision_type=2 2 2 2 2 2 2 2 2 2 2 2 2 2 2 2 2 2 2 2 2 2 2 2 2 2 2 2 2 2
left_child=1 4 -2 6 9 10 25 24 -8 15 27 -12 -5 20 -15 18 -9 -10 -1 -20 -7 29 -21 -16 -3 26 -4 -6 -14 -22
right_child=2 7 3 12 5 13 8 16 17 -11 11 -13 28 14 23 -17 -18 -19 19 22 21 -23 -24 -25 -26 -27 -28 -29 -30 -31
leaf_value=-0.00091944902396664543 -0.014277335422880509 0.0038530731818785793 -0.0059697146097133901 0.0042126783985281134 -0.0020966612160290506 -0.0025194452524285866 -0.011932629436455868 -0.00047331955618201162 -0.0022792985108257692 0.0065538253257982435 -0.0087061489839106807 -0.0024930251460108495 0.0002853227178760183 0.0059707997070673185 0.0025616191145139363 -0.0023924007961669794 0.0041147900582104921 -0.0075503262747888978 -0.00024512444214563661 0.005594305935977162 -0.0025621591656860231 0.001389284137218003 0.0023815079993675563 -0.0018859902770657624 0.008020706908956456 -0.0015867080966438217 -0.00093690803216304628 0.00088579327281331638 -0.003687286061855654 9.0078219894117618e-05
leaf_weight=56 32 36 56 39 141 72 35 37 42 38 46 88 46 37 58 37 123 44 71 67 67 205 137 33 128 114 30 48 34 127
leaf_count=56 32 36 56 39 141 72 35 37 42 38 46 88 46 37 58 37 123 44 71 67 67 205 137 33 128 114 30 48 34 127
internal_value=-1.07085e-05 0.00112357 -0.00396867 -0.00315774 0.000130366 -0.000694023 -0.00448729 0.00516871 -0.00722855 0.00199673 -0.00276246 -0.00472255 0.000443579 0.000426826 0.00246576 0.00149327 0.00306105 -0.00508641 0.00193938 0.00252398 -0.000135362 0.000305269 0.00348076 0.000942876 0.00716331 -0.00277368 -0.00427528 -0.00133787 -0.00145179 -0.000842698
internal_weight=2124 1652 472 440 1328 922 321 324 121 406 323 134 119 599 128 368 160 86 331 275 471 399 204 91 164 200 86 189 80 194
internal_count=2124 1652 472 440 1328 922 321 324 121 406 323 134 119 599 128 368 160 86 331 275 471 399 204 91 164 200 86 189 80 194
is_linear=0
shrinkage=0.02


Tree=16
num_leaves=31
num_cat=0
split_feature=28 39 185 337 291 269 8 320 237 291 245 346 110 201 337 393 256 384 338 330 384 320 199 345 348 59 277 347 221 196
split_gain=20.6892 11.0761 9.64867 5.25251 4.41576 3.2791 2.5901 2.36551 2.30205 2.02936 2.49707 2.01767 1.92994 2.11697 1.70973 1.74128 1.59191 1.41495 1.34568 1.31852 1.28419 1.15699 1.14434 1.15286 1.22539 1.07401 1.00636 0.919095 0.885714 0.854867
threshold=0.12817998230457309 -0.33941526710987086 0.26650391519069677 0.35327449440956121 1.3101217746734621 -2.2458641529083248 0.087406586855649962 1.3115363121032717 -3.9421250820159908 -2.6913264989852901 1.3859463930130007 0.53422871232032787 -0.01781748607754707 -1.1218148469924925 -0.33158341050148005 -0.25937639176845545 0.58953189849853527 -0.5520116090774535 0.72541239857673656 -0.94446101784706105 -0.5847516357898711 0.93504080176353466 -1.6014084815979002 -0.71805343031883229 0.5160098969936372 -0.0003896409180015325 -1.0399643182754514 0.81105816364288341 -1.6660063862800596 -1.3113486766815183
decision_type=2 2 2 2 2 2 2 2 2 2 2 2 2 2 2 2 2 2 2 2 2 2 2 2 2 2 2 2 2 2
left_child=2 -2 3 4 9 -3 7 28 27 10 18 -10 -4 -14 -15 -16 26 -11 -1 -18 -20 -21 25 -24 -25 -19 -13 -5 -7 -28
right_child=1 5 12 8 -6 6 -8 -9 11 17 -12 16 13 14 15 -17 19 22 20 21 -22 -23 23 24 -26 -27 29 -29 -30 -31
leaf_value=0.0016272927551983377 -0.014270151367312984 -0.0083455118497367947 -0.00091709845146397133 0.007273778079228627 0.0051288886097609065 -0.0035083602280653221 0.0020371840757374858 -0.0064042674173556621 -0.0036142087203916164 0.0010367515726141972 -0.0075170668018491654 0.00054865748347604981 0.0062212885505453291 0.00056728101359345979 0.006147411574755097 0.0010969460132635302 0.0032584784859015299 -0.0055542927244916938 -0.000378635020762751 0.00064254812690286111 -0.0045696214819326997 -0.0031137570564169436 -0.002795672814690453 -0.00072594061185206685 0.0024548881078389154 -0.0014328006737632675 0.0057670560447049555 0.0028829707552258878 -0.00098122007514747406 0.0023504662642281661
leaf_weight=35 36 38 30 35 46 92 47 61 30 163 36 49 138 76 78 43 46 37 52 102 66 46 66 173 65 78 56 49 141 69
leaf_count=35 36 38 30 35 46 92 47 61 30 163 36 49 138 76 78 43 46 37 52 102 66 46 66 173 65 78 56 49 141 69
internal_value=2.76586e-05 -0.00395643 0.00102484 0.000215491 -0.000761023 -0.002907 -0.00225582 -0.00295125 0.00186701 -0.00112479 -0.00291424 0.00121868 0.00388838 0.00432161 0.00294173 0.00439964 0.00163007 -0.000535694 -0.0017482 0.000376386 -0.00275984 -0.000550902 -0.00114943 -0.000498915 0.000155991 -0.00283112 0.00300769 0.00483908 -0.00200043 0.00394781
internal_weight=2079 415 1664 1299 817 379 341 294 482 771 189 398 365 335 197 121 368 582 153 194 118 148 419 304 238 115 174 84 233 125
internal_count=2079 415 1664 1299 817 379 341 294 482 771 189 398 365 335 197 121 368 582 153 194 118 148 419 304 238 115 174 84 233 125
is_linear=0
shrinkage=0.02


Tree=17
num_leaves=31
num_cat=0
split_feature=81 387 106 199 320 333 133 261 330 69 254 8 193 105 238 149 278 378 253 385 234 11 384 238 298 70 292 293 330 385
split_gain=24.0262 15.3137 9.36601 6.41095 4.2147 4.16004 3.32138 2.78054 2.16943 2.0954 1.93614 2.11696 1.91669 1.91371 1.87283 1.76767 1.66643 1.43501 1.23541 1.2625 1.19422 1.13474 1.03896 1.00482 0.92663 0.890656 1.11223 0.825181 0.810296 0.746604
threshold=-0.051388917490839951 -0.96325200796127308 -0.11097820848226546 -1.5636342167854307 0.95468589663505565 2.9207495450973515 0.21052552759647372 0.56372559070587169 1.1369495987892153 0.18860784173011783 1.5911775231361391 0.037330603227019317 -3.4405713081359859 0.1114775985479355 1.1089821457862856 -0.022938887588679787 0.86212560534477245 5.190331459045411 -0.73840042948722828 0.19645105302333835 2.8406333923339848 0.029758518561720852 -0.58554819226264943 0.46126244962215429 1.902737081050873 -0.037709541618823998 0.19822935760021212 -1.992835998535156 -1.29698771238327 0.19187632948160174
decision_type=2 2 2 2 2 2 2 2 2 2 2 2 2 2 2 2 2 2 2 2 2 2 2 2 2 2 2 2 2 2
left_child=2 6 -1 12 16 8 15 21 9 10 11 -5 14 24 18 20 27 25 29 22 -2 -6 -20 -17 -10 -12 -27 -4 -28 -3
right_child=1 3 4 5 7 -7 -8 -9 13 -11 17 -13 -14 -15 -16 23 -18 -19 19 -21 -22 -23 -24 -25 -26 26 28 -29 -30 -31
leaf_value=-0.013020805906825922 0.005500285996857918 -0.0023927394402298062 -0.0024591122810023887 0.001600794177939928 -0.0010326501768940944 0.0068989220945893425 -0.0011471431255888414 -0.011185284998800074 -0.0010593981267322369 -0.0036761673568098834 -0.0018680508923716844 0.0057644928897420565 -0.0064411536252333059 -0.0049020982183338628 0.0014870937174595329 0.0064546747108300533 -0.005812119406958422 -0.0013876758147962393 -0.00027025980997661298 0.00081318943896263401 0.0094283942232529332 -0.0060339575842022902 -0.0038181461886701625 0.0027615897425789836 0.0022695785033655293 0.0034500566262613574 0.0018474993335181162 -0.00032029061370554405 -0.00060723591575419515 -0.0064526624624666419
leaf_weight=40 97 42 142 147 30 44 32 33 114 31 30 73 34 40 64 43 37 98 53 67 58 48 87 105 45 94 131 146 89 36
leaf_count=40 97 42 142 147 30 44 32 33 114 31 30 73 34 40 64 43 37 98 53 67 58 48 87 105 45 94 131 146 89 36
internal_value=-2.76692e-05 0.0011125 -0.00397759 0.000140135 -0.00309227 0.00103188 0.00491745 -0.00642679 0.000727688 0.00125563 0.00149695 0.00302187 -0.00203321 -0.00110502 -0.00156952 0.00556125 -0.00192106 0.000727746 -0.0022615 -0.00142856 0.00707154 -0.00418428 -0.00249774 0.00390634 -0.000100745 0.00133493 0.00165084 -0.00138454 0.000857923 -0.00438102
internal_weight=2130 1654 476 1319 436 936 335 111 892 693 662 220 383 199 349 303 325 442 285 207 155 78 140 148 159 344 314 288 220 78
internal_count=2130 1654 476 1319 436 936 335 111 892 693 662 220 383 199 349 303 325 442 285 207 155 78 140 148 159 344 314 288 220 78
is_linear=0
shrinkage=0.02


Tree=18
num_leaves=31
num_cat=0
split_feature=28 88 392 353 352 167 44 341 199 329 218 242 334 102 199 39 249 392 202 142 102 334 113 349 102 329 133 306 215 393
split_gain=21.9353 10.1364 8.5164 3.36031 3.16056 3.11295 2.45953 2.32085 2.25168 2.0959 1.78214 2.19063 2.51118 2.0883 1.77641 1.64302 1.80046 1.58907 1.49044 1.41048 1.30013 1.1471 1.13872 1.82374 1.13847 1.10538 1.03179 0.959093 0.956483 0.937439
threshold=0.027614013291895393 0.48737390339374548 -0.42669795453548426 1.7816304564476015 1.9620729088783266 0.30667012929916387 -0.079619478434324251 1.9218519926071169 -0.21439864486455915 1.5027570128440859 -0.15934547036886212 -2.4430871009826656 0.65484666824340831 0.14241197705268863 1.4478150606155398 -0.11129233613610266 0.017003057524561885 0.097886417061090483 -0.69256567955017079 0.036596633493900306 -0.22021131962537763 -0.23084104806184766 0.030385589227080349 -1.1489316821098325 0.16813702136278155 0.72591498494148265 -0.11641075834631918 -0.031600445508956902 0.78445908427238475 -0.25937639176845545
decision_type=2 2 2 2 2 2 2 2 2 2 2 2 2 2 2 2 2 2 2 2 2 2 2 2 2 2 2 2 2 2
left_child=2 4 5 8 6 7 18 9 17 22 11 -6 -13 -14 -7 16 -5 28 24 -11 -19 -22 23 -1 -2 -10 -23 -12 -4 -24
right_child=1 -3 3 15 10 14 -8 -9 25 19 27 12 13 -15 -16 -17 -18 20 -20 -21 21 26 29 -25 -26 -27 -28 -29 -30 -31
leaf_value=-0.0014793143876724775 -0.0018415754856024352 -0.013020278461579535 0.0008142235433467879 -0.0009676798623404466 -9.8762057591662844e-05 0.0042826660124410413 0.0020228652710495734 0.0073157711684082947 0.0031568359232374598 0.0019454145721498539 0.0017733371487873443 -0.0032433081149382697 -0.0052095912233220808 -0.011708086439791848 0.0089180208613043252 -0.0017745028156787158 0.0038279946700247548 0.00051534395478665829 -0.00089712255561533269 0.0061669838599825522 -0.0010749665991170332 -0.0073136117022383866 0.00040153053589165211 0.004409446561364278 -0.0067495776531664095 -2.5203180404664093e-05 -0.0031340263550018155 -0.0030173956563301157 -0.0027569260128224508 -0.0034682065807282924
leaf_weight=34 43 35 128 38 41 158 84 31 68 86 32 131 64 32 44 34 159 43 193 51 62 35 66 50 35 116 84 31 37 38
leaf_count=34 43 35 128 38 41 158 84 31 68 86 32 131 64 32 44 34 159 43 193 51 62 35 66 50 35 116 84 31 37 38
internal_value=5.6235e-06 -0.00281068 0.00149842 0.00017905 -0.00225345 0.00339203 -0.000934391 0.00224603 -0.000642441 0.00172067 -0.00365404 -0.00436117 -0.00512344 -0.00757049 0.00536988 0.0022048 0.00290251 -0.00150232 -0.00185914 0.00358307 -0.00259176 -0.00332747 0.000340062 0.00204693 -0.00415757 0.00117207 -0.00446388 -0.000604317 -1.00063e-05 -0.00105117
internal_weight=2083 721 1362 804 686 558 355 356 573 325 331 268 227 96 202 231 197 389 271 137 224 181 188 84 78 184 119 63 165 104
internal_count=2083 721 1362 804 686 558 355 356 573 325 331 268 227 96 202 231 197 389 271 137 224 181 188 84 78 184 119 63 165 104
is_linear=0
shrinkage=0.02


Tree=19
num_leaves=31
num_cat=0
split_feature=75 387 392 154 176 92 351 8 144 285 45 276 368 256 234 312 133 92 182 320 59 389 308 144 23 76 382 330 381 258
split_gain=19.604 14.682 6.79204 6.64247 3.15825 2.44712 2.43699 2.20202 2.11956 2.02017 2.15033 1.89177 1.88433 1.60931 1.56431 1.46441 1.54708 1.41982 1.26525 1.13018 1.19316 1.07421 1.07053 1.06375 1.02529 0.994199 0.922713 0.911394 0.895843 0.840935
threshold=-0.070766419172286973 -0.96325200796127308 0.23079036921262744 -0.066086012870073305 0.082269866019487395 0.0019023147178813817 -4.0579607486724845 0.028605937957763675 0.30314587056636816 2.4742276668548588 -0.22230557352304456 -1.5416055917739866 1.3528741598129275 -1.1123751997947691 1.5998675823211672 -2.5969902276992793 -0.22970401495695111 7.1608916186960428e-05 0.0035692672245204453 -0.66495415568351735 1.0000000180025095e-35 -0.65380889177322377 -0.10335118323564528 0.13122943043708804 -0.021523629315197464 0.019674165174365047 0.44779565930366522 -0.066407695412635789 -0.40744237601757044 -4.7259075641632071
decision_type=2 2 2 2 2 2 2 2 2 2 2 2 2 2 2 2 2 2 2 2 2 2 2 2 2 2 2 2 2 2
left_child=3 9 4 -1 6 -6 22 21 11 10 -2 26 13 -4 18 28 -17 -9 -13 -15 29 -5 -3 24 -11 -18 -8 -12 -16 -21
right_child=1 2 12 7 5 -7 8 17 -10 23 27 14 -14 19 15 16 25 -19 -20 20 -22 -23 -24 -25 -26 -27 -28 -29 -30 -31
leaf_value=-0.01271131297050998 0.0036648372607305645 0.00092041302166223811 0.0027166888761249457 -0.0041224051906580206 0.008910318972034887 0.0011290481441787311 -0.00087470750324428084 -0.010003735122736543 -0.0044329060723957347 0.00075124602221573404 0.0097914723396577228 0.0013738170025778384 -0.0054664192235629469 0.00023523153836971949 0.0026780087200970184 0.006401509750973095 0.0023220635555104246 -0.0035666554723866283 -0.0019732370188832284 -0.0067329542008893826 -0.0015875625832182333 -0.00071368982966401088 0.0047406049220967044 -0.00082629773940425368 0.0052683767736520027 -0.0010897523253446534 -0.0049985695276700427 0.0054158813242490087 -0.00064200106125835116 -0.0028053063671349692
leaf_weight=39 106 52 31 74 31 33 71 30 37 34 52 69 54 82 39 31 197 30 123 33 252 74 69 30 50 40 30 46 155 74
leaf_count=39 106 52 31 74 31 33 71 30 37 34 52 69 54 82 39 31 197 30 123 33 252 74 69 30 50 40 30 46 155 74
internal_value=-4.93191e-05 0.000669703 -0.000158269 -0.00531309 0.000828001 0.0050539 0.000521372 -0.00381807 0.00011432 0.00455957 0.00575002 0.000348287 -0.00198638 -0.00156685 0.000743081 0.00137193 0.00232434 -0.00700407 -0.000768627 -0.00187887 -0.00236038 -0.00245029 0.00314053 0.00236689 0.00350001 0.00174193 -0.00217289 0.00788702 4.59397e-05 -0.00411795
internal_weight=2068 1821 1503 247 977 64 913 208 792 318 204 755 526 472 654 462 268 60 192 441 359 148 121 114 84 237 101 98 194 107
internal_count=2068 1821 1503 247 977 64 913 208 792 318 204 755 526 472 654 462 268 60 192 441 359 148 121 114 84 237 101 98 194 107
is_linear=0
shrinkage=0.02


Tree=20
num_leaves=31
num_cat=0
split_feature=24 398 238 230 72 337 28 308 198 135 382 250 337 338 118 336 122 373 323 296 43 118 302 300 309 42 384 378 384 130
split_gain=17.9969 10.4415 5.8627 5.40473 4.37775 3.45828 3.30511 2.99838 2.6442 2.46901 1.84592 1.76724 1.67886 1.61418 1.40812 1.34721 1.31183 1.29178 1.22932 1.51564 1.15894 1.1337 1.34266 1.03985 0.988967 0.980689 0.91455 1.57876 0.888088 0.876744
threshold=-0.017883920110762116 2.1842894554138188 -0.12498631700873374 -0.33262318372726435 -0.001454251760151237 0.34280148148536688 0.087592277675867095 -0.22755414247512815 -1.814346134662628 0.077978774905204787 -1.793263792991638 1.9023421406745913 0.36502479016780859 0.45892597734928137 0.10185759887099267 -0.071460619568824754 -0.42361401021480555 2.3506191968917851 -1.2102734446525572 -0.96395152807235707 0.34922395646572119 0.055011253803968437 0.49886405467987066 1.1263009309768679 0.2010757848620415 0.053541092202067382 -0.21934976428747174 6.1344904899597177 -0.5847516357898711 -0.036960059776902192
decision_type=2 2 2 2 2 2 2 2 2 2 2 2 2 2 2 2 2 2 2 2 2 2 2 2 2 2 2 2 2 2
left_child=3 2 4 7 9 10 12 18 -8 -2 -5 20 21 17 23 28 -9 -10 -1 25 -7 24 -23 -14 -4 -20 -12 -28 -6 -17
right_child=1 -3 6 5 15 11 8 16 13 -11 26 -13 14 -15 -16 29 -18 -19 19 -21 -22 22 -24 -25 -26 -27 27 -29 -30 -31
leaf_value=-0.00098100956635815756 -0.0037081661424599589 -0.012188241935202054 0.0018625565268702701 -0.0050889827480370357 -0.00047847371661990159 -0.0006593456642613524 -0.007259062556549907 0.0099070316646248102 -0.00092900794084991775 -0.010303911299899566 0.0012189514276612064 0.0069891855082450773 0.0030415809217437702 -0.0038251883683573292 0.0053565863729454575 -0.0021501794472456939 0.0051094539312348851 0.0034600329061504455 0.005536827475161237 -7.0385885968183472e-05 0.0041898584463878679 -0.0025492284730447598 0.0011726789964271373 -0.00024222917797997958 -0.0015493083186447622 0.0022949416583174136 -0.0029780563319178476 0.0023653603228740395 -0.0039288678326685087 0.00051462559161250887
leaf_weight=33 56 33 140 31 39 40 30 30 164 41 113 37 72 65 44 91 136 30 83 46 36 106 59 80 43 75 71 30 134 104
leaf_count=33 56 33 140 31 39 40 30 30 164 41 113 37 72 65 44 91 136 30 83 46 36 106 59 80 43 75 71 30 134 104
internal_value=-3.42433e-06 -0.00140552 -0.00111306 0.00244613 -0.00290686 0.000651769 -0.000107154 0.00402903 -0.00182843 -0.0066479 -0.000686087 0.00351392 0.000810619 -0.00114859 0.00228089 -0.00189016 0.00608411 -0.00022191 0.00255074 0.00312603 0.00168618 -2.57689e-05 -0.00122026 0.00133256 0.00105278 0.00404588 -7.07022e-06 -0.00137579 -0.00316539 -0.000738154
internal_weight=2092 1331 1298 761 465 358 833 403 289 97 245 113 544 259 196 368 166 194 237 204 76 348 165 152 183 158 214 101 173 195
internal_count=2092 1331 1298 761 465 358 833 403 289 97 245 113 544 259 196 368 166 194 237 204 76 348 165 152 183 158 214 101 173 195
is_linear=0
shrinkage=0.02


Tree=21
num_leaves=31
num_cat=0
split_feature=28 392 2 291 397 120 201 333 68 296 325 338 123 150 246 41 122 385 353 199 91 145 201 325 279 120 77 10 348 343
split_gain=18.7136 10.278 8.50535 4.52519 4.49437 3.63193 2.80579 2.64847 2.25389 2.19295 1.9527 1.92029 1.81965 2.06385 1.80921 1.38547 1.34564 1.27327 1.23146 1.12393 1.07712 1.07443 0.992285 0.973101 1.01129 1.03828 0.90155 0.880579 0.873656 0.83579
threshold=0.10837752744555475 -0.099309187382459627 0.25163173675537115 -1.7210718393325803 -0.30782702565193171 0.053917285054922111 -1.4241423010826109 -1.5989413261413572 0.13386592268943789 2.4988751411437993 -0.56683620810508717 -0.21390631049871442 -0.015432849526405333 0.07995797693729402 0.20651721954345706 0.34064015746116644 -0.22480592876672742 -0.32801027595996851 1.1484143137931826 -1.5636342167854307 0.17288937419652942 0.13474175333976748 -1.0628234744071958 -0.55136230587959278 -0.70077934861183155 -0.038608144968748086 -0.056826807558536523 0.05164367891848088 0.071735143661499037 0.77653273940086376
decision_type=2 2 2 2 2 2 2 2 2 2 2 2 2 2 2 2 2 2 2 2 2 2 2 2 2 2 2 2 2 2
left_child=1 4 7 5 6 8 16 -2 15 23 -5 20 -8 18 -13 17 -1 -3 -14 27 -9 -22 -12 24 29 -26 -20 -17 -15 -6
right_child=2 3 -4 10 9 -7 12 11 -10 -11 22 14 13 28 -16 19 -18 -19 26 -21 21 -23 -24 -25 25 -27 -28 -29 -30 -31
leaf_value=0.0087769646100975852 -0.008142850554415158 -0.0027121237506055169 -0.013129666294370379 -0.00061109227930507303 0.0036267428458086216 0.0014587375312470475 -0.00068949299144013875 0.0021241851082365766 -0.008815019365512964 -0.003864835482845838 0.0046498977410238847 -0.0024494949893749045 0.0015510973702509737 0.0026726307174300447 -0.0066186482019600324 -0.0011309665596112609 0.0042309374109244166 -0.0080951585587771512 0.0074849041106720129 0.0012341024938627685 0.0011122138231930453 -0.0026031048604587127 0.0011859185826510956 0.0031668192425333874 0.0019322972767986358 -0.0013988233706707844 0.0040716244164725832 -0.0053654004165104453 -0.00061801358741128221 -0.00011203443864360452
leaf_weight=52 33 43 33 297 62 63 51 36 31 35 41 146 41 83 59 48 65 32 60 36 41 116 154 80 54 111 85 33 51 38
leaf_count=52 33 43 33 297 62 63 51 36 31 35 41 146 41 83 59 48 65 32 60 36 41 116 154 80 54 111 85 33 51 38
internal_value=-8.67621e-05 0.000913945 -0.00362537 -0.000754574 0.00240776 -0.00274583 0.00367408 -0.00284038 -0.00393608 0.000770817 0.000409377 -0.00236221 0.00279589 0.00335221 -0.00370175 -0.00306558 0.00636495 -0.00515949 0.00470741 -0.00165917 -0.000916011 -0.00163108 0.00195406 0.00126067 0.000665812 -0.000298553 0.00556664 -0.00294382 0.00142955 0.00223167
internal_weight=2110 1646 464 778 868 286 488 431 223 380 492 398 371 320 205 192 117 75 186 117 193 157 195 345 265 165 145 81 134 100
internal_count=2110 1646 464 778 868 286 488 431 223 380 492 398 371 320 205 192 117 75 186 117 193 157 195 345 265 165 145 81 134 100
is_linear=0
shrinkage=0.02


Tree=22
num_leaves=31
num_cat=0
split_feature=75 387 112 140 392 296 291 55 323 73 334 312 346 328 296 381 115 62 16 79 235 270 258 345 291 46 135 191 315 285
split_gain=18.0159 13.2999 5.93168 5.5004 4.60358 3.829 3.08614 2.30144 2.13026 1.86994 1.56111 1.43886 1.36036 1.30735 1.26247 1.2115 1.20779 2.05528 1.07436 1.07265 1.03615 1.02405 0.964813 0.946302 0.921824 0.84712 0.813559 0.894196 0.776599 0.713292
threshold=-0.064785990864038454 -0.96325200796127308 0.43259048461914068 -1.1384848952293394 0.21926519274711612 -1.1559746265411375 -1.8454111814498899 0.17866399884223941 1.5974653363227846 -0.29992505908012385 1.5615260601043703 -2.8444195985794063 2.4969307184219365 2.9688376188278203 -1.6567838191986082 -4.1144073009490958 0.20860996097326281 0.25897499918937689 -0.0013523243251256643 0.00047749890654813504 -1.3140732049942014 0.45418199896812445 -5.3191199302673331 0.71039900183677684 -0.28432065248489374 -0.010718618053942917 0.053329901769757278 0.02851345390081406 1.5276234149932864 2.9385718107223515
decision_type=2 2 2 2 2 2 2 2 2 2 2 2 2 2 2 2 2 2 2 2 2 2 2 2 2 2 2 2 2 2
left_child=2 7 8 15 5 11 13 9 12 18 19 21 20 -6 24 -3 17 -13 -2 22 -1 -5 29 -11 -8 -24 27 -16 -12 -7
right_child=1 3 -4 4 6 10 14 -9 -10 23 28 16 -14 -15 26 -17 -18 -19 -20 -21 -22 -23 25 -25 -26 -27 -28 -29 -30 -31
leaf_value=-0.0022718050245686557 0.0038381392895602265 0.00796739328765508 -0.01248189301613499 0.003409176374386464 -0.0030131666205641568 -0.0033828067647723053 -0.0053576054221775851 0.00077722844838475189 -0.00753850145011463 0.0043819909057735158 -0.0035869322822516181 0.0073845611359657981 0.0011724613550485987 -0.0075389680426451383 0.00038059662175537258 0.0028903509585017505 0.00073863053803934766 0.0022720670275739392 0.0076169411255381046 0.001412642233312119 -0.0056786172949480559 -0.00028627069471491817 0.0021229347396197161 0.0004218213183757586 -0.00094373799403946776 -0.0008707610432101393 0.0023968405931373126 -0.0028499632288256417 -0.00051869493971268342 -0.00027718079978959601
leaf_weight=127 50 31 32 40 167 63 30 58 42 70 77 54 31 30 133 53 49 78 115 165 51 104 65 37 49 85 50 44 58 55
leaf_count=127 50 31 32 40 167 63 30 58 42 70 77 54 31 30 133 53 49 78 115 165 51 104 65 37 49 85 50 44 58 55
internal_value=7.29041e-05 0.00080803 -0.00460146 -3.51058e-06 -0.000305505 0.000556461 -0.00183194 0.00442576 -0.00350606 0.00519241 -0.000434701 0.00228077 -0.00263194 -0.00377122 -0.000567065 0.00490574 0.00345886 0.00444254 0.00653153 0.000153356 -0.00330016 0.000772882 -0.000626672 0.00304545 -0.00271079 0.000437371 0.000196148 -0.000445351 -0.00229554 -0.00196401
internal_weight=2093 1810 283 1480 1396 893 503 330 251 272 568 325 209 197 306 84 181 132 165 433 178 144 268 107 79 150 227 177 135 118
internal_count=2093 1810 283 1480 1396 893 503 330 251 272 568 325 209 197 306 84 181 132 165 433 178 144 268 107 79 150 227 177 135 118
is_linear=0
shrinkage=0.02


Tree=23
num_leaves=31
num_cat=0
split_feature=24 175 238 91 269 384 296 72 249 284 337 337 312 367 240 129 239 261 376 213 93 270 238 335 202 77 213 3 384 192
split_gain=17.1637 8.45989 4.34626 3.98522 3.75927 3.61513 3.27096 3.04825 2.56584 2.08976 1.80538 1.64335 1.48995 1.34341 1.33294 1.32107 1.41963 1.17123 1.08634 1.01607 1.25448 1.01224 0.988514 0.882768 0.866689 0.853658 0.850452 0.833253 0.828695 0.814915
threshold=-0.017883920110762116 0.20843540877103808 -0.12498631700873374 0.1488025784492493 -2.0598806142807002 -0.14147920906543729 -0.96395152807235707 -0.001454251760151237 0.46276597678661352 1.0000000180025095e-35 1.0000000180025095e-35 0.55518484115600597 -2.3370321989059444 2.2773967981338505 -0.9764859378337859 0.044713275507092483 -2.5448414087295528 1.1545577645301821 0.73303481936454784 -0.36246584355831141 -0.046407317742705338 0.19846109300851825 -0.5739576220512389 2.6399995088577275 -0.92175179719924916 -0.0082389027811586839 -0.3173010647296905 0.20587026327848437 0.58379873633384716 3.0637074708938603
decision_type=2 2 2 2 2 2 2 2 2 2 2 2 2 2 2 2 2 2 2 2 2 2 2 2 2 2 2 2 2 2
left_child=5 2 7 10 -5 6 11 9 -7 -2 15 14 19 -13 -1 16 25 27 -10 -12 -21 -6 -19 26 -18 -4 -8 -9 -23 -16
right_child=1 -3 3 4 21 8 23 17 18 -11 12 13 -14 -15 29 -17 24 22 -20 20 -22 28 -24 -25 -26 -27 -28 -29 -30 -31
leaf_value=0.0057152175547724414 -0.0034831702337485919 -0.011597017445601524 0.0031241956108102676 -0.0089954973489158995 0.00063583891454822654 -0.0038637218885123731 0.0046720115584986547 -3.764851914288906e-05 8.0789768321136397e-05 -0.010011440531542416 0.0023735222004283713 0.0091981799612403849 0.0028259173429610361 0.0045681687949659074 0.0033969837586444456 0.0025212924552919427 -0.0049210865776005549 -0.0017554383123247084 0.002790655350094443 0.0013124737590003541 -0.0029790187254548073 -0.0014518813878195743 -0.004989015881567159 -0.0013555793628273977 -0.0014618369950440482 -0.00065543324948073585 0.0010362831737301401 -0.0025271468363359741 -0.0053945611696690323 4.4763635996044903e-05
leaf_weight=64 55 30 36 31 55 43 33 141 127 32 51 46 164 71 74 44 36 87 109 49 57 71 70 40 136 63 104 85 30 47
leaf_count=64 55 30 36 31 55 43 33 141 127 32 51 46 164 71 74 44 36 87 109 49 57 71 70 40 136 63 104 85 30 47
internal_value=-6.01076e-05 -0.00143435 -0.00118101 -0.000302773 -0.00285303 0.00233593 0.00338667 -0.00271106 0.000520702 -0.00605539 0.000453658 0.00464657 0.00150487 0.00651251 0.00340946 -0.000620313 -0.00114512 -0.00192387 0.00134531 0.000106734 -0.00100765 -0.00153399 -0.00324178 0.00120912 -0.00223411 0.000753626 0.00196666 -0.000987919 -0.00270498 0.00211678
internal_weight=2081 1323 1293 823 187 758 479 470 279 87 636 302 321 117 185 315 271 383 236 157 106 156 157 177 172 99 137 226 101 121
internal_count=2081 1323 1293 823 187 758 479 470 279 87 636 302 321 117 185 315 271 383 236 157 106 156 157 177 172 99 137 226 101 121
is_linear=0
shrinkage=0.02


Tree=24
num_leaves=31
num_cat=0
split_feature=24 398 391 391 152 150 24 102 131 330 180 152 337 352 142 68 72 39 2 291 337 290 54 144 279 99 188 331 312 197
split_gain=15.8249 8.85386 7.99818 7.46559 3.04904 2.74643 2.54675 2.1852 3.02647 2.17674 1.76674 1.74244 1.47834 1.42886 1.28552 1.58944 1.26123 1.67139 1.26903 1.25517 1.15479 1.14711 1.12494 1.02056 0.961921 0.924147 0.823647 0.774652 0.767542 0.754995
threshold=-0.017883920110762116 2.0439261198043828 0.95846661925315868 -0.3147683292627334 -0.10125386714935301 0.068151880055665984 0.079848676919937148 0.16607383638620379 -0.047214180231094353 1.1595311760902407 0.024461306631565097 -0.018380007706582543 0.54789462685585033 1.5550079345703127 0.17975503206253055 -0.12424007803201674 0.0012600192567333581 0.11772624775767328 0.025525366887450222 -1.9092432260513303 0.12449441850185396 -0.67434188723564137 -0.063841823488473878 0.051417483016848571 -0.17891998589038846 -0.00089806743199005712 0.37368252873420721 0.80511277914047252 -3.5956053733825679 -1.5059978961944578
decision_type=2 2 2 2 2 2 2 2 2 2 2 2 2 2 2 2 2 2 2 2 2 2 2 2 2 2 2 2 2 2
left_child=2 3 9 4 5 -2 16 19 -9 14 -4 -11 13 -8 22 -16 17 18 -5 27 -12 28 -1 26 -10 -25 -20 -6 -21 -24
right_child=1 -3 10 6 7 -7 12 8 24 11 20 -13 -14 -15 15 -17 -18 -19 23 21 -22 -23 29 25 -26 -27 -28 -29 -30 -31
leaf_value=-0.0012771570846690969 -0.010272735967818233 -0.0099245410507663775 0.0020739327769639881 -0.00051297697578282916 -0.0052121947729028761 -0.0029980870346097573 -0.00087423949773532416 -0.0090495066913334945 -0.00038590359574025671 -0.0040358271670280672 0.004714998547821792 0.00042348045348790625 0.0008710361672197714 -0.0052176136317519618 0.00086994798354259354 0.0062848642658369213 -0.00029642565052199641 0.0062060876233237128 0.0058349154842026688 -0.0037277549415739488 0.0086555441207699958 0.0026559313371156651 0.0044951074410022962 -0.0017725375994588389 -0.0043912519014987121 0.0023475149317572896 0.0018509264383465053 -0.0018368040162300612 -0.00027769763804428335 0.0013506294411303307
leaf_weight=57 34 45 41 83 30 55 75 36 51 47 65 122 74 50 39 49 126 33 45 30 75 43 34 31 44 63 42 228 135 231
leaf_count=57 34 45 41 83 30 55 75 36 51 47 65 122 74 50 39 49 126 33 45 30 75 43 34 31 44 63 42 228 135 231
internal_value=-9.63943e-05 -0.00139303 0.00220956 -0.00108481 -0.00252051 -0.00594186 0.000501619 -0.00199233 -0.00425813 0.00105356 0.00585552 -0.00084938 -0.00135539 -0.0026664 0.00183826 0.00395773 0.00137752 0.0020849 0.00152697 -0.0013399 0.00691818 -0.000180075 0.00123817 0.0024578 -0.0022933 0.000980153 0.00399642 -0.00226637 -0.000942112 0.00178472
internal_weight=2113 1353 760 1308 686 89 622 597 131 579 181 169 199 125 410 88 423 297 264 466 140 208 322 181 95 94 87 258 165 265
internal_count=2113 1353 760 1308 686 89 622 597 131 579 181 169 199 125 410 88 423 297 264 466 140 208 322 181 95 94 87 258 165 265
is_linear=0
shrinkage=0.02


Tree=25
num_leaves=31
num_cat=0
split_feature=75 296 112 393 256 271 291 136 55 130 259 67 363 351 337 209 110 72 164 373 9 325 298 320 151 271 7 112 247 54
split_gain=16.628 8.80404 4.71261 4.14402 3.33001 2.57185 2.37455 2.08376 1.99252 1.9581 1.94035 1.7604 2.26621 1.7606 1.69224 1.68428 1.60869 1.53897 1.51976 1.50406 1.11079 1.05203 1.03977 1.00828 1.24631 1.2357 0.996071 0.932677 0.923059 0.915272
threshold=-0.064785990864038454 -1.1334706544876096 0.42669379711151129 -0.56041079759597767 0.77995115518569957 0.35838656127452856 -3.1701626777648921 -0.12214832380414008 0.063982028514146819 0.064342200756073012 -0.42967157065868372 -0.063419580459594713 2.5667926073074345 -2.0651452541351314 -0.36377751827239985 -1.7333828806877134 -0.0040689730085432521 0.0018972228863276543 0.085049953311681761 0.061100838705897338 1.0000000180025095e-35 -0.44805292785167689 0.97427168488502514 -0.70543015003204335 -1.1886083483695982 -0.87484586238861073 0.13552237302064898 0.062385957688093192 -0.51032188534736622 0.03380818851292134
decision_type=2 2 2 2 2 2 2 2 2 2 2 2 2 2 2 2 2 2 2 2 2 2 2 2 2 2 2 2 2 2
left_child=2 3 8 7 9 -6 16 -2 10 21 -1 15 13 17 -9 -8 -3 27 26 -19 -11 28 -16 -17 -25 -26 -18 -13 -5 -15
